{"layers":[{"type":"network.DenseLayer","inputSize":784,"outputSize":30,"weights":{"rows":30,"columns":784,"elements":[-0.6343949098876543,-1.2514807161408983,0.7302339879803196,-1.0037032669646038,-0.5645167818575129,0.7130015097605908,-0.11211282938125816,0.5895324764751458,-0.5357734478122027,1.9093386739157339,0.02698229223764775,0.7125118795493648,0.3477897506193791,-1.7694457899310303,-0.6749291949435708,-0.09831227501256797,-0.27680161240073603,0.38787737709034187,-0.647055595919698,0.3578718277809541,-0.4163843478377178,0.04705295394202873,0.4855075965346199,0.1801421357024299,-0.14363450531483613,-0.5183114387784838,1.8512363629059816,-0.38088617288394633,0.1786984491712234,-0.40688061800869363,-0.6399952151416632,0.8285094917873819,-0.4988054812765814,-0.6359734683369529,-0.3147548627986587,0.4726714941707975,-0.4466480457075533,-0.36296936129629975,-1.1208627164195448,1.000752803875971,-1.376455546058138,-0.5012041447758413,0.05869827711885821,0.6676949840353775,0.5583154992007708,-1.1592981498224506,1.9179562276273057,-0.6652107230891278,-1.0646812125165275,-0.18156870907371064,0.3983663085154037,0.6290950990266664,-0.542753770449403,0.3511092493152626,0.6898465656615371,0.5807824701559396,-0.7813995510427596,-0.10334886495820185,0.24645919582341677,-0.15864825561231902,-1.9552613675998158,-0.3790771745443125,0.8493864035970389,-1.2537162288393342,0.49634357522226197,-0.06759380093585204,-0.4683870703144268,-1.3747839059119624,2.1588867059341825,-0.4221959674575512,1.6113252678890249,-0.11390585888620555,0.6884734259978547,1.484184025572067,0.6692312389042979,-0.5486795125617366,-0.8729219214289803,0.8571567288584209,0.42322238625020986,-0.9063536542211035,-0.5880655299255086,-1.0326035038495283,-0.7016995302532552,0.32427974840845153,0.20584900842748652,-0.44185919902975396,1.36830151074418,-0.7145989323216315,0.24430886558595757,-0.9610481566423661,-0.968435282128106,0.1743789841494559,-0.37345131097823453,0.8451130490312548,-0.007781936968728327,0.305373702956018,0.09185388045826372,-1.663504803520011,0.31289140191552256,-1.145906402844634,0.6657637209063428,0.1604954070602283,-0.610210003678905,0.23268041348830606,-0.9146402947289459,0.4169798384280712,0.1591677437276623,-0.7839011650926578,0.30029863622861164,0.9047481736764678,0.2034187790993066,-0.23648796006010056,-0.4453859693464789,-0.06853253779390185,0.9422033914290573,-1.3980053497684017,0.03801046902832303,-0.47739146290043316,-0.6425561679864233,-0.11335632283704132,0.3380761810128626,0.5299852971267436,2.9466309277081058,-1.2192722978914379,0.16584488434845607,0.23422743932633072,-1.430353183379347,-1.0142557021493546,-0.5285278483124294,-1.4688898279304305,-0.6754595882364727,-1.4332641027613198,0.4556442390991171,0.6326582297501563,-0.4801304371655062,1.2007575546601144,-0.9078223984504895,-0.32460614755967154,-0.6180875953072418,0.851836681243657,-1.2149553343910742,1.3254903765953485,1.7473246125587192,0.5378963412757123,-0.16206518273301743,-0.5980114980267072,-0.1749579601555379,-0.782039603382926,-1.6189921681796933,-1.9755928168231562,0.504870535285735,0.09451967006826868,-0.0866139511826394,-1.4579105290365972,-1.113184343902257,-2.7347689353909703,-1.3278513474785807,-0.41378135092945034,0.8296254081510364,-0.591514664120744,-0.8987463374508182,-0.02669448019143126,0.5398802407004577,0.9722252856329595,1.214930791722932,-0.31812079439734087,0.6331841494372616,-2.0480389334733387,0.9871603251882303,-0.086383982355175,0.04164481538276761,0.2418631967371036,0.35374281446858924,0.21872418006099653,-1.4376765133165517,-0.643423649849304,-0.9543809750026058,-0.8632952388956604,0.1613646597363946,-0.39105109886136136,-0.9506351500442917,0.5538782481978513,0.09867890976231722,-1.6948004213700698,-0.955381551745016,-1.8807621462615665,-0.5880115395538257,-0.805514537584755,-0.6290219030637799,-0.3000155637703807,0.9817965394335361,-0.33404332178460344,-0.7344457757852377,-0.161444408661014,-0.5175418123883114,-0.8729435345276818,1.2756352014326653,-0.004902367879306801,1.0521596531083333,-1.7493046767069031,0.36820198136040744,0.7955980097020601,0.7486176320425044,-0.39269021855375474,0.0812847511362797,-0.32834966200997256,0.7482826870907711,0.5149828658661084,1.0011771877744844,0.4734263750174615,0.6904582393650461,1.2383821325223359,-0.4022241184749055,-1.4576542151423373,-0.6641562635097934,-0.22629541322243774,0.2621148281663591,0.49646291523903197,-0.5769136735342999,-0.36214661017017546,-1.3813121333982943,0.0641132258385433,-0.8286638834576697,-0.10312010580339927,-1.490750653588021,-0.4353890170067315,-0.7308748785992547,0.021246843343406496,0.9662992015785686,0.8246423519109453,-0.9981089788329456,-0.2095198235981508,0.8528837033746574,-0.3120931973339088,1.2699809446272847,1.7136367522824696,0.32321366255358347,-0.1347865785624485,-0.41741763246828056,-0.6839350965292667,-1.6100290507368704,0.3024774198154922,-0.1900840766673395,-0.8768772256549774,-0.2063500481527825,0.38455206386557605,-0.6837918184301538,-0.06302422295784083,-0.9734107313639772,-0.1783919833556703,0.5663697540901002,-0.7694843097087398,2.167497360930991,-0.9546833284181513,-0.9233950399482783,-1.375403966429402,1.6071645264643497,0.05949629854319614,-0.2280103089328451,1.4504888895022117,0.3510615479075027,0.6386632021658811,1.3114982885713906,-1.895423619242017,1.0477958167265515,-0.9748355454519623,-0.5661662127059066,0.5007542743205814,-0.6884695016067331,-0.04525559142938628,-0.10583265765325092,0.9735493309712755,1.7993319902802576,1.6856218480579614,-0.5619100339765266,0.4917157047011127,-0.11426497263995951,-1.4115893029216782,-0.3151277940738097,1.8891957591321782,-2.4826438875408243,1.797595631085362,-0.18526100123855252,-0.16654145014598218,-0.07435223482215172,0.6609843318145352,1.056660935511246,-1.3073490278652926,1.0871891007774246,-0.042532391067381894,2.430697263923129,0.6398927682400248,-0.7997947233617122,-0.32699747876431035,-0.5826705925395799,0.6145500933082583,0.6967954912621095,-0.9142676918809218,-2.1727565885894413,1.2453222617206234,1.2598133671870397,-1.1365526491947442,0.5913888528532413,1.3859959273255273,0.4414600340371198,-0.8996449308814549,1.8148299747330447,0.6628950607420515,0.5584659975174115,0.8201818019408108,2.1247076348100697,0.7124590469160131,-0.9144869244520271,-0.5227275174395127,-0.36996292028021016,0.7660399862885019,-1.1245251409430337,0.46829914175514575,-1.5884329856325994,-1.1611505316692032,-0.43742328022517,-1.7185300059642532,-1.5422463112606528,-0.45981752667816367,-0.671296727532075,-0.4520243320953456,1.1789157208711873,-2.3004291767902876,-0.23104532541877212,1.6291806520426801,-1.345475285095973,0.30287746802756166,1.6649441077961118,2.2271797193974487,-0.4874783967048048,0.7962384696069991,-0.4370883746100137,0.5618203115293274,0.9289806094385199,0.0824498702212202,-0.5981336377186256,0.2805283993097948,0.433730467836143,-0.6392471263791466,0.2862127415282948,0.7310264138695283,0.09510418153364053,-0.016941610422215217,0.30158532337097504,-1.4437898232413844,-0.89842259204142,-0.3578439564978597,1.343792841785954,0.44699489215462,-0.04489605679400718,0.09014527822978725,0.18302477699833342,0.13798013143229548,0.16836689359352935,0.7335939782120275,-0.3759488407446208,-1.843579806319165,-1.957363091055883,-2.4866417518255557,-0.6695998926104011,0.5025721823022089,0.3576667680026806,-0.4012981949025282,-2.725022510066418,-1.3617851497162703,0.4615201937631776,1.9250287944396325,1.3483305388086857,0.8822704939380795,-0.6979707554002801,-1.771734525367859,-0.0723861428612922,-0.9146481815190767,-0.44541806352292934,0.3232255805373099,0.13998418392612313,-0.001586981044696625,0.6431276369154241,0.10919949682659977,0.03698081382434549,-0.6779351147935206,-0.2411362302339511,0.23447099356061976,0.7404428070817904,-2.0811548206282753,0.6539404815600198,0.40678919596906266,-0.12202224048942538,0.28084386654283855,1.1921414856340924,2.3275731850641197,-0.9007872532489973,0.030258482356028335,1.2128641649590333,1.5982528922729675,-0.5246455196496136,-1.0287044625974395,-1.3647605292466412,-0.6007500291760532,0.9780200946661028,0.973530939129262,0.012600298998045384,-1.6246839085092721,0.06340875036919014,0.7097215291034332,0.019941708411830034,2.633024765038772,-2.6576841286293442,1.4959186292673283,0.2886463335239503,0.3401461949443744,0.47180824746989897,1.3527817773372943,0.09344999100512061,0.34935106481093003,0.574821693980109,-1.0648757051249218,1.7472655499123635,0.6888382447092456,0.16491062237753853,-0.8760833466862725,0.27370777823205855,0.23769337000534502,-0.14947385781949046,0.7948097093353792,-1.3567416958495533,0.26626672712610566,-0.13331512316895083,0.29238143510938686,-2.9481356002313595,-0.1152350604227646,1.1657532768570076,1.095508399751263,-1.2003695676721473,-2.0644774372281485,2.6463239050665828,-0.12940684938781796,1.451916111100595,-0.07789858787348256,-0.7131879304243367,2.0782312047878486,-0.18241889596831107,0.5454572840066421,-0.9904847333320291,1.1619363870834918,-0.23726863838408915,-2.022956594716111,0.6902459084391528,0.35107737434704467,-0.3192170466714046,-0.7656287505237868,-0.6751347349452765,-0.22859650678719937,-1.8896329484536438,-1.0691373581182866,-1.2702413918158764,0.2249736082368298,0.39003008577511755,0.3143093660871228,-0.31833317655654236,1.2411988906150788,1.6474937377125196,0.13641049735476732,-0.6806584282287035,-1.013962097322206,-0.9307471015452596,0.9369420025576265,-0.06424160206691283,-1.2841123234952558,-0.5186998821578623,0.5204815005122732,-0.42889475542403865,0.6946653000717933,0.3269333333428855,-0.058501002418623056,-0.24172900754085888,-1.8917279491685128,-1.3000743917862,-1.5511711443122458,-1.8375536117951368,-1.320214234828199,-0.43768403161214886,-2.2658629194003232,0.12596060818358304,-1.5753376457010686,-2.140483393337644,1.0518689456880435,1.299887078556666,-0.39467076357220415,0.5845601333627767,-1.1754394680271982,-0.3921106939011696,-2.2947659288945363,-1.173578870741128,0.4161591076568645,0.09347588682028174,-1.2201074575314967,-1.0302394821439262,1.3833324294482552,0.8898283191754427,-1.8584643519352675,-0.954050798431056,-0.3273139433285158,-1.1939218542470027,0.24591915348829474,0.2407624727098749,-0.7406826529421036,0.13973420239211876,-0.530014424456202,0.65206980771857,-0.6581941589453915,-0.09050390647419272,-0.6701928263434477,0.49207617954191674,1.8484344294279906,2.4000734428195187,0.11840812608572414,1.311071690015211,-1.3640118941227022,0.6075971763450969,-2.656146093091968,-1.358541468539226,-1.0878681811454578,-1.1758065020284607,0.7465514320642584,1.3784035991525219,-0.826809045248166,0.597388708462636,-1.4640286617213818,0.44205620089736714,3.2160432593435955,1.199902261209653,-0.21018719727073462,-0.9015616231442001,-1.0304329045317826,-0.49079144248097883,-1.4459439991301997,0.3035710171389735,-2.289032622706324,-1.8670640529080815,-0.8433595503978035,-1.443901581131588,-2.0041770690107255,-0.3915159641596038,-0.481954307720634,1.0505037547410951,1.0134261233492805,-1.4995253144903298,1.401906355689806,-1.221224046041297,0.22832639574485158,1.4089912920351673,1.4586061596531374,0.11628645050477045,-0.6443843863960531,-0.4064929824156851,-0.2219062401212675,0.018328762782578695,1.0073016889014648,0.419323389504906,-1.9899641899787033,1.5904556295326044,-0.7179819585571983,-0.6226551794646508,-1.006174128306116,-0.8695467780534525,0.017932524570586028,0.4763011287015916,1.2566927347576362,-0.4741572870007618,-0.2579555588431817,-1.1545431613817678,-1.599140515840943,1.7626209913861117,-0.8676557154961629,-2.2776093540896016,0.0018429631346840937,2.267999485350045,-1.9243498107223036,-0.28240363714710764,-0.606870430369269,-0.5162449556099475,0.11024193053850764,-0.75636732895485,0.49546761888570984,-0.8517794367898527,0.9338632417416255,0.7727538721838965,-0.8623490402293577,0.3574114604674406,-0.7280901180186503,0.21439217979226116,-1.306258115103291,-2.2348870942874632,-0.3078531849286175,0.4830617375240494,0.5136429389113453,-0.5083396120144189,0.8812919730345085,-0.12476484992945756,-0.08497653117087066,-0.22829311658606874,2.010330309674123,-0.4402661321886471,-0.6968414285541367,0.13964627672585816,0.04950030976000018,-0.8723857593979548,0.10020827509596436,-0.6016664729531225,0.15085568186561174,-0.02706708098257963,2.0642818589755203,-1.4321000011742528,0.4595563379429112,-1.5690409581873446,0.8807822071163691,-1.1782387774486458,-0.12658982246399703,-1.066540217330148,-2.3472677753431865,0.016987870575531472,0.4865181769711831,1.9804479819989487,1.5966941941136261,0.09712630846891511,-0.28647539582750203,-1.8552737676377833,-0.2468855133816927,-0.8969878657813033,-1.064318588762247,0.6118829526262757,0.1458167310992726,0.4579610179572591,1.3644091266069454,-0.16421280185487958,-0.7845937656957306,-0.14266630934557797,0.5788047445914162,0.4459088015126931,-1.10276480660817,-0.048636537746165207,0.8310762572447689,0.35141259596988556,-0.5381097906330689,-0.42546277689531375,0.8001174666275424,-1.0843507950878075,1.2593213445036362,-1.1457646792470444,-0.7602953884883467,0.07647812763768184,-0.0742367858270268,1.6831002148455327,-1.9003695396389304,-2.195761118761675,0.4758899234469492,-0.26178891969718965,0.17246988073969563,-0.5014080395071556,-0.5239590603981805,-0.4047101983726045,-0.6480911390348231,-0.6154578994598869,-1.7231902487997153,1.408933827168461,1.0206935815949272,0.1359944447728277,-0.424581369111935,-0.7725683186094073,0.3031847752295567,-0.21316302447856086,0.02071972267645244,0.699638678810342,0.2177414329019022,0.17814280121429746,-1.7133700505565654,1.6038453807096142,0.23017923189037937,-0.6664146119738895,0.720516678604007,1.0257409474213663,1.201213303694384,1.6828667222234008,-0.6708451006824656,-1.723217400623525,-0.09308168192132726,0.626603989909662,-0.24849343178460342,0.3398126757263126,-0.6607543257212721,0.09614467371350043,1.5673885458670702,0.5581667204903455,0.20690340534530785,1.0270840297148809,-1.1806698608569235,-0.9719424347657338,0.33074544966795805,0.24716159157810338,0.04563049992375447,-1.163719019232952,0.9236989894269347,0.21170986922231785,1.9061559550115705,0.7447929542156224,1.365736244780095,0.8044291272255628,1.166403720084646,0.7649509356733272,1.384821862235599,-0.7188464549052189,0.1038634676663433,-0.13073289127495405,-0.2828724458806117,0.20467553908739342,-0.30262590428350594,-0.7128737476990457,0.3260214983455472,0.6658515358188799,2.458559166172291,-0.10442261882611509,0.560187467140558,-0.7081612955751291,-0.18585337478969138,-0.1245825793670234,0.9097485922990393,-0.4240897031683864,0.8624062490133179,-2.0837674640103465,-0.20404904802204227,1.0055399238293659,2.194273254601302,0.8182252976557188,0.10705154172165968,-0.24655104374915726,-0.12061182978690786,-0.40951905714578296,-0.9840916638825336,-0.5878279743139084,0.2750815210905772,-2.1879598607019215,-0.3947364823047365,-2.159659189909933,-1.5390101263052232,0.004416220825485134,-0.8644966783918384,-0.8350284626083035,1.2581706424352208,-0.615596400478899,-0.08560388753123715,-1.662142681019623,-3.6142242652227616,-0.9059811044700954,-0.7232129953531538,-0.8331229018737705,-0.39712555547313944,-0.20039365369421638,0.4332056264147624,1.1634788614445852,0.4025189874288242,0.13867330556329124,1.847636914077777,2.413521560235727,-0.16815183713322024,-0.037180052950207605,-0.08190585756289065,1.5384136839897935,-0.49765412662150393,-1.2584542461645671,-0.5098406119505615,-0.2500976528327921,1.0025309737300023,0.7469476468967651,-0.681227701669141,-0.09297281424112432,0.26753740652507796,-1.0473108099291812,0.4732357999529955,-1.3024276240175356,-0.1090279766258602,-0.011185544035357068,-1.907644997334327,0.1709480591828561,0.7482704608995837,-0.26166365365676675,-0.6204423250777379,-1.0280342771992954,0.9689776648067312,0.5675176587055063,-0.9434541613911881,0.7438858145315911,0.4169672901609808,0.6580894506750008,0.9099319708833188,-0.36857626436191543,-1.369869619099978,-0.23245782147448737,-0.8050276667080232,0.46720395062998193,0.1872360851185215,-0.6040146439469313,1.1967424698012736,-0.5306950721377436,-0.9552124663595246,0.901944820721495,2.705772212567136,0.4786162777427342,2.771164035831453,0.9227593119763376,1.2818197586956144,0.030521399242032652,1.057914304403142,1.4837891386897981,0.4742726596680491,-0.668027390219905,0.7615741566199424,-1.2520569121996112,-0.7328141587101817,0.5494599719826346,0.9896703025788817,0.11243584885454169,-0.11932535735598296,-0.16597159209616041,1.7816666081788632,-0.736872923280699,0.46253857595235054,-0.661327110584164,-1.1970424940802542,0.07754197145426532,0.9860537118848973,0.6768778672173593,1.2400246416418554,-0.4289709222187447,-0.8593089505979495,-1.0667618635727145,-0.568532966730037,0.8578273282522,-1.478806876688354,0.85305492213334,-0.06456563719952484,1.168368488565295,-0.413138748319297,0.0178890254029432,0.24508990362566152,0.48388014558242426,-1.0800660574774374,-0.9072265766278659,-1.1434681063788006,0.3229726902791279,0.7677692460813549,-1.841439237248606,1.2888572690441673,-0.4946199180301269,-0.47455387100119023,2.5128662759060245,-0.865391356789565,-1.5771594864642509,-0.431990693927917,-0.6803771823156993,0.7225079906665138,0.5720410879219643,1.1941949187387684,0.039654072382566775,0.17603546486126884,-0.04682283886386161,-0.8522403622123939,1.040701946892922,-0.3288925876458274,-0.6601950809936148,0.3339637511484573,-0.11498732911169303,-0.21637573066446714,0.8274845590735097,0.16923398368953088,0.9868978188622466,1.1117087471983738,-0.3387638583186793,1.0640343577538698,1.1587384745298266,-0.1647898572679849,-1.1088296908414297,0.7298767690053751,-0.8950492293066068,1.6602369156858383,2.3621489207381465,-2.0093622495107244,0.7135482135521856,-1.3411815180977,-0.9817738617456193,-1.0396261877338062,0.18185411386987874,-0.18829685648767985,-0.11398925420669141,-0.3690099527852288,-0.59808028874308,-1.6975399755287626,-0.23649964636577392,-0.04978493295528893,-1.7644627988948278,-1.5879044444179804,0.029046223894393677,0.8100776651272942,-0.11609856190590666,-0.7764571858156332,-0.811948917883002,1.6663205216703962,-0.49432403323515817,-0.4571367162299253,-0.6073738756374106,0.3456494969237492,1.0915529360391694,0.4173347549822508,-0.6905025843463262,0.4421478314801746,0.9780562775712566,0.05876799340268654,-1.5150954558906045,1.5018070741298322,0.3103746767694267,-0.8938570409594842,0.8660773954671901,0.501101111945732,-0.23730304774656866,0.43941596731242455,-0.6695078332090709,0.8423302630562043,0.4017987287721643,-0.30177061030374913,1.6916746851778985,-2.533514653927846,0.9500893402175902,1.689259343846784,1.0750992659283325,0.22651125126843366,-0.228183680755697,0.8686708242903832,-0.5847377542280355,0.06997551807157437,1.7806702424235805,1.987938928875076,-0.07103252884069233,-0.8457649763159435,-0.6246405378593203,1.4228590084381187,-0.2577135586665187,0.19727419899183526,-1.4051801817178864,-1.7322300366019854,-0.07857822184147903,0.32179068139846473,-1.766006494049271,-0.10484083265853053,-0.025481336449438275,0.22705738715339252,0.4784416031911359,0.07882268923912301,-0.582238051180697,2.9384776608000087,1.0745842638317675,0.6660091192057016,-0.10257018230441205,-1.2137520812325444,1.4177014582427052,0.6487479227318322,-0.8249345608655237,1.5860097419926458,-0.12507181912107246,-1.6406833744440865,-1.305309119304917,-0.9399787840616067,0.34500901865817163,0.39492547729781374,-1.9823781701208953,-0.09304713329038858,0.5370054930622805,0.27234273845471874,2.7410315209093703,-2.2880519611023695,0.09560990902038745,-0.1591394475074686,-0.03407008292551843,-0.5580373029167676,0.6478494597555164,0.06123461152062705,-0.7069309349896892,0.3456636819860889,0.34053893381733,1.0902970223873718,0.6702529525161879,-0.7478083456254193,-0.24090789068542118,-1.0808399433291256,1.1679851926653098,-0.5914665966517972,1.7078184235744658,-0.899071843413331,0.2483083335481413,-0.47737642974303673,0.42027284162243744,-0.5492977831446079,0.1079651938677699,0.14705710696271188,1.4278371056941068,-0.9412468094404414,-0.8234138349557802,1.0230903014210324,0.061067532600748986,-1.0766758686381477,0.708003844637113,0.980394158912181,0.5677605005278744,0.9733698494613446,-0.8160764351350313,-1.1103366242004475,-1.871769857799808,0.2685966192452684,0.8961291029414037,-0.49882581073847093,0.7704778135042856,0.22357187178649554,0.5537062995333343,1.279171328560122,1.3776139100202782,0.060114193332805994,0.7501174485884506,-0.1485083354382817,-0.07059983837834503,0.9705883994189926,0.5205502655206521,-1.3080107296980348,1.3393736221687,-0.17516656245562004,0.15247150073396093,0.671516470505827,0.507302255233425,0.416416989135815,1.7887431792910635,-1.6420812014232444,-0.11695530922620993,-0.24693286052419974,0.8767460014012861,-0.4071659317162329,-0.025838033023279174,-0.9266949190553525,0.7843097153919231,-1.7422343755869325,-1.4582708796569142,0.4646356660116393,0.5753230537472309,-0.058442118791623913,0.26147096220186183,-1.95026941241453,1.310906804928566,0.2381113110962753,-0.4038773451859844,0.2687192537319728,-0.29896126345333873,1.3634095876530592,0.3373047908272949,-0.24081069694920762,-1.380815673572784,-2.829470483501772,0.23393623328743796,1.589039335106076,1.3049876975364436,0.24061655240502458,-1.9192212430428612,-0.1971825245474953,1.0726601061178427,-0.9943266778425672,-1.0388128651821742,-0.6748393692242304,0.38948815404058923,1.5561779137604685,-0.4800266591693221,0.9725986176127147,-1.4085505841527333,1.2750324730470335,1.1012592820026026,0.3403900698312751,-1.264353557074999,0.559488843655411,-1.3994801197983442,-0.07895394370305304,-0.806475575798514,0.10274999249613351,-0.31589265451599136,0.9279023693679757,1.4909746678605713,-0.8407514237813245,-0.30612848796953657,0.021966876300846733,0.6361647338878134,-0.09321284534255825,1.2370142199624963,-1.4010480763822164,-0.3367446232704679,-0.6483597006644775,-0.7122303755656627,0.7502232366561916,0.818366228865778,1.633166631006064,-0.5245436579710284,0.577574728127452,-1.6306506351506191,0.8935997047682482,0.4710697249835462,0.9168166600062391,0.28877445701921084,-0.808619037308408,0.06983195241144757,1.615138171881009,0.6916423715634444,1.4371118026546277,0.794549717385144,1.081789636566979,-0.6935326098773508,-0.4305778996048875,0.44031719920470463,0.04416742267100259,-0.14185112140244646,0.2308526744590249,1.529811006365779,-0.08927569941623559,0.9717658072427314,0.46590866282235505,-0.5603794883653538,0.3210248876486506,0.4903481053667865,1.0439964385891687,0.5342909420471611,1.177686686159668,-0.6802669086083333,-0.6805835930495389,2.126662499688191,-0.7277304524460966,-1.5880456961329161,1.3648229166895154,-0.0629817680787675,0.8619144218385189,-0.3384656277817787,1.2406512126034934,0.7639301175256189,-1.5124355360715662,-1.4613341511771472,1.043963571715587,0.32831007334835666,1.3021456126839457,-0.37704970746148325,-1.0104960411188877,0.3512232006586533,0.9039256564619786,0.828633072146127,-0.4625269740368468,0.17305063933652254,-1.7549631053888999,0.1258419760380385,-1.8443823470360055,0.515972004904371,0.7006091143388652,1.6247871114671457,-1.1038272919329697,0.509159550687335,0.6584302550253396,-0.9764329715273027,0.7666902235468372,1.1443856033898452,0.49346764324241715,-0.1301971419068222,-0.4926650206835642,-1.5386564694260114,-0.31663028686767586,0.11830610754644047,0.7827521646097138,-0.6936296570405883,0.41672983722286694,-1.498142417076701,0.8571245349955031,-0.0781740464890541,1.4391658923204669,-0.29479603263849624,2.502835688683095,0.29707953223878303,-0.40725477357335954,1.3057577337261985,0.3529168526356191,-0.6082988021015909,1.0982862363296426,-3.0237151547468697,0.04972398411295987,1.9250947460554368,-0.7598659492759567,-1.258696949476716,-0.24471285289483857,-0.14112267573042533,1.3427737626413299,-0.12327674883118103,-1.3842242222231567,0.3955444778722077,-0.910735582120969,0.5551838378205001,0.9768406567518614,-0.15395344769518945,0.39415789734101025,0.5419517588773451,0.21758637976842574,0.05675468832239832,1.3982406401847203,0.7448529377381924,-1.1204852649926373,-0.2951290950115147,0.3506096362554143,-0.3404644460339858,-0.14307961337045216,0.2626978776608414,-0.23158016805491685,-0.32037081654008287,-0.1237235488058566,-1.077065937332352,0.14929384000491744,-0.5905301018741347,1.020394603400678,-0.07013279208044233,-0.855928262197746,0.023835817683265162,0.15419278200454017,-3.0734464652490283,1.039697402515817,-0.4805220327541318,0.6539339712364882,0.6649794976664982,-0.8713266380070752,-1.0498269022269213,0.9232212417411956,2.0082618751916317,-0.6598455075889633,-0.4881940777657628,-1.832080364630871,-2.044774467000185,0.8421203512833573,2.0898600302936816,-1.1640639332511722,0.6204870273958686,0.2751685292947245,0.8829067618065589,-0.983019039503072,-0.25895614158928776,-0.6947036171431885,-0.7229231613822542,-1.885218324759857,1.5119704499135966,1.1297551091008526,-0.6389657973474048,-1.433779275342486,1.0830938452294596,0.6611465470482379,-0.851855510489313,-0.39405226955606404,0.01211299039561352,0.6299332467190663,0.16433358549831925,-2.1368928198376462,0.7137604604755557,-0.6878248568687133,-0.11886959079057541,0.2562156278158951,-0.36462353538432424,-2.148201609164341,0.3547281664012661,-1.473710181071797,1.6806919414565171,0.13293750372063357,0.5428086576177852,-0.04352269428950288,-0.1992453464864262,0.4892825126301028,0.024270533020339064,1.33223051892434,2.941942151886633,-0.5737244679193401,-1.1756572893311057,-0.5301740155483063,-0.4288984333098092,-0.04702031271947698,-0.16360912672745379,-0.2969063850435613,0.9955235391792923,0.44433990817911445,-0.2325692307542866,0.587649383740053,-0.9634064205004882,0.25470931080862325,-0.06256375562039028,-1.0723799212938856,-0.050361363150097704,-0.2742085128599474,-0.08488670058568522,0.46041858934066054,1.3018003434279293,-0.7530022904978059,0.24248847941681484,-0.7010934028307391,1.2351732882977091,-0.7484279477881095,0.34948232239376037,-0.5751939965989908,0.5653703851441704,0.19492429835744948,-0.3362093083983846,0.7860269050995586,1.3084633350402965,1.2731617280849514,-0.463507439841855,0.2835306662403921,0.8307060435739423,0.9168697383036193,1.399552139968392,-1.9311471413550498,0.0061100843652970695,1.4224555426027983,-1.471104027144693,-0.15259332494043312,0.5819080449287523,0.9292941310067584,1.3117751225459484,0.9192345294245041,0.7858129230877909,0.6238832043916083,0.038626248578011384,-0.48951770965512253,-0.48770670778064573,-0.9147723974781367,0.07108624419927677,-0.25813124375677254,0.46749601896542603,0.07311714659456259,-0.4090563008450184,-0.5960316279301734,0.6994380382923506,0.2708807638558751,-0.6499360459803818,0.20224714685184111,0.378789843313147,0.5545337955986124,2.7438276350482305,-1.8606181230114855,-1.9262988008219009,0.629173433322669,1.4675875912245377,-0.49778468694981187,0.7405465315857134,-0.4024242508274916,1.096211040645235,-0.22388505200360118,1.0308375126983589,0.257843227350567,-0.8205177739538384,0.5585876440234079,0.8017069238986977,0.46169137462132576,1.132123699976067,0.7740009842754811,1.0543519028500743,0.8870260696013426,1.0538166029275617,1.8793070250292305,1.1448160787456947,-0.9536831263289244,-0.22060287904185324,1.1317699888548083,-1.9066024561367334,0.6223188822155059,-2.050175198058263,1.5676465812133997,2.0177650092192216,0.28225789425777564,1.3240537056473778,0.02462783217863959,-0.7862496639545737,0.1642139264651947,0.8585731206866272,1.4781682906130609,-1.1858544358498284,1.001865521658725,-1.4672612111242331,2.0192238607959,-0.034150965570948,-0.4378754401315052,0.6988456304758014,-0.38741062254071323,-0.08321556161872919,0.345628955888932,0.7629496184680516,-0.10905430635509918,0.18795004970655987,-0.9614029276177214,-0.7887813878335396,0.4945457448216927,0.15651126777528424,-0.18525328184118156,-0.02520687325371446,0.056915339252776774,1.9974380626740664,-2.41988153715231,1.2271766003332092,1.0918141359506857,-2.033407457534509,-0.14229748157189606,-0.16825915139598077,0.31056190864344924,-0.0667950633447832,-1.6218128215468766,-0.4277287547333225,1.8429065519365244,-0.5365984944816974,-0.7073539751571739,-1.122161271052366,1.4270720355898725,-0.010861555323380095,-0.22898328313078772,0.43338733227133475,-0.23941381573850795,0.9935247835680292,-1.0461726612554894,0.2978082049199859,-0.13551585571270658,0.9374263078270564,-0.622474607642661,-1.0494360269884622,-0.6605122613470157,0.3967858560800819,-0.9807209435452534,0.33364816407252057,0.08146830701081252,-1.0553261635061848,0.7145898100256044,-2.143533848084856,1.9646220086261856,-0.6249438077470307,-1.041268202272335,-0.270475257654506,-0.35708619673181763,-1.094428931721705,0.3607826188841693,0.3826612859417035,-0.014490828124313892,2.086402241045508,-0.49022837585015633,-1.6431262513626057,-0.35855395424637665,-0.9908976598491296,0.3210989889428853,0.12000848997306778,0.5288526016115679,-0.9826016198021232,0.7752801994138043,-0.22991172599024237,-1.8901898964850172,1.2335681563538516,-0.7568215865519797,-0.36721684128695425,0.3095423448881921,-1.1924984277192814,0.4106028549147016,1.0781281218661611,-1.0386962494980596,-0.41242348293131664,-0.16566736686890166,-2.5691340893049985,0.9906020477749762,-0.8730126647929638,0.08007184352605265,-0.8102391484709455,-0.015209837832891503,-0.20835489942101912,1.1107289359446042,1.6436650537880089,-0.08929019955233473,-0.1756066589699877,0.026020341836928005,-0.05884892023136806,1.0820435548535892,1.7330902201817733,-1.669218569149287,-0.08352750657923388,-0.7357471615455786,-1.143832058759452,0.6815332776946765,-0.6174100480921096,0.27330601455200915,-0.7958214337904858,-0.24517507667104207,0.264206831582387,-1.7464672420636593,0.7917629191419047,1.4380702796871487,-0.8400283706354201,-0.417534534820766,0.6838169643069547,0.6790437655913678,1.8068509861330722,-0.16462505161893062,1.5075901366890994,-1.3450150548249222,-0.8129349718694003,1.7905721434203816,0.3725071015967502,0.2635027837931165,0.0766898505925623,-0.2890937502518709,1.44576095410673,-0.5103319645521149,0.7606227094555953,-0.37452526657768487,0.6290830068887842,0.28149201597636486,-0.9721259426968467,1.3273802754550021,0.5690912587879976,-1.5067442428884474,0.9894103725067347,1.4116233284175261,0.5937511453528956,-2.6659662092617835,1.1720208405757224,-1.0573957377720336,1.3153288487312942,-0.11133254556009055,-1.1463254122584596,1.737821252982902,0.15946292424157485,0.6994476673040164,1.200566362759392,-0.04841320958936159,0.1546961589238558,-0.08132396129779539,1.2443141990111963,-0.19870806293168847,0.3594121684255595,-0.5098585405556685,-0.17579601851341725,1.428900643445306,-0.6287573497322936,-0.49836518262617435,0.2924324964581424,-1.4690745853319622,0.20289297963909586,-1.286736653930845,-0.538148955012108,0.13978034913432472,-0.4122929897792825,-0.8551081575892154,1.021513978675576,-0.3684188304466895,0.5302743649688231,-1.3289808979266942,-0.26851520394414413,1.2106063224574555,1.5712562608919107,0.34650824548720366,-1.7620952583812457,0.3299725605313754,-1.005288559534463,-0.648624384355114,-0.3134288294315441,0.18318795069252214,0.04456458732521039,2.491259623658395,0.7881962455012003,1.1086807369549594,-0.5566893032232478,-1.0575181632938873,0.532438327565017,-0.9949928890161501,0.32336595862159,-0.7589976794668901,1.73240186039273,1.6560825423772467,-0.541237976550966,0.6547175321808094,0.060400892222477756,-0.27464489364966416,-3.0096096232851863,-0.21214038935983978,-0.21796260231698755,0.8094014558922887,0.03793535385182083,-1.5579205876349138,0.6653200968079217,-0.43843049015405816,-0.2808318554417763,0.7482012532632527,-0.3923597942390449,-1.5777164531193633,-0.5946019183717101,0.48431411749039577,-1.1716742943599596,1.5527361618445932,-0.6898394321253661,0.3617800901027513,3.065588493011015,1.2095044634035217,0.6848891759702956,0.9322546909456689,1.1043416344451835,-0.7014775305360553,-0.44924080840350733,0.5405458445388246,0.8799812731719465,-0.28360408841194745,-0.506718059702077,-1.3412545436120888,0.3153687094600595,-0.5887788017403552,-0.5343903456810798,2.2158308357486964,-0.42327160640198686,1.5276832208623667,0.31782140142706444,1.4214871079069282,-1.14627883128055,1.190604394056597,1.2249965428244083,-0.2985263594851281,-0.8370685322685198,0.526581175601502,-1.304593433685367,-1.3645450688661542,-0.7450821647823163,0.928682325808084,-0.3410493580359164,-1.6711136494891896,1.4753690031151656,2.0826969479346236,0.9957093738760191,0.031832940471547964,-0.7781305287056882,-2.62822632408353,0.9086195010908091,0.13747558493798634,-0.04119708997198109,0.2469211037366619,1.3771859698446043,0.9066022743769032,-0.5305397954874412,-2.0295728307389433,-0.8125156133695368,0.04084837504875948,0.5098532779330898,0.751621033054961,-0.709013644862257,1.9932364322694403,-0.8036461424328514,0.9077025633215532,0.7204522453062627,-0.18969674389025937,0.20055809090063736,0.07849419814828654,-0.9685598472706037,1.2257939994565028,1.5612742414848306,-0.16094709054793752,1.8958539774018868,0.10825039387168078,0.06488286658598082,0.09332957818462155,0.17753194129518415,0.051993575147055264,-1.0553865539971214,-1.1101354398456507,0.3673988819836506,-0.7360010610241933,1.2966824381611959,1.1056798246336548,-0.14837230838401466,-1.3593547715975918,0.33477327327904355,0.28819507314718246,-0.9946646267339977,-0.6817857078663276,-1.6049319680279526,-0.8159955135656327,-1.3267108798399003,-0.31271374842705724,-0.13352537591099792,1.92173935171622,0.15211059925527118,-2.004974737229161,0.4948471139932352,-0.818327383210547,-0.0570238561851692,-1.3792610610477998,0.7587478772399362,-0.2939408230148232,-0.10514428460485022,-0.6389012043017446,0.22514866864408553,-0.27787986016474114,-0.18936078992715838,-0.023733962531044317,1.1614307589797712,0.020773789174672524,-0.8734556090360643,0.11303089057616708,1.745964596071957,0.20880643820625538,-0.33734954976723075,0.4110438164323723,0.8421113988791008,-1.0608944632617967,-0.27866347366162947,-1.062850735808308,0.9332848668114527,0.11140616485468492,1.031950607252173,-0.4230860543637608,1.3134146349795233,1.2796750174071645,-1.072076935919486,-0.5791805113748465,-0.9945102127512644,1.5682520825278843,-0.490238862284237,1.0016226307792253,0.5518267588825176,-0.27510552783468095,-1.7126500163785083,1.8391090499751934,-0.3045844497207317,-1.4743101925296567,1.9453834819049016,0.7818170373258302,-0.07420736596840644,1.187387247910082,-1.3166583793530129,0.28954814328660683,-0.18248684701091838,-1.2325872718668727,1.0439804610710026,-1.5626835167935866,0.038468072035922715,0.41893991929535485,-0.1317017524816256,-1.0199813321034608,0.10726419067715194,0.3499047280664626,0.8163863814860117,-0.2771935296182171,0.6011451659729203,0.34320799632330923,-1.4040577802048169,0.1318328164883833,-0.02765407526931154,0.2717540923918854,-0.3520914475271136,0.3866876227006984,-0.3087207792865827,1.6286866194602487,-0.40011022938666596,0.9795131752573175,1.597014095127686,2.752783466592196,1.4693133440637793,-1.2980741367807673,-1.2616979961977457,-1.4625632157814674,1.0610980667352627,0.42324568371622173,2.1663074918883156,-0.18931335198210064,0.20294509682716208,-0.6158518988598766,-0.7976965771060809,0.5015231113015364,0.43737162855849526,0.2662546932701546,0.23884589525404085,0.08886683512491665,0.9561884130478594,0.7868179063549755,-0.9748346020677783,0.29792436153149154,-0.3467746453637506,-0.31215576878308743,0.09053657812869988,-1.7312766962356805,0.27465126593821154,-0.4578117112631561,0.06406218504066864,0.3029333369974582,-0.45017651914590917,-0.2635233181713136,-0.6530207349397766,0.9197110754131164,-1.3435326226101674,-1.041143275361024,-2.833585485420801,0.6072266704232157,-0.7592763328750156,-1.1194347924914076,0.3074304874467097,1.0526088378349814,-1.7142858746211285,-0.5618701031945943,-0.45362585906052694,-0.38173838336330634,0.10378730127209983,-0.7006825795424493,0.7541234446855327,-0.7061342709405245,0.03984598233737713,0.507792187037256,0.7938696334350065,-0.4932233131349307,0.17281729891970737,-0.012674268676990612,0.6894935501331984,0.14667570366371502,1.6690667304007052,0.40003241707163817,0.8165114811798135,-0.9778745084039593,-0.23460456778105537,0.4628147884213133,1.5682811624867778,1.7014176931043743,0.5365949692293971,-0.46692454716965864,0.28366734764134205,-1.2912439358629226,-0.9023741690275578,-1.0876231141647978,-0.8530101896975205,-0.6962498553311617,-1.0464789003038255,1.4819241237778678,-2.09545242670731,-0.9322394525656529,1.573201974846186,-2.6728687001016342,0.5078585349185135,0.21701756491915633,0.34560699466138495,-1.7529778370771272,-1.4722192814698543,-0.6959471240392001,0.8402648303307595,-0.7220287990260095,-0.4265735504762797,-0.7961409987421544,-0.5809710249940925,0.7356318790980579,-0.1654516007168129,-0.10364185829144915,-1.7366065225964311,-0.8737203481220447,-0.1278386383306391,-0.09093266046133934,-0.2270476892098792,-1.3884706232245707,-0.34800520776766425,-1.6078669841947295,1.8989190307988553,-0.6138524216809222,0.5478853501671977,-1.4643301613628175,1.1549651917291825,0.8978106515022174,-1.6394149808112706,0.6193351936908639,0.4071179511139728,-0.6910782624611325,-1.31914375776511,0.3357431625814232,-0.8549904823019262,0.35727835280840187,1.4811798688072402,1.6744849827324195,-0.15584273551700767,0.126121277416891,0.3727240484881854,-0.4365769214938661,-0.9707864926306855,-1.1163477943368874,0.14109264649244918,-0.5620943723394032,1.699930710150112,0.8207561955199285,1.6211103934438305,-0.5518027646223872,-1.190329027397252,1.0307997971814342,-0.04078611756005788,0.2517105429763479,-0.9104938781373118,-0.35547737274582675,-0.37519220806300363,0.12549348719994266,0.5499711782411999,-0.8363142202994474,-1.5044635950259648,-0.9927505725790637,-0.8617464940981153,-0.2806548892816345,-0.5577782003468791,-1.9073904031585869,-1.4127491184758958,-0.11828579020019472,-0.9725755479244803,0.4743186614623425,-0.9480678485505726,0.9434824222797173,-1.9465492924783,-0.9328045012006145,1.2423133451866366,0.24787586666576217,0.24511556838625748,-0.643526314546044,1.483677409454457,-0.8748346452384964,0.9422238546289698,-1.3130363069684556,-1.1639900508836156,-0.7875160800737852,0.6494083784534515,2.0439288420921575,-1.1251521543022578,0.985558664336291,-0.17753310544553247,0.764734831890938,1.6596957274752062,-0.12406796814074858,1.7170122497891993,0.9998619008206987,-0.4591258577422143,-1.0035776973142991,0.35426558434354627,-0.7609906089865957,-1.6125637535949404,0.1488650319631406,-1.6352930702206918,-0.49201414858212517,0.5524074570482479,-0.3258975999194694,-1.3617579049616992,-0.5805764408343611,-0.4150217575859711,-0.1897991331799161,-1.42334586035643,0.631486532138638,2.190146094591629,-0.03051678059593645,0.37801529338476286,1.79300425860902,-0.7378264142493531,0.43437269849632365,-1.3861117329254096,2.1504733603667882E-4,-0.25887787694002623,0.4325982554880115,-0.33279148767470995,0.42198014600880485,1.2537658548187798,-2.513078876271452,1.812066719904749,0.7081113551332748,0.42730833479855923,-0.03570887511057312,0.895252248737937,0.5509117605940039,0.6847040333005171,1.3810756462535665,1.7059170517116375,-0.9684419753552136,-0.43206196144205977,1.0174203507041006,0.3093770426435259,1.9627205460202648,0.4490723146212083,-1.1875526708360076,-0.3684330028167057,-0.6227137635604766,-0.7765652566546611,-0.3009670459632765,-2.4803652492406933,-1.0913605456692699,-0.2758314936110118,0.8414866764843254,0.47840509223406585,-0.15496011700533144,0.6829651812781665,-0.012917522632096324,0.5270794673277353,-1.312575988953135,1.5987577859708637,-1.500089695255002,-0.2628301556618502,0.784504607329814,0.13445137686625488,-0.25438018832675136,-1.4752001072040388,-1.6065339230174915,0.7528517665095805,0.3309220895607186,-0.25601226866305304,0.3040878030943041,-0.5042159428400431,-0.03370904946798952,0.4150893001309339,0.6652709161734235,-0.4068959557407109,-1.7834791530673686,-1.1303295582600754,-1.0542801293245883,-1.0575057861227914,1.4497654423837203,0.7086032216264261,-0.2748698507112689,-0.4776982577064088,-0.45865164307897655,-1.2111227437726766,-0.7513149591058021,0.6247860618183164,-0.12048450746925007,-1.1058612406589794,-0.2744391070894279,-1.992858737235186,-0.08957861301026437,0.13041203030653986,0.3066704484888419,2.1548779437095034,0.4480295420151946,-0.4152280968814524,-0.2207658713062818,-1.1473121701764717,-0.3805604094362447,-0.8085781116626367,-0.13977273142176036,-2.8434162729991037,1.2297253760870255,1.5714231195836477,-0.3457981195304467,-1.5414772728836015,0.6227457017748179,-0.9287190920847318,-0.9753075099543411,-0.0176824082884421,0.29665831019551153,-0.44622094828030484,-1.5593302473319421,-0.036107541323326574,0.6624823531768371,-0.9013765935401782,0.6648265253436039,-1.106970036324795,0.7510628784897573,1.0990465516174655,0.31512462393939256,-0.6452155926993204,1.0152347749133146,-0.8607936363313028,1.0442184807834523,0.9405915659266534,-0.5250289499731107,0.9160602035133559,1.0868113521674774,-0.4522230039278373,-0.29522765343785123,0.23698787472670485,-0.1352257588732448,-0.09811603542838264,0.4833066889565202,-0.34454627782839864,-0.17801904421065126,0.38131154529371347,0.1568169302334513,-0.11529861730677393,1.3847247654030255,0.33193527664009037,1.2242907211080485,-0.5698776949060083,-1.3248603256038485,-1.6002156949418769,-0.44664360933842884,-0.3502770365895349,-0.028319124904513247,1.1186510684588482,-0.9478814628759263,-1.597458000608531,0.5749126136256434,0.6681034153909935,-0.3613330648020299,1.4924125055981647,0.6622050926169052,1.7914515903684471,-1.5306754176405017,-0.9777375705094301,0.07825806300280228,-1.4119048851854938,0.3243043122932387,-0.9364897792137358,-0.06637796989041046,-1.917805267664081,-0.07327393124481453,2.0042026218914986,-1.7966340320636252,1.7713296065355104,-2.4352485344597663,-0.4180827409288762,0.1811739748968603,0.21577403817766957,1.1633362669363154,0.22716379842183465,0.38292769716239156,-1.6479319358412754,1.123654198832677,-0.5941910886242855,-0.07269208575362567,0.2192259403814353,0.9758858741489432,-0.004761676151143497,-0.8292417410610431,0.635720676527043,-0.99687818207178,-0.02462265867778976,-0.9638354773352197,0.5262580090808205,1.7700186972150496,-0.6867450682171874,0.41277086251237394,-0.15669528574450614,0.9696650941986178,0.5563993066990565,0.4173500018627446,0.1385866941080786,-0.11910135978148809,-1.1407308112199002,-1.0683040475457881,0.6944414757497103,0.41204684195342633,0.7889739283904339,-0.6263132491948689,0.02200109605911979,-0.18262149470169922,-0.7309133679436038,-0.24193724810184072,1.0848862944533475,-0.8095873782643473,1.1851763274594476,0.3646758566359427,-0.9672926673281191,0.011757709097416106,1.7074992754010105,0.48118118845540714,2.1938048647692687,1.5499957139460292,-0.9828672133564919,1.1184561137513136,-0.9883283479077776,-0.017699841391047286,-1.1934577425118824,1.453229280380831,-0.8582952118366085,-0.9657145730631029,-2.2450802273077803,0.8387217235409444,-0.8951266280153684,1.3131940536810038,-1.0069921674678803,-0.3808770340366217,1.530962684799074,-0.8497060005219382,1.2248220389260518,0.6353782996761775,1.9352166362542162,0.08373768790607036,-0.4630813186249733,-0.815191732406962,0.3623372304696268,0.4611368397635156,-1.5215285795525904,0.17554180663754476,1.1544635813789532,1.6981731683815728,0.8250989532171651,-1.901223166602351,-1.4904460137624702,0.7705478972447887,-1.0586290928194435,-0.7417844436088766,0.06580915940628042,0.9773684855435917,-1.3348965913251643,0.8532443693964127,-0.3718815583621613,0.628053646404283,-0.4227585690983199,1.0222567558233213,-0.9944855942303523,0.002883246222426073,-0.48821621728875036,-0.18706341455136277,-0.8555741522731949,1.8292142085152094,-0.2434443985392972,-2.0253176371006876,1.1407898760627184,0.17748400969825875,-1.6812072086452636,-0.3401791651200848,-1.1242019971889454,0.32665385731598423,-0.5071012296209235,0.33887661311962863,0.21123294424793812,1.3116931856799012,2.402019523236074,1.1169979609196794,1.0090393926579226,1.3207753012073171,0.05572857948482328,-1.3260969176491328,-0.11897384211256004,0.18219820117530436,-0.06157978988077645,-0.9595705923017349,-0.311975062484167,-0.5076571569549638,-1.3340510347222099,-0.5877885831058138,-1.1401677044338483,1.093362229527231,0.2962998519538006,-1.206271293644032,-0.7238156908149287,-1.6641598433373235,-0.45619421215199846,-0.8804608187414799,0.4640270594219803,0.3848249464712226,-0.2941413999871445,0.058596157827291245,0.26409391485314226,-3.1353905016498143,-0.3816932106131102,-0.08916096718839545,0.8883080457585509,1.2161777481029248,-0.1482120142613311,0.3499072435549987,0.2720220659277928,-0.26086693764047825,-0.384630286679865,-0.011357705885492637,0.4783032832539505,1.1537515712898134,0.1537028381185735,0.6712394677894835,-1.0910630657714937,0.8412860820258286,-0.4878183801022308,1.5987450941353494,-0.3999065664344644,0.18504995660946613,2.561610055237967,0.8702463651417633,-1.7107906548569052,-0.2833197528641904,1.70271854118507,0.02882434300056498,-1.294363689883509,0.010738096787365254,1.2390390652611707,-1.8715291489741162,-3.4319801482715353,0.4672016425800159,0.16820729618728697,-0.6415221010171046,-0.5918521311444715,-0.13516799654928735,-1.793317625921728,-0.40739278918972766,0.971377710635581,-1.7881676367995647,0.12168009590172625,0.5621308795763768,-1.2149143354645584,-0.39974898272671083,-0.18870304576130756,-1.948797269494045,-0.7213620441695672,-0.9830331281566967,-0.1973726926898321,0.4390629622761679,-1.405012605417367,-0.2868737992345991,0.3409016568678935,1.7912125679615019,-1.2540557169301865,-0.8467296439165333,-0.0829591345323496,0.40008933938529995,-0.2953736369804289,2.6015965660502554,-0.15744869129898892,-0.17376942907552756,-1.8706399820438304,-0.24952135514118248,1.5053409157601276,-2.436701899028951,-1.9661656081192296,-0.3595704212566133,-0.8590264819905941,-1.0279324675944999,0.06540101780918703,-1.302738265149831,-0.36269565541932247,1.255547446080125,-1.554637652587099,-1.2968634545836741,-0.05331310692519519,0.9101235534285161,1.0164438175643395,0.5775000416402294,1.4173490876386685,0.253600252291757,0.5241952349069219,0.25090705886797005,1.2786647328216336,2.6231476821088355,0.8282582357266819,-0.17964517169211,2.307892384482959,1.0197309240835772,-0.5501612867645563,-0.2716815226255592,-0.5518469338045794,0.03214502003677811,-0.8357715118708545,0.3917609436207865,1.2670223334794093,-0.1079792066150475,-1.5776767607283526,-0.34349345216728966,-1.9432863590804634,0.6511766522647026,0.961260661622691,-0.43356424752569017,0.4709554226161028,0.10973435965447215,-0.017291495080111574,0.4823672631763371,-1.2721603462072788,0.02880900910034646,-0.6747667133523705,0.4427985028754457,0.020895475314979994,-0.8192967051646965,0.20568036586181443,0.6175412328400343,0.8605727988310009,-0.9334151533228296,-0.7445620165382141,-0.7187038737386724,-0.4946530573936053,-0.9517917966182966,-0.038753377869557216,-0.6102629469913232,-1.1362887129297856,0.4150700895264984,1.7866565202477096,-1.7833513581144693,0.4101043050444012,-0.8489250950076994,-0.030313998376611646,-0.6877673397654026,-1.7453852127445282,3.329801432708592,1.7225350040989467,-0.8517850808419924,1.1389139571309363,-2.587032387227838,0.9468635736470468,0.3764364084904593,-1.7354834151355125,0.28422302508406644,-1.1286540163657532,-1.3197004528608896,-2.0525462180645624,1.1583969476654123,-1.2399878332074585,0.41222376818485074,-0.08266608786173033,1.4086254468245993,-0.16266924113252357,-0.22083069729268517,-0.38717226722125425,-2.002413291917336,0.8778404930865358,1.5601023607326443,-2.524968650942752,-1.3622974449327439,-0.26321610785082017,-0.3666828340304627,-1.5817619320472898,-0.7076265140185166,-1.5825594859119467,-1.6286081551049232,-0.7544275088254858,-0.7822606307514438,0.7788986151768599,-0.41651846898453926,1.221347005128278,-0.9883758529872402,0.3162150173782354,-0.2799348765840022,-0.5115106017692489,0.08496897439182544,0.3480954133083154,0.9027113758964175,-0.6145957473590032,0.7788410133477975,0.2788555263599945,0.5781276527269196,-0.17622375036311483,-0.45883137050981243,0.8425511948328159,0.4596055468763006,-1.1046662394641904,0.3609223137691176,0.77942371621168,0.5197084954676433,-0.5506934986214496,-0.6126567498955149,0.29839326928891924,-0.8411028904308638,0.19719096121733987,0.017534264504811527,-0.8405121052816522,0.0508227192185051,-0.2920629556551077,-0.09331267961221812,-1.1591097186137478,-0.4116948068981377,0.609260552542891,-1.1039103563939436,-0.8275870665165603,0.6793973138955945,-0.8614230096754999,0.7608720132072313,0.08504473190997831,-0.15049424931180017,0.7391716841091552,0.40463740671355203,-0.3963231634095824,0.6695207190615241,0.30117040863174444,-1.6583847103095206,-0.0010446155186955343,1.2189022219014847,0.930193451173975,0.9692948149609012,0.39356236364806807,-2.8660257318601268,-0.23213613320211574,-0.1300160754775229,0.6810719608872228,-0.8322556258312266,0.10173281514861574,-0.31171408465796335,0.8930737119718727,0.4036844986849772,-1.0915036608159776,0.7090865284623207,0.10326065602374697,0.010864504762374577,-0.4945445968045043,-1.1245030909314349,0.6732923475568214,-0.8516008665491055,-0.9414681134927672,-0.06806861773902356,-1.2492656495965526,1.3994844351442923,-1.4230441429605976,-0.8084797711314212,0.5740403701881583,-0.014865597115470057,-1.376786025394719,2.174140649130019,0.4800549965063811,1.254360104597069,0.8308075923063062,-0.24983280518111387,-2.4137599122161286,1.3763230035573175,-0.42676809969667795,1.2541423462064771,0.40796502890896197,2.674113815526656,-0.1156426155940091,0.04387592970289175,-1.260367508971556,-0.9330790311069606,-0.4008301634406368,0.8655946225721761,-0.6075886360761478,3.348227132363383,1.27170381127184,-0.5303825312970526,0.8789196024800091,-0.11284317081198839,-0.13017159636980424,0.8956942118222195,0.04110607956908608,0.46150801522358736,0.8125135184107635,-0.40277898590994876,0.9669935587124027,1.148201389363895,-0.1661425232340741,-0.05632549265594052,-0.9804101977549042,0.39995023018758546,1.386640667220084,1.634829754695505,1.4260153152508634,-1.8813885203129888,-0.08240155560552674,-0.6085173134924832,0.2745698363222717,1.5671257705987125,-1.0622663864533277,0.8756276669045525,-1.5667358777890223,0.38584827180358294,-1.6169904935202548,1.8901951558872279,-1.3950949897426446,0.862598578497446,0.571255500639164,-0.2937136486032682,0.969740867953947,-0.3961488146637863,0.7848101869540101,0.07071724655071066,-0.16843349323601592,1.262351625350459,-0.09407022742877079,-0.7243386448923723,-1.2394536728322225,0.8991119107941025,-1.626525978952241,-1.9674258914621001,0.15470153168268289,1.0234908568119718,0.3768858540944032,-2.255228118293148,2.4356356338653917,0.08922012945009909,2.2355950602107635,1.8663013243563331,-1.6207570622088838,-1.2513365179700575,-0.14667127382012096,1.2940405988468018,-0.882730491501204,-0.06647449340659882,-0.1582646512096494,1.243968074424666,-1.2965527865283426,0.25474762781746535,0.23247111805877083,-1.3661696395546121,-0.06553115563210914,-0.1877723678920821,-0.08855983773140666,-1.0434487876683802,-0.48589535810999174,1.3506319750759004,1.6270853149672075,0.17870126730568336,0.9009487532432324,0.7913576488756233,-1.5306891371404543,1.5994466290654568,2.814876085622384,-1.0038971221027302,0.14676733045951804,-2.38110848284311,-0.7790592025278394,-0.20183272123894777,-0.23411615749088893,0.01646903851049882,1.5141556767503237,0.19420052554110667,0.8356603655170048,1.015750361158738,-0.6197329013066757,0.09040747661996756,2.0247585003303814,0.8890789598661988,0.6059093431377329,-1.3434893354714332,-0.16873563334280084,0.5871922865080531,0.4249447134022298,0.3983750227407681,0.6504578126110131,0.21045013541029164,-0.39939056369926196,0.16466356469878254,1.5365224200221408,-0.32002744328332017,-1.8914213999525347,0.7514247228193103,0.43045441125856587,-1.0538157662700447,-0.3596087779223973,-0.678931450688541,1.2986999661819927,-0.01650171873759737,0.6741524067732894,0.15842189154144132,-0.21113047316445785,-2.1495588550369966,0.47969323858165996,2.6098029506760763,0.9192442322750486,-0.33715398273670033,0.866197418234605,0.0594788953137006,-0.14727834166366993,0.718345679352716,0.5046640887436331,-0.4370210902959313,-0.6774608356360056,-0.44389582192126464,1.889793889036033,0.1386560673789532,0.27225109243571016,-0.8502709715985775,0.35783584497153414,0.6778468870130986,0.5737105091923966,0.6898203051509063,-0.24746603660306293,-0.08185076807926908,0.34232906583985656,0.608143042492641,1.6309303325298132,-0.9664006069471713,0.32231687728381414,1.735565284042,2.3938724929624775,0.1176139009222735,1.6308630755796094,-0.0013492306615286581,1.540015383824026,0.5210436813817657,-0.8989373783918959,-0.22879342120454757,0.8599765390521203,0.3176749622048456,1.3499477878048802,-1.1485810354980779,0.655382069177111,-0.7758529405478576,-0.16461220621848252,-0.33494801272287916,0.08965812126183438,0.3912932381666855,-0.22779332160277646,-0.4908005936022652,-0.2002187821617559,-1.113261982355464,0.7643636132709136,-0.12266810241939198,-0.41557300111161255,1.3330454820993014,-0.40343997558898453,-0.08480919670686762,0.3451938760024247,-1.0723568267771528,-0.5732240759640401,-2.0446607637448033,-1.2302849119949064,1.7608711946777618,0.17564390491361356,-1.1140450723905344,1.0635832736398927,0.6621695059016988,-0.15109704803074878,0.1925019252946419,0.287949637950958,1.1652546176551586,0.2521112499547714,-1.040516414501049,-0.12983347099973586,1.525490623480129,-0.0301510824891782,-0.6212521955045692,0.14739530955313646,-0.34136703314349076,-0.41928644707745133,0.6050789958644509,0.19363124402607781,-0.6708765963088732,2.176620369573134,1.9919261481996862,0.05632400970621971,-0.5020115639313761,0.2557470038380804,0.5125610467320632,-1.642560681265138,0.008019482034505199,1.2943227155640904,0.2689190772944551,-0.7436882281833773,1.1642550455243195,-0.43890696778467997,0.8471334820510189,-1.2436530248811293,-1.3759890435909368,-0.9011706221670197,1.9396505152673293,-1.6854490898288892,0.2588401141205886,1.3479044052326221,1.0183131619001407,-1.3032393864093657,-0.22623542373869215,-1.8186428087142654,1.2297045516315932,2.4479254031005273,-2.243577294265086,0.8402359999984497,-1.55016662173683,-0.9991016905219805,-0.49493772977461764,0.5082171763404119,-0.8011733421811104,0.7045053316585207,0.4064850566004863,0.10556477556146748,1.4353682335395146,-2.017661332382303,0.780315852069694,0.6139460291759139,0.5590348270898174,0.13612572484239893,0.7058071008233966,-0.26635777395919735,1.0756836657281823,0.6293170951391609,-0.692445037809877,-0.35418066903246687,-0.7937544852918575,-0.09390520001158835,-0.24127440420317675,-0.5798655225419147,0.08686618578175953,0.713691590311608,0.3571022248876316,1.8044125493151808,1.396545229587351,0.5765214350527197,-0.009040924390237293,0.9435193342130976,-0.3339549366556736,-1.7961965963415185,-0.16370206960910055,-0.8600059895956653,0.24118964798522627,-0.5905812791645003,1.0430989124631531,0.04316023770003678,1.5114334863086651,-0.3524586746375608,-0.5801295383459304,0.4913186896617193,0.03736341964562246,-0.8066879553231188,1.6246569390957435,-0.007474125464769487,-0.4092627846212435,-1.144229398394422,0.17191671951334955,-0.07816400242310659,-0.2224586092511297,-0.7609844076868572,0.13974953360587045,0.22379578798142663,-1.448780024332363,-1.5940023298737154,-0.9886923242681734,0.971653323274598,0.7829131550591233,-1.03029471928991,-0.15475309473617582,1.725503524757409,0.2936899164082572,0.3096181823813263,-0.6292141795476717,1.9711245406120337,0.7417760405496083,-0.21820917661901607,0.16017850918354898,0.7028575540460357,0.7647819945039585,-1.0258269233020758,-0.9128951340092589,-0.19451821489043178,-0.4189331617721038,0.8322409773667823,1.1035661988516297,-0.856330444165909,-0.21485122713394805,-1.0122358622382022,-0.5962954990412349,-0.7546197952925945,1.7645421084994168,0.25682730275819843,0.07105945278385949,-0.7444289179830509,-0.479968684346732,1.0001107334445756,-0.711063962523059,0.3209567407557286,-0.48516271145961953,0.028905015314268166,0.36518248886945737,1.2940281033620926,-0.9234838301395832,-0.8522869801941462,0.7892013217473997,-0.1522011730118003,0.8923046805468151,1.465053569051281,0.4293355029197806,0.059771119364782396,-0.2800183216186934,-0.5474176034083419,-0.5814182099870393,-2.0137897556865254,1.557688582047593,-0.36100843086898793,0.6285440825891399,-0.39820352335376874,-1.1963796165630272,-1.5425646007583729,0.19449885975402945,1.1966943651458917,-1.5620784957076566,0.07434767721603194,0.5631778978369859,1.6776379943805648,1.788741860376764,-1.8725921887196015,-1.6658575600232406,-2.634118644234483,-1.1329030238042426,1.3099498919017303,-1.620368303480803,2.2398109053336888,-0.8424699399977864,0.9173685799690272,-0.3787856560171881,0.14006323073176624,0.031248800231091934,1.5483415369821634,-0.45464228462685086,0.47852515498553344,0.1099334759799883,0.3452705398462915,-1.041051996297585,-0.9982708967645377,-0.43521167773985725,0.20093270439068486,-1.280497696931269,-2.732157339449079,-1.4742286209659763,-0.001607026884384953,0.7727031109186175,0.8640903881165576,0.9018027359332321,0.5091021576781766,0.4460556059193692,1.4423534127841886,0.5403271745166144,0.8463031203144071,-0.6200257978766365,-0.7100733972344503,0.8107541960432014,2.317938480263574,-0.009957574562485957,-1.1574233578548168,0.3039799602889261,-0.008237201659802514,0.035322186175299426,2.573293611394055,0.8506502306992008,-0.6893025640463799,0.3502598457454501,1.4534114091418031,-2.7001726421891394,1.4799010967362232,1.0119072992958904,1.1355481295354868,0.09194814644004577,-0.6329742715469507,-1.1325288125005835,0.1982555878016817,-0.2788500929662539,0.05039951687563758,0.05156418289957299,-0.014254548428486048,0.7805762324866847,0.6456586263349597,0.12098028279943816,-1.8833834894618495,-0.4036443035768569,-0.7439258095612614,0.8037977231072407,1.7410950203767568,-0.7349288165793448,-0.7603669487837006,1.5659893363455017,1.9949003964417062,-0.03541209225323295,0.679905075727439,0.07281360127898585,-0.618424351706126,2.1703309010287923,0.6488358342982724,1.4098899218169962,-0.489232643736144,1.677784531377965,-0.24814661384335132,1.0370418447720355,0.36368140615174466,0.5131804729184909,0.3196231830029012,-0.6901445247356041,-1.3019321803487722,-0.6184597106839775,-0.6460208245523839,0.07826614396272351,0.60345347856121,-0.0464784271974582,-0.21474677255426736,0.3485497163162368,1.1192271959684776,-0.564341341247663,0.7718874836300207,-0.7781478910337435,-1.0642017662360146,-0.18809292417624338,-0.9558522245136282,0.03642675395551983,-2.3106479019207486,0.18281523597647312,-0.39473701363807434,2.207832844931175,-1.2943994645974866,1.5516534411949485,-0.05341888227541109,-0.07209700142890668,-0.5373830882609799,-1.572558576341714,-0.8047548331418389,1.043978861364751,-0.6751236843372684,0.6229625964452866,-0.89694144084503,-0.37296241937064023,-0.5517715433333937,0.009524132809754204,2.0632697285247614,0.10465445916626233,-0.881381654935559,-0.16130301707695374,-0.9525303789081014,0.3444908157440476,-0.20455779055815201,0.21754213986714516,0.6988070885042541,-1.35123314331562,-0.005125867886520505,-1.3941201680879385,1.0404079863491484,0.010402712729367674,1.6144307265744957,0.09061343759342538,0.4336571222416184,1.1683091899134426,-0.38790291124088894,-0.6048931712167442,-1.2177324991072414,-1.4403431185500837,0.9857947340426672,0.6044822466470473,2.388546310324367,0.828857006349105,-0.8781359563297219,0.8703500206562618,-0.89805937668016,1.8198608187844802,-1.5974983630053161,-0.5329869895090424,-0.8448770578436725,1.157531626311582,-0.6446602418039192,1.3038617453984742,0.07360191071471964,-0.5878890977391842,0.7721161064476949,1.5040811369898708,0.11531562134786878,-0.6592265572537108,-0.03319909797070976,0.8939095088677492,-0.24431609073310184,-1.088257190584073,-0.12789794582216665,1.4525210988056994,1.5702914301040285,0.30233641370632686,-2.239770015091612,1.5252557395669932,1.2304750116195928,0.15829611349082115,-0.6737481352957075,0.7316472444019898,-0.5761318093633141,0.8866085436291192,-1.8123725113980889,-0.3510955611523966,-0.08715520081494216,0.25085669190595594,-0.5311618179746097,0.09160001828166006,0.22065097365679096,0.8667108789876965,-0.6044180788533238,-1.1725039056586029,0.9538523389856135,0.7960182677925882,-0.16423839958643738,-0.9888463678180971,-1.6225862823576973,0.7910545693352459,-0.6279364774156938,-0.6764403303488873,1.7853559531795413,0.3120272583480452,1.0191629988236088,0.7427928176067651,-0.7620986285466553,1.6404790539930165,0.7742042942848003,-1.9387703454570908,-0.051784415500325115,0.07348676218364106,2.013149050236339,1.0192062694801858,1.3455549565748002,0.2484070449482013,0.297395302673898,-0.41261293720184977,-0.8960502015989618,-0.44334999583879003,0.05498627456290209,2.1814098726423445,0.2681663085526102,0.39266213834309577,1.2955291135528497,0.12340770579972879,0.8305787150768429,0.00782473938969377,2.1831182755899055,0.19421493172890147,-0.3644027622105447,0.6123905381263393,1.0333158924074164,2.543198613719041,0.2902111963858615,1.081093237780672,-0.2016792280482917,-0.4272450048558562,0.7139077226194855,1.6629101859602349,-2.1180961386033275,-0.2964441051976654,-0.21111956517139072,0.09140136051233479,2.075379629980386,-1.8027675804062384,-0.057436717089716136,1.5153473189906854,1.3075151673081766,-0.9430778490081452,-0.2669887225416522,0.6479333514818496,-0.6156545178412748,1.5487345575075762,3.2056881733643423,0.4766245553259905,1.4004925574711085,0.2014940731216008,-0.9528348244972726,1.108626758024705,-0.6075132049378625,0.6124006538778481,-0.05245864810375501,0.8419166038603361,-0.3337969678945377,2.0952409699865115,2.578076858471726,-0.16240250472694223,1.7759913198605874,-1.2513108958300367,-1.3112232701291449,1.2270133353980828,-0.3303665016563938,2.087868580756669,0.17806037768579658,1.2716372508251927,-0.49772732040350953,0.5512955076071004,0.23228820083467855,-0.4088740303349521,1.0295946841480192,0.36773205559988165,-0.786139654577175,0.9712579489053982,1.3452549370777638,-0.023541302450641004,-0.21647487666820484,0.15552094858462495,-1.8977302830014162,0.3568337892393063,-1.5896887194015081,0.22031675467904824,0.4043053706355631,-0.14615013939821547,-1.6063589246216872,-0.5132083722725999,-1.0289663957717083,0.6020286935103173,0.36628667171984436,-0.6558850743806237,2.4844234418609807,1.0397337255661872,0.19289131942834087,1.605128481493622,-0.5260340987408442,0.3185399745841373,1.6288409242855997,1.8114170256934077,0.08853314062906648,-1.6169368472921393,-0.6188562106493745,0.5358832979447685,0.6231443630677717,1.46039137247803,0.7608492064597395,-0.7184178976732128,-0.07585316391188757,-0.5351547013857051,-0.9813640833009574,0.20422166657146384,-0.6839874890677862,-1.9675801433357618,-1.9329784369416847,-0.6751154632097824,0.9563635110606241,0.045093336592936545,1.1007112502181942,0.6855784967268304,0.1400757940561765,-0.13215382130483097,0.0888915146667623,-0.8075887374824927,-0.520017994683921,-1.0698772986015048,0.8565345226544379,-0.508886226159741,0.21581347238479195,0.19919119384265072,0.7698727736580112,-0.4766068364950015,0.42822692252344535,0.8824781801550523,1.4661519860743246,1.012213638258937,-0.7545136718675013,0.3074349338451155,-1.6576969883052142,1.6172208049900436,-0.8537450282427381,0.4868910955082538,-0.14190367110796026,-1.3554248564662885,0.8699360799230782,-2.670974111179811,-0.037572183866177875,-0.03705132058074018,0.19830730501392582,-0.8385841712464538,-0.7792151930803994,-0.6328305731827029,-0.09923051331092078,-0.38270312323359856,0.44263093626812905,-0.008273514134798543,-0.8181542082137381,-1.3849507434564148,0.962544669846259,-0.6166016875040958,0.9727148050494561,-0.3832180990470154,0.9702629526514005,-0.694168822440144,1.5644288912587978,-2.121067717317497,0.15408436418352794,1.3079620937307843,-0.3474208871301817,0.1039415603123821,-1.4212114627170764,2.005711449574848,-0.16161833781514273,1.3161590141441513,1.613239889552012,0.9829326792728563,-0.8999673485977092,1.5457266055411547,-0.5872048433700613,-0.47544482099393426,-1.3162877862131965,-0.6652618027625515,-2.6298404115880847,-0.0665745985743403,-1.4652103835100756,-0.09960857375416503,-1.373597358204749,-1.3201733728430698,0.7020974328926433,-0.6625430091948449,-0.9075892751671917,1.2693519655578358,0.22882817745957276,-0.23313205023133013,-0.27617193131737827,3.1034132616250165,-0.2539736997047375,-2.668749027562085,1.3046819068099915,0.07134895969233591,-0.11774367932015983,-0.39301219770079165,2.29354902021384,-0.6599789883781051,-0.7778364777932142,-0.24203551741718307,0.8778351741716652,2.1531065454857887,1.2398091714090589,-0.06240094971100679,-0.30261174146677816,0.8797571188226285,-0.9314794492967687,0.148182384116752,0.5111099128138645,-1.0835115270836713,0.8431772706691052,1.0247105459864367,1.4086868036876654,0.8182857923742864,0.16275675254186248,-0.04902812917384613,0.905734674343434,0.3330400008121819,1.6572051832477026,0.4481153757974171,0.19341107026962465,0.6126614215740991,0.7225364606028091,-1.0391261514851313,1.3772864360011874,-2.2705081499756306,-0.09434385659152783,0.7142548048678911,1.8918438834551008,1.3020690037769986,-1.3242141347446237,0.3975052355828554,0.17385595226142425,-1.0450575137418199,-1.77698108243311,-0.6619779389805452,1.2317106925486974,0.4738972812430215,0.051695424744966585,1.930233185059098,-1.308436050381905,-0.5388403746753108,-1.4296301818938733,-0.42957895762431125,-1.0957424795348722,-0.5121051978970307,0.08711563770724402,-0.8910352990592166,0.439261755672933,-0.7229829731380943,-0.27273434017407977,0.5812494082265558,0.8608759518649037,1.1913619400126838,-0.9910674603096397,-0.4043333812925343,-0.298018298793532,1.1944122566014495,0.3186919948881731,-0.4307094044204047,-0.051164185790034435,2.1094086671037093,0.042178683296168966,-2.1961950819882783,1.5651522993767657,1.1716487246583438,1.8996121838631321,-0.9053513456942807,0.21782295998707307,0.9446431870586752,0.44874901837629294,-1.0267132843131708,0.12617775863384648,1.0990770400025143,0.30637566373499314,1.5197707978714587,1.2654145271644743,-0.8823481321581885,1.5834278789523857,1.3130912920648583,0.5723846699667378,-1.338781104379475,-3.3751163454051403,0.008635612431603015,0.3579875206369172,-0.33691306107965246,-0.59847723338026,-0.2287237997618047,-0.7787552950846648,0.021117627852255218,-1.4335722328032903,-0.5676621442663687,0.09294729847226997,-0.6645147750278622,-1.1478898208429689,-0.008449866538764856,1.3319146640236965,0.028630179136328995,0.03256223987791325,0.9229922121683476,0.794790275579841,-0.058531441896275016,0.5263451801350418,-2.3002776510177517E-4,1.70781433169117,2.066459225844526,2.1297751329154946,1.1785219160130167,-0.6867127564634637,1.3487712995112773,-1.7322104094315658,0.3202745566127176,1.4383216761298503,-0.5385494059500726,0.2708487384881691,0.2601045754020093,0.7091059078259467,-1.3072652748741138,1.5765804154725624,0.4603150062460965,1.200936619738375,-0.21873844115972302,-1.0600946270900604,0.554001531238401,1.0994650551359002,1.323787983106215,0.9054126806642097,-0.7479148968987315,-0.4965508078483123,-0.1909509605296043,0.7616070312805009,-0.03310106983282789,0.11056660145886153,0.933736966003175,-0.3015987945259513,0.16181677975891612,0.524556051570219,0.2778858350170876,0.058288709489988634,-0.2870869927812134,0.6449465945204007,-2.3719938822591753,-0.2545616972131626,0.5636558670823808,0.13526438175310326,-0.8280320048092691,-2.0163706671477484,-0.862051076935249,0.5695258758845374,-1.221141395036328,0.24539181019533834,-0.32928680060062887,-0.6176639810618444,0.2162606078263965,-0.07000662386740268,0.2582372076949798,3.0418742239584464,-0.48356035259200963,0.2659213192213764,1.2670823235646647,0.3245415413391927,-0.27183597644843505,-1.362918551145536,-0.37780310164130526,0.10944052043575773,0.30827725804333483,-0.32335141312649196,-1.9035963427682716,0.6751983511635399,-1.7888731953111316,0.01596067085781222,1.3471113160419992,0.034269312796705635,0.6967894289218833,0.1059414143346111,0.862123992133044,-1.5005385365166246,-0.8691521276650118,-0.4364998336491015,0.8813591397532219,0.6172323132646135,2.427071541684394,0.2597747082433774,0.152469920349286,1.49255769675961,1.0231369691671137,-0.05649026562641429,0.2759111904692908,0.2557946549058258,-0.8801390238471338,0.11393537716657572,1.540249069004898,1.1231613891283487,-1.8598409873800643,0.505873655246252,-0.3750329945804435,1.6623128808070882,-1.115643917560315,1.0954158016881017,-0.4239731745419656,2.043489860369921,0.5111045351585146,1.6230381851989142,-0.9614603781720613,-0.24211062930937102,0.04005939794407888,1.8162310432495197,-1.2335181866790415,0.3088896478155462,-0.6088689797166298,0.7190628839369404,0.40341181271909554,-0.15388314986461973,0.7857195565622703,0.2215407795766841,-0.03854421533962814,-0.18585144403230688,1.417566976249627,-0.632018478176329,0.6240915028786412,1.3500287978696712,-0.11812691035448843,-0.540884852203089,-0.23805551200441685,-0.7088547046815294,0.04191573201496424,-1.4170807046404248,0.43777071414704366,0.40858654201625055,0.15672540315895078,-1.84072059001805,0.4382563903187715,0.9821438898694795,-0.5901489261833048,0.18859798483138374,-0.06775256568178946,0.4467215870441626,-0.8077325292423205,1.2458002600172786,1.2620507388126252,-0.6240530485735991,0.29628751903395545,-0.8674637357859087,-1.837624868456318,-1.8190007050330068,-0.8424530005456817,-1.416562672486346,1.0169046074535073,0.9054363680917674,-1.0772235588032675,0.8660577091871509,0.048023315397488886,0.8891344328060278,-1.1256576554270659,0.09937438382815206,-2.16630870869501,0.44091837028575587,-0.5830228109056235,1.1923055896501473,1.249636466525936,-0.2164806253878447,0.09885079188112565,-0.7112512947758716,-0.7480230607590972,0.2903933482471183,-0.6780864559623964,1.6686647629119347,0.6905111337503695,0.06920782578078274,-0.17778194252224197,0.135433285878535,-0.1234551572419747,-0.40482996735885046,-1.281952399234161,-0.06712049882372235,1.4178757514071183,2.436696275129686,0.9105024014204912,-0.1724061149776275,0.591505738532781,-0.9522051879250417,0.07035327283493949,0.17645513927632245,0.5687952960158257,1.850204580302053,0.6085612808012337,1.4702801887526522,-0.633566578489468,1.6610460793319997,-1.092356391176945,-1.5035616083370373,0.16199087038140778,-0.662169391644117,0.7859429669540183,1.467548859230348,1.2957894830919774,-0.019610861785793136,0.9260156071158923,0.28080839485900494,1.3200974104976875,-0.3097051373256626,1.764404738781323,-2.800330569557145,-2.1021766867845497,-1.5723363766816487,-0.1501784990250192,0.8123301038543835,-1.4539962192219764,-0.3034144961110151,1.4871203995635927,-0.32985008040201863,0.829026750374388,0.15150655665145268,0.3925342935171673,-0.1188194130161075,-1.5627270888363554,-0.9585793276779165,-1.9416329507499843,0.32381607716473443,1.3839097888630076,0.7976096528231477,1.629320572406514,0.05350816861372754,-0.24186878688813238,0.46966386254293085,0.19261398753145512,-1.65447830787244,-1.5365964695503176,-0.24024320168035743,0.13246440815049465,0.7702851465334399,-0.1939634774711897,-1.0083680692422519,-0.4222808575332564,1.0353674274112028,-0.2945542486889708,-0.5269423729388885,-0.27314515576921455,1.7945098313917416,1.3454142297505907,-2.0615388467564357,-0.8530969614444429,-0.7602891668397239,0.34380143210067576,0.27902555554562297,0.4684006714401015,0.4407885215972407,0.6420912644491507,-0.8991728003124644,0.2966677344146558,-0.8270729536614795,0.03966819838796378,-0.21837113554899423,1.829826134568433,1.6094821373920043,0.2406981494752828,0.48934841213805846,0.7045900545712624,-0.27345556197927734,-0.7329504245070011,0.9599656569078032,1.0989611326591189,1.5085441182654045,0.5661034822395269,0.6390564978365252,-0.9358042295503888,-0.396817549617451,-1.6393865675927737,-1.5402104557797287,-0.9331217585134718,0.12796917400622596,0.024647748176279162,-0.8242530364418271,-0.8491740527694166,1.421256161103437,0.16837165619387612,0.06830180157139436,0.8287315625349473,-2.153727460272598,-3.007876738159519,-0.42414153053786247,-0.32709559345885036,-0.7093294659885185,2.276031584044818,-0.3484677438766974,0.24954938818348915,-0.41472988510999387,-0.6711417776019792,0.6797285595445531,-0.7098680518019198,-0.36432197390621723,0.4137486319691214,-0.8369831941863984,-0.019999056472417384,1.433378338670872,1.0864503117686086,-0.2752451074962449,-0.47558773959693873,-1.5228372181129983,0.845740271023394,1.18630056625066,0.7870566779581222,-0.5098720107717581,-1.451502065215668,0.32314300458156286,0.6496320188507532,0.1855401035633648,1.0336413018841386,1.6012808553728297,-0.5535587875289529,-0.8775401415463617,0.16459089959615522,-0.4768356791632176,1.0132398763360537,-0.998085579999967,-1.1412058804580627,0.9789495985245978,-0.1891654744316943,-0.2404533300333755,0.5201623039990281,-0.7124924193478246,1.375422060777139,1.7399814111216887,-0.21006498830611034,0.09327230340703617,0.769361700708699,-0.061003095130440554,0.6694452929884472,0.7167033224588197,0.7791499677931545,1.0276680494003778,1.5518229450624978,-1.4005158192326526,-1.3587568966871375,-0.12780559436508002,0.14315377452520234,-0.32119009458661696,0.13000574915439428,0.10534743728346226,1.7749253626656194,-0.4970529599717543,-2.4139827257287374,0.2579033006492591,-0.8850367632279709,-0.8683564691750276,1.551405363209936,-1.3600693967277981,-1.3565843013877634,0.10556732769508122,0.26212140075122276,-0.3381784182280709,-0.5319603056474076,-0.7238060223054062,-1.6657100229643809,-0.4975429687495851,-1.0380548004262586,0.471340257463911,0.7670916616003712,0.7212933695837389,1.4378667556131666,-0.31173745605297426,1.4996771535261937,1.1914683772065784,0.5114768371839534,0.5498715998482868,0.3738397858436221,1.521475254249606,-1.5345323595660723,0.3368955296661342,-1.2010494811985424,-0.05497857680806375,1.9171210552230853,-0.46215909290195195,0.16052098970276205,0.10368319238878904,-0.1377812186293819,-1.7101698611099656,0.9582658657976176,-0.5346705518966286,-2.072249147740914,-1.3801516073648719,-0.13127543657725,1.5593942628658286,0.8055442417625984,1.4534696092576653,-0.5356109563448849,1.0306504512086752,-0.722745851099128,-0.9411811005064274,-0.5476910430753991,0.955660817833118,0.16688239664028315,0.034467498303633555,-0.4474980136436737,-1.7482899694834146,0.5059794432649228,0.41018255785236385,-1.2019997609456856,-0.5517982890099788,2.1774637472575735,-0.5592657429067821,0.08355102254759048,0.5930142183998397,-0.7019273998492563,-0.07043693221132671,1.0974229206574393,-0.5612866032141712,-1.0278179415650603,-0.5074147168853065,-0.9285574487858984,-0.7951727493943248,0.20184886597208365,0.9102105887704196,1.6847371869405134,-0.6610611240905959,0.21941633531815877,0.10584729353164028,1.2359743555445066,0.3269831669047682,0.9907067294882771,1.4527290753501654,0.47860097465605606,1.5057925271461083,-1.2310390474398154,-0.10752296284754222,-2.3430376146654233,0.20107156369372162,0.16658780774314058,0.36526718309916745,0.2722630506910744,1.6398659467101613,-1.21479673424511,-0.5735589251428409,-0.9181722736155618,-0.09298831129275063,0.25814591544790527,1.0726385892421042,-0.27915747273444463,0.6098538446946281,0.04771135661948227,-0.8256639102058636,-1.3774594430234866,0.7285154909399941,0.7292049542048292,-0.9922386586635894,0.125257185389422,-0.7611957233893197,1.9358226861591923,1.3976900945418107,-0.26992977615898395,1.365152338664192,1.6134899035262764,-0.4891952734536269,0.6654251282576794,0.572964105454227,-0.7476563497820717,-0.09742458232927427,-0.27798795311369057,0.5113283279037688,-0.7737105958249603,-0.6192609456135361,-0.3391501811621045,1.4282778161131076,1.5303466432295918,-1.2181911526515026,0.14977901680516587,0.13894657974467708,-0.01964723279409206,0.9814985016112076,-1.057883739719037,-0.07441441725334962,-1.2967065164156761,-2.062332980725945,0.8785266455717973,0.7289917299562267,0.24089473674229475,-0.35121005513251297,0.15373320468155316,0.8406197422549504,0.6948992228897811,-0.43174801352536635,1.04551602190051,0.2445292375226015,-0.9264175924016941,0.17833139993571795,0.632904288780348,0.11086578061237286,0.009639051006375209,1.4811745208188125,1.4065656765665415,-1.0778279663484343,-1.492441929700824,2.222035226671826,-1.313552080009806,-1.59378913663999,-0.8398082688905061,-1.1645722713118396,1.4486015701966128,-0.745807236398904,0.026786340145407917,0.384430945855598,-0.6677675992026066,-0.2827496701644875,-0.31020284816180554,-0.22302464237751143,1.1365689677956456,0.6797738417862371,0.2904250004054657,-0.4761538426902994,0.05587473361210271,-0.6729053689797814,0.9782441814662998,-0.04470759644100347,2.545960595314271,0.8752230113956664,-0.8407741469965075,0.14312251148468508,-1.1984173440001904,0.4044753510730367,0.17311954498573187,0.28766873982998337,-0.0804162315335014,0.8172885486775161,0.5936001179120681,1.2698027452600467,1.0612073791986725,-2.2290063297932625,0.41612284985289294,-0.08495744984314255,1.2605306861558099,-1.859685253478022,-0.30281619102839685,0.45895043766490834,0.03633539238238696,1.340800786265274,1.7568421819874445,-0.009854590772448518,-1.2295478196956524,-1.2800323692031912,-0.7989416405524863,0.30901282842460087,-0.15279305450640115,-0.40799886824590786,1.203806473347123,-0.14145323150618774,0.2985948781827592,0.2922700986230284,0.1932210720195165,-0.10068836619364736,0.8179244301787563,2.808802554680591,0.5263731716062566,-0.5520198768941684,0.4554424074852947,-1.5786314013253444,-1.2596582424617324,-0.3879219112896837,1.161929556685279,-0.6279932245128274,0.5891395799046459,0.7031984129291414,0.06043391199851431,-1.042104057704117,0.8106231095905148,-0.7899589618028166,-2.119079918671814,0.1873710632846224,0.26303661368116277,-0.12696012244650082,1.1035242892567232,-0.028479840878814604,-0.8360685655652199,-0.9386143737470304,-0.336773064632598,0.46313778950555934,0.5453436286789962,0.3007574459546999,-0.7100830490254884,1.4458914917199621,0.9353325139961474,0.07169997226855308,-0.269727352547442,-2.085514679171929,0.024941245217826886,-0.08738130423998089,-0.11216252337149153,0.12348323827453743,0.1402743133041273,0.47979281389701495,1.55378810822433,0.2912437981271734,-0.468671975551206,-0.8033385507022085,-0.48417495691449663,-0.8339288258389681,-0.7722053544709024,-1.4627636187512096,0.010617346258296153,-0.8631739723680497,1.203306055554442,0.27464409273728346,-0.5995257742987301,1.3070297598772755,-0.6003536037579721,-0.7221155099548644,0.22626572479031926,-1.2336063592420177,-0.06460779477856493,1.4938382590797539,-1.0154011161101406,-0.5595935991149925,-0.46738426968149477,-0.08663388230836655,-0.8101645033075441,0.9041788236203263,1.1972852963455196,0.7564263781807299,-0.4625078253012354,-0.8135056704805658,1.2628728404450988,0.22730339381480033,-1.4405486145021356,-0.00819185470336234,-2.1905368769943885,-0.8096841466013409,1.2757419348858274,0.8947350820823641,-0.9335401444238902,0.21541384035418956,-2.334855335023607,0.8323356636409918,1.0529651358934655,0.441792299603269,1.6756987047493215,-0.8330092285374657,0.42380182135261857,0.45371759253075816,-0.4163595601515783,-0.9994543605251666,0.2806410074997446,-1.6278819207498954,-0.32830295791357034,-0.015655645262188905,2.5558088493792828,1.5100925559350618,-0.5576543435753022,0.16932494450348953,-1.5999285720351004,0.32661982716468274,-0.39416220029892374,0.3970575737126367,-2.0129077841423135,-1.6487362481324568,-1.0914294676608707,0.8442266813753623,0.9790679043649021,-0.46428122319609477,0.5337709929241452,-1.4677971403668928,-0.22001871092299383,1.0256744795087214,-1.0414012386257985,0.1174374447312854,-0.051226930860111035,1.9012293454130846,-0.0034418088497458104,-0.2164107870623129,0.6534271065145091,-1.1952142437230584,-0.3302794279917888,0.6590186040787833,3.1512380177205177,-1.1756608371388313,-1.5072799550359257,-0.0059681060326161415,0.6707570480579652,0.8020313773923003,1.8231484934475775,0.12417618706788225,-0.5328945134588696,2.4973752475808575,-0.24028834694625864,2.151346566884902,-1.043306986441528,-1.0761474456861524,0.9382763046360363,-1.6893978876576305,1.4151842108170831,-0.12197109834463267,0.8629004455604334,1.184271603369466,0.6129599935682872,-0.33841314917343845,-1.1004863805947465,-0.9628218645461617,0.5061719331967334,-2.696948267769627,2.1921921948574252,0.3600538164639844,1.1066759464483185,-0.8275324646730899,-0.5486653426322413,2.5707273665907575,1.5732184646453558,-2.653837996537736,0.3091133382892842,0.13464023014810092,0.5975058375165102,1.379319065486387,0.7280712742890728,-0.6770824531309672,0.2877257687101429,1.0114491427791419,-0.555970412910718,0.28118544107462246,-1.822111398491724,-0.5719181877281607,-1.1113290238265119,-1.4564442822294599,-0.8417540404880698,-0.20697317406558483,-0.0828966542707575,-0.5688225097703125,0.7597551126565529,1.1168987627699296,0.11690590542045107,0.8008579736187434,-1.4774518700550177,0.8424911087546392,-0.2696616040948284,0.0775015576438914,-1.1472004883565965,-0.0368573988312355,-1.3817921202061738,-1.007409292414012,-1.1131357058515807,1.4183242778933975,0.6520411181223361,1.303217925924681,-0.7576095602404738,0.3187376365477614,1.358610123065177,0.40500919039374683,0.12546760720124325,1.2371361541602344,-0.8384861965421587,-0.7290428669778348,0.35981092071950577,-0.6020482014680685,0.47579358355502727,0.7427546498644007,1.4895944204673506,1.2860952343557963,-1.9316070199498478,-0.300563066822625,1.0602368747502187,0.9751537961037827,0.11853366906224942,-1.3183079949464034,-0.033793194891734546,-0.7595137026723106,1.33417868569658,-0.804419439236405,-0.499218082078392,-0.5916572714290502,-0.20507765370396472,0.7057341601466586,0.18268838932823278,-0.3680776858914338,0.3599772321227583,-0.1934854571770721,1.692258186529809,0.7707523263621546,-0.20654114316296876,-0.18035786890707106,1.0615848034735282,-1.0391475956588245,-0.958855427471508,-1.9786129127644436,-0.7620977661326656,-0.7477975099389709,1.2083493930076101,0.8115650576248479,1.4888162361167745,-0.10634459788326886,0.8243478611077663,-1.111213582088119,0.769745854587393,-0.6920356706920934,0.48703919742339885,0.40627127305822486,-0.08830161754593595,-0.7523961583044869,-0.15374835968437642,0.38497726684161293,0.7388102636522753,-0.8487927147167696,0.2369681508083009,0.2229111714204351,-1.8765079288845088,1.1984871955923222,-0.8091082639173742,1.5752852101407486,-0.8831700808552986,-0.9996313084799993,0.3422665310376735,-1.1970095081194667,-0.10511633124368773,0.7731730913782938,-1.372802254680361,0.48203024814340095,-0.38911184312038904,0.49013592402553474,0.6884622782697725,1.9689247262225438,-0.0905419616395894,-0.4834020290923556,-0.24197740714410987,-0.5221633950284256,0.7052551272071004,-0.2662075177357355,2.0683161868685658,0.3896906447722421,-0.14727941858825416,-0.11589618222633524,0.08830496572834319,-0.012242655111857372,0.5533329248407854,0.03427294277751104,-0.6750530064198478,-0.5369273745278356,-0.14119873435340108,-0.18989401873811035,-1.6240081186296205,-0.6239017187498479,-0.4733200055651628,0.3623589359090046,1.304044989587778,1.5646843238098247,-0.33940337441413787,-1.7376776440926078,-0.3456730011081957,-1.3995855108734205,1.1075053181846346,-0.7142777857652878,1.27163465820821,1.4731987587063098,-0.9050143039777439,0.06172656679215957,0.09369886092161891,1.1799412057844174,0.021483110291278577,-0.3275976393170163,1.8301642568478387,2.477522825597923,-2.601075662708493,0.3178330942781914,-0.9164678391555425,1.3543995759199332,-0.4554146401092977,-0.42700467340543824,0.8443449034447869,-0.2817414735847809,0.0037647353915275217,-0.42769940552579894,0.7815654130397075,0.13606723551197206,-2.2724969445442147,-0.2946051499525568,-0.13694117310599543,-1.2495859294524234,-0.7727645801373308,-1.2060123995129013,2.0941869558048096,-0.6755137492014675,2.1207440482468782,1.0356025589036593,-0.5837503935784935,-0.7759061826199164,0.362656302622788,-0.3988725392596773,0.4851816849493137,-1.2087043932874104,0.5333553679829144,1.2153366090588544,0.0040208822655309956,-1.592349540919568,-0.3289086403626291,2.2635197640332088,0.27706443037685363,0.18216186204260368,0.6582431803608123,-0.4029374023826513,-2.341367429254681,-0.5930583359386242,0.027262141772685256,1.4825819760199122,-1.1425321459699673,0.43428890547410576,-0.6167577886054496,-1.615156495500567,0.7922920685429441,0.5634679624061536,1.302679332473827,1.6034947622910012,0.1934322945217665,0.25885694531197123,0.17497439676288032,-1.205497546340931,-0.6287138840587534,0.6371288929143681,-0.53975093133975,-2.072475856601355,0.26851212936035224,2.153313122084033,-0.8176039991843632,0.6890146871939627,-1.0845744491366285,0.32456911636918206,1.5886754315672966,-1.6266020142860649,1.7989612419702623,-0.8000386774879025,0.2420796696647409,1.2726946833842707,-1.5248965418291158,-1.9116668802521133,-0.7346352297362165,0.5643474675145104,-1.2771298690152388,-0.6327650833828853,1.1304309776063133,0.582701990880734,1.2646535500834375,0.04605078850044752,0.6702483416411636,1.886505268817607,0.9115467904405288,1.498522579465901,-0.516647099403176,-0.1876566243708291,0.15275414801902068,1.4275651946867252,1.7887294236653046,0.21884031993498865,0.5338189408919385,1.7481705373288765,-0.9049648108776341,-0.874214629813447,-1.2104749583352599,-0.44418731481516227,1.7019449969103237,1.2789238573888424,0.9139301075361946,1.7325217872345104,0.121309153040137,-0.44408116663582964,0.29551076981836893,-0.8367684857614741,0.7412845945130949,1.7629012663369117,-0.37255492872474966,-0.5183051295430904,1.478736272652556,-0.6374913320795834,-0.07272662291395006,2.685417308638588,0.8593431535276855,-0.7358060676423333,-1.582673960313376,-0.32278987409704585,-0.6004052388893845,1.725832606663759,-1.2570176326981577,0.13736984356907783,-0.15938454266616844,1.727309856716891,1.8133303359499824,-1.3095705240977822,0.6139280542852885,-0.1260930357496255,-0.28695459432555737,1.6035274682272742,-0.5972460532386912,1.6597735485267846,1.828402214642763,1.3971062629531221,-0.3314721815639804,-1.8413085611532742,1.8871619591490532,-0.10367249955983172,0.9088050580459486,-0.07169977919315478,1.3925206068232758,-0.6591017124980907,-0.47659159573502724,-1.35078374767388,0.5953432611521273,-0.19380473863268796,0.48275397597255526,0.7130054546938713,-1.0186573738608697,1.2755839709511667,-1.289838943708355,-0.29175629779230644,2.281807657995058,1.9949520293464644,1.0161191608365856,-1.7644332471950253,0.4081846053093492,1.1203057591356853,1.8743523453131072,-0.16859462608830564,-2.139120701405167,-1.636101139886763,-0.2603240847555626,1.8850290842001274,0.5578853922765463,-0.5074462819806854,-1.844833986105384,0.18569572982225932,-1.191792246151511,-0.21358880153833498,-1.2450578892536501,-1.7715020056862107,0.42940461618962933,0.3711221550088466,1.4950435990927295,-0.5393076534470549,-0.7459479101781036,0.9031152366396554,0.38559042703552326,0.5928127298438881,1.4111880338445728,0.6072136155354567,0.9256398165151716,0.9396332186257557,-1.4346483261480305,-0.03334225212901165,0.8951503239925584,0.40914222769586905,0.3012509850766132,-1.3378189457605545,1.308698788290687,-0.07177008446187032,1.1752019995697647,-1.2625486921000455,-1.5913655698277818,1.026682087001371,-0.7329452095257663,-0.17234218729007367,0.8751763388607667,1.2193042429440761,-2.09368184568625,-1.0365348086314898,-1.4534462289300372,0.6750256253601934,-0.7852074503180713,0.7493078388620835,-0.3057522628725298,1.905014618438627,0.52988943650691,1.3764287203750336,-1.1060767250199552,1.3136301308121303,1.3351328570170335,1.2607959296893116,-1.0499428548482845,1.5414139507740743,-0.5770304658358552,-0.6214095680450252,1.1298358705683937,0.5661829529774256,0.047795873779602406,0.0563432893254959,0.6708741507731046,-0.685450757209635,-1.6218778953195605,0.3679301804633219,1.24554727921732,0.11383412395791517,-0.029846849124742524,-1.3022464919899077,-0.486635336456281,-2.678659496083497,-0.804430739875103,-0.0825910845554234,0.7017849553972749,-1.3546123137897523,0.3238530047033855,-0.04898480174896156,-0.6114125830023188,0.5067133062529617,0.27343445814091005,-0.06642976394987753,-0.4163508600587687,-2.251941352043093,-0.18308669298657054,2.04231055387429,0.6003705678568467,1.428170371266978,-0.35399085268519515,0.7607990895871738,-1.1945334467749604,1.8314022129630871,-0.16504809757520905,-0.6621958885803092,-0.028607235607152268,0.6932787336723708,0.10022169604124193,1.0235555798189002,-0.9043567501464594,-1.069778844034683,1.123665738414233,-0.06838952693604478,-1.2585496471831512,-1.0792428493993873,0.5247817468133659,0.17655920155951313,-0.3047325194383842,-0.1195439355930451,-0.6922892770561303,-0.48956732167295647,-2.299781812254309,1.7109251193633037,0.5043295734535809,-1.095726798848907,-0.3009190315263919,-0.49211082081013546,1.4264922886163642,0.5855265868225766,-0.6146916157259181,-1.0733834290483952,1.4566346319670485,0.6884214794070932,-1.5240914701428225,-0.6286510681630579,0.8860004348552543,-0.23400609191861516,1.2572715509908514,0.21213068120686213,0.9025993338959678,-0.9404327521296038,-0.2373419420297231,1.6076924650535849,0.8271275233314829,0.7519241203222896,-0.17857118146471265,-0.8799096981410328,-0.8893064801465738,0.8773489897839106,1.3179157485098412,1.1127671582534135,0.38231981203252885,0.9239267280517909,-0.4726012714366452,-0.7727005002800976,0.2838006347990072,-1.685684000481182,0.4917491217736768,0.20875046582965387,1.2773349170049422,-0.10053037324598736,0.015247901698429909,0.44772705175069055,-1.3120630834842402,0.45031452557972146,-1.5296685096409055,1.4344962457283184,-1.7981360222181757,1.4432363440744966,0.31249611946350947,-1.7619929934734893,-2.0644721105519364,0.6095745958852343,0.33674651011834716,0.990797542394369,0.8656109500074367,0.4120840088409216,-0.7490989791036539,-0.1869590611743126,-0.6234080086744105,0.0612581534333069,0.6266312941088535,-1.8424654045529323,0.5059362198651634,-1.4273455505811792,0.183240626373421,-0.5422356100119664,-0.9719806394808185,0.8178670537672881,-1.6854330231176133,-1.824239399205196,0.24553730794385445,0.24041159343236432,0.1020056204214878,-0.07205188021740111,0.8365425431528629,-1.841451797971126,0.628006452753438,0.3266456344098462,1.3380793957061914,0.4257544195255452,2.3749838031008204,1.0653781484375804,-1.1001491178117286,1.2627987389426933,1.5255775844796384,0.6660451319267405,-1.1501761574588356,0.0290220837748105,-1.3615423631329384,-0.6370659270508952,-0.5489473567375908,-0.6924974648353329,-0.31266260336297585,1.5664154503229855,-1.2306917615864172,-0.34237022405415335,1.164654843312161,0.6412772171008869,-0.44026143481246127,-0.9918326614789892,-0.31958306471276887,0.3999648035754236,0.5539222987300602,0.8903302887061656,-0.5369777761223272,-0.5218758096178093,-0.6620465513265547,0.2565393406216232,-0.10044687757613266,-1.515224332658928,0.3320207113339972,-0.8276359910230686,0.31060714356056257,-1.6395998201056603,0.0213459335937648,-0.8429669723583798,-0.8063619883025895,1.1248468325456598,-0.1974270683346726,-1.3689264069292473,0.6119892097915335,1.00382318287538,0.7442742750162298,0.10187646600925204,0.13146679596961558,-0.09811703388617192,-0.6994874083202882,-0.49107413814611467,0.7566279994305444,-0.6606034996794679,0.9885417090836274,-0.6263007462185348,1.319979502268175,2.5183892182370755,0.0597337209353276,-1.3799987223374417,0.08981681757833265,-0.5019902752799777,-0.8123978064666437,0.8014583332121797,-2.219025197624479,0.2748258924697383,-0.9849814392389393,-0.8199985316225376,-0.7346626634971642,0.9101102561859726,0.587843661665243,-1.1042395035052153,-0.39795836390738676,-0.7931679897258891,1.0012812703239138,-1.023638812258779,0.2179231902689665,-0.61668917609939,0.3821588759052063,-1.7311991449433328,-0.8993360423316525,-1.234348521219497,0.7680807450666577,0.9319598369407985,-1.5789046288481194,0.7699492106023079,-0.7786788313171211,-0.8977459643371455,-0.9733291719413973,0.592915708892301,0.6227984579829556,0.2554571690686097,2.1893856166729124,-1.0803965625105934,0.53536817502826,0.48560033008359793,-0.41490186483188635,1.1304662641312235,0.5294424973526777,-0.41413102421179854,-0.6370458537007235,-0.7062719359079657,-0.03553994810917216,0.39144062295452514,0.02159414524875019,-0.36706510018134025,0.6757250454314639,-1.83878047215481,1.0209258398222032,1.8989739738054112,-0.8314976029047455,-0.18708739628136958,-1.0323068828137882,-1.8866931041551507,0.013042396232396971,0.5428426853520468,0.6683818599478969,0.20492448355314252,0.5097378518045488,2.216602551528115,-0.5768622176615141,-0.7740134514290498,0.12552544218391995,0.8548794855980542,0.43714810160096285,-0.7873996189395428,-0.29284707603072707,1.7052205790752943,0.569201722738454,-0.19242116752515004,1.1735235516531917,-1.1108459433210367,0.37987319507866624,-0.5424295208363291,-0.7145128827521733,0.1117529341949348,1.005984561878626,1.527731559695583,-1.3193043721018662,0.43731036714982136,-0.021767593083178494,0.6120718557098307,1.2804603154675023,-1.525065460052697,-0.19331965662313902,-0.9343073411193354,-0.21423257299078913,0.260978335765483,0.09277911814937669,0.40423194259178125,0.17635962861948268,0.34937296426445086,0.4008983808617861,-0.7574794594634361,-1.6783832240738108,-1.4715729756428373,1.1652565385376115,-1.8611898660023385,-0.1264962331577373,0.795790930756705,-0.030298916052603896,1.2990086598176627,-0.09615051129876233,-1.2103800867402748,1.4020188909928533,-1.678900000132814,-0.24173601295898017,-0.2893981117765004,-1.4477797764952194,-2.1455568113411885,-0.5691801752706077,0.4718046152085221,-0.10037551885030234,-0.704957007143057,-1.438440223915119,1.4808118655036802,-1.9153703657978476,-0.8139890403001364,0.09394002295633025,0.01756397602252283,-0.47547284413078744,5.562370727502791E-4,1.1413180715032443,-0.6236833010246581,1.8737280399096634,-0.40240458411934177,-1.2200347814672587,-1.2646967043579318,-2.754798506140472,0.5276307751743653,-0.30070889830609193,1.2768502268022288,-0.5509491301706354,-0.3569286244996563,0.4401758184868259,0.93425513978411,0.6381965028959165,0.41867800727305016,0.48817807226049365,-0.633582819913058,0.38280579732482456,1.1954009356562871,0.8553708190810085,-1.3655091338346077,0.41891776985114004,-1.3738486833001824,0.813526664531866,-0.5993642316568819,-0.7859089444963048,0.9535346409321105,2.0111831933944866,-0.8311136515455316,-0.9060503972523296,-1.4234620458893803,-0.5727424128420396,0.19847314935731303,-0.6279296980665755,0.3593438349258693,-1.8148784744924928,0.5229732358695627,-0.24514677945788718,2.7297583889752914,-1.1847998105750588,-0.8948675779238735,2.16824312068451,-0.38773946638913015,-0.8542579192142262,0.5547144009143525,0.08140447012633464,-0.03765547777825464,-0.2022360352793773,-0.28206229673934474,-0.05286311619710244,0.720704284634764,0.4001075695323669,-0.31431702001010264,-1.269530859815804,1.4597890769539479,-0.30230554529305126,-0.3678091700073826,-0.5828675540876134,-0.6419443312407809,0.3469338496718787,-2.1391342679167598,-1.4716534639772714,-0.5002904926525344,-0.46608907877486155,0.9767572328766695,-0.07960860870089763,0.17185801166882134,-1.529109330235949,1.6964762667214859,0.0224545219050486,0.5837416484681984,-0.6164218372411905,0.22811134223270751,-0.5553421680791849,0.030532023022208827,-1.6126072119174466,0.5919677453091268,0.9044364572611159,-1.1738532366666683,-0.9522637719267593,-0.8563380975591557,-0.3212711211629241,-0.023503850226581587,0.662218080959509,0.27510297023017516,1.10602337216471,-1.5927977071305333,-2.562434389894161,-1.443474505824869,1.5839887261981889,1.315557232563601,-8.792796850405754E-4,0.5767764708114097,-0.7293973144298348,-0.40131229110920386,-1.34655517071512,-1.0902736233314134,-0.5186076206652079,-0.7856636400399223,-3.2031070685333844,-1.1640875935140842,-1.4128885180648503,1.6768929225379834,-0.3079827485171854,2.0232138204025327,0.17019926637087773,-0.6698361232998857,1.444664158586222,-2.174917876546947,1.5435082979095749,1.065385890966557,0.27778549756530835,-1.1110863364122878,-1.424927361691166,0.5178444962658543,-0.4543563477383454,-1.824089970517394,2.6531308170380545,0.28722219936270793,-0.13180902688407334,-1.1654868326402008,-0.14968966344221413,2.3309490294387927,-0.9202834173869067,-0.8830911938122337,-0.44345275943877843,-0.2982797623993523,-0.6679008344373776,0.6351869626164297,-1.7809779296157455,0.5708119032516795,0.3144680023196044,-1.0909068502430042,0.8055165679715274,1.8701119025822686,1.0013565044872643,-0.9587988667317969,1.7024273615321115,-1.0093466395806845,1.4633124723187294,0.009114554356564702,-1.8616816618096703,1.4588648020673782,-0.0013093825183188843,-0.5815602527692344,1.2789404337164123,-0.23443923795708585,-0.17346050043626346,-0.7041325241322718,0.379931465500774,-0.18288340595318378,0.872181844517237,0.9086629485599107,-1.0727767653720501,-1.3061011938557745,0.5476143123820437,1.3415937434035046,0.04755675783254694,0.8147753996791297,0.16392690690163791,-0.22518139755382055,-0.43849137334973026,-0.9177451232434575,0.9655834378422857,1.752481300149982,0.20003801917323163,1.1512803653528154,2.0431758772065507,0.06937233200025257,-1.0663245609569107,-1.1645523738579449,0.915678955943097,-1.331280768217739,-0.9624651040635632,0.9793178378437212,1.5448904412944027,0.1463620902383771,0.7859184399198529,-0.06943515319698752,-0.8413417702023489,-0.2643581205443413,0.43581970328412195,-0.06434007253012083,1.1437821586506707,0.3799027001103253,0.10233198017305307,-2.989865429827035,2.234221419588514,1.4439213649191407,0.7063119758849409,0.37296152722272535,1.9574404421467502,-0.05375199828562641,0.50110096079491,0.10374551176377446,-2.193835643188253,-0.34867759464848214,0.5878184834057212,-0.6438145740835963,0.5483007164600379,-0.3449023579974855,0.19682042543920686,-0.3220217756469212,-0.4705175727516871,0.07109294140037442,0.7563415554546986,-0.5666357986448597,-0.39844450263798337,-0.12350734629073447,-0.0025579457947245807,-0.9250066608925422,-0.24526874902322776,0.9783411712060694,-0.5912645326489295,0.2319093771013451,0.22693331132556865,-0.6202893758264734,2.304196071022195,1.8528075698444937,-0.8933692057217602,0.3403040547649462,-0.2688709914441914,1.40317053234331,0.8652554476248371,-0.31654627984893713,-0.2658387187886893,0.09345893477756066,0.11977967137556945,0.4597706234183751,0.27295626540193846,-0.503550517544921,-0.8033822458511709,-1.1573371143403053,0.2072882603324686,-1.9055333310150613,-1.3515224620673154,0.9968048639686695,0.9559372717887163,0.008819689675459548,-1.4462895770135589,-0.38522637488977274,-0.5394345473776191,-1.2161249955219153,-0.6030920663804984,-0.8883308506288842,-0.09695519347709895,0.6366781158165778,0.29925291046154223,-0.29865131661708877,-0.004784582172969967,-0.0896447848523332,0.40872916526242026,0.24969686748524608,-0.013486385360961006,2.3389446429023986,1.5494659722588469,-1.2262409993779275,-1.0524096612594225,0.14669856478601037,1.5752859623153008,0.19773454624613876,-0.6691802440628044,-0.7077183783790971,-1.968569493700904,0.05842188476467187,0.4946341131634029,-0.752236658295656,1.9687226827745874,2.137397892449482,-0.319670235519337,1.2245606920131553,0.10601329227880181,-0.9323409444256601,0.5264928866007538,-0.18916689037698212,0.6703901949534299,1.2622368918654079,0.43909130059873447,-0.36946568381261335,-1.1107173939068633,-0.5046643687736739,-0.9762539058321528,0.5269120934030984,-1.4310017354617612,-0.1656616015094285,-1.3646277772950492,-0.15807977105820298,-1.4517027766818527,0.29366836721923245,-0.5699560705738489,0.3028240422272446,1.5603683366521837,-1.9960554196534428,0.004771888512760267,1.4572437207554256,-0.29316324937884525,0.5066389940610833,-0.20306713821777264,0.2761804005370043,0.46122188794729374,0.14975689230729677,0.049395937932513734,0.44992404514025885,0.5014917906752754,-1.4080280712712794,-0.11685792645444672,-0.806787163454664,-2.266599907361331,0.8079886274147944,0.4433176425599467,-2.003662522802252,-0.9787919627490683,0.8405351923495599,-0.41947381706608056,-0.08788686412019549,0.8420676916649809,2.4074106683938097,0.3743249423777803,1.0023769696335416,-0.81640417952142,-0.936449521231905,0.8718654819028981,0.6419704383495972,-0.016219747217696298,-0.6329180149064706,0.1231383888807803,-1.1590348635457803,0.9900602887446064,-1.5592561357160921,1.1268963149302607,1.7048057727306687,0.6244297453253986,0.07358601648775438,0.1692838698087694,