{"layers":[{"type":"network.DenseLayer","inputSize":784,"outputSize":30,"weights":{"rows":30,"columns":784,"elements":[-1.3765295940621847,-0.543684603620562,1.4999768614088766,-0.37290994184178794,1.7940215979510548,1.458394125796035,-1.1278421854952532,0.6255005721498895,-0.3123003760579516,-0.033752686945405126,-0.09809939874262295,1.1502712651607037,0.8842105330865705,-0.37517549662077054,-0.38194496494308655,-0.09817222397021069,0.8598203414965189,-0.5953368438604975,0.5864289684070538,-0.5957300300296174,-0.13215465525293868,0.13049993837294846,1.2589609662427768,0.9520598153570742,-0.8609948615669224,1.4782200432190091,0.09744490717252369,0.3586264036938671,-1.179648774061348,0.36910451399071476,2.1655279912608507,-1.3611716171175336,-0.3867211873106877,-0.41813342379281426,0.9606981040318905,0.9983206111404122,1.286967792373005,-0.3184200907126735,0.9916540997340945,-0.6566090033107969,-1.477961484864878,-0.6347797824788888,-0.7198082795527624,-1.090583957123991,0.43547908838619526,-2.567562109434442,0.8805370142845371,0.6957827700993132,-0.6033035136235547,2.5570443436195998,-0.1159322431764457,-0.23972269844143665,1.7247925793550272,-0.4049814516685531,-0.798662102167197,-0.15193597690994406,-1.3821086719470874,-1.2545194739767747,-0.5294986012884021,0.8624306912346082,-0.4896337780032857,1.5078163413839165,-0.6544247801602372,-1.8382076267588399,0.48771679088925846,-0.47965119773661574,-0.9807121121675701,-1.1552462578122609,-0.4924413804846156,-0.9902157328535142,1.1319534047615403,-1.9505283144810897,-1.2222642058850597,-1.9730564868647216,-1.3809862531770987,0.653070041448016,-0.7359407908345925,0.211039048302475,2.037478426764762,0.8923458129871021,-0.21311846261445302,0.35183230263361176,-0.5193660724125361,-0.24996448640421945,-0.020562587314178118,-0.31943640066193857,0.28897504906520216,0.6946564355334528,0.3275687710840254,0.3605259372828723,0.9400452910854008,-1.3700152045081218,1.865424434577692,-0.7657043417199029,1.607833015246464,2.692899038165268,0.18904133480342405,0.6841006652899274,-0.44687847541584563,0.966171477116766,2.0804823937603794,2.7718372459826477,0.3810204425165174,-1.4477449617284606,1.3930824906722812,-0.160058096794709,-0.3690641154880156,0.14656641560981146,0.8194112752680337,-0.5305929066695984,-1.55681645756472,-0.07212098392962231,0.06474332272120553,0.08458856713032852,-0.280892901070619,0.40102993128337033,-1.6188031467344126,-0.5148632110035793,0.01775393047156219,1.2286607817998598,0.931323895101705,2.0469331535723065,2.415362745893429,0.4437417390110331,1.3257772301861892,-0.706746997641178,0.7747674146989959,1.0076302646229502,-0.18478835460607831,-0.28997241420772546,-0.5406973729842379,0.12806930358544388,1.222036146056027,0.5824726036426511,0.021180847631506117,-0.5320751058533262,0.8027151597033473,0.36958438184652326,0.4414518526375293,-0.06101255994442185,-0.24213996634464113,0.8406461419725454,-1.1765776095541676,-0.2694070437046412,-1.5804551031520402,2.2914493411797467,0.795320622606927,-0.9673991806589468,0.30095642141847545,1.039619575869211,0.6294484567526756,-0.37216196329886125,1.069844285825529,0.007875795546633422,1.6932336772800447,0.270360156647377,0.1265481038671586,0.3432190777457617,0.41789043572307855,1.9738591636782838,-0.6424528034661784,-1.1139551113580166,0.019253161086424834,1.3531458821358857,-0.8324683786875761,1.0942020709040385,-0.5622324836821033,-0.041536117944770135,-1.9356527415448461,-0.2790946320901234,-0.45028122507481083,1.2380367865969357,0.5800854138579938,-0.14895143341008185,-0.6758923787812122,-0.7976995211051824,0.3299195758221618,0.37900541674845617,1.581709140795014,0.6741629235540504,-0.047491374845573,1.2980657780799933,0.9841402702941917,-1.155507657510029,1.284044273831971,0.49040789815383573,0.614990197293326,-0.589180263570978,-0.698158443285167,-1.3723736953692736,-0.14845529544748792,-0.7695824135629065,-1.7191187948631999,-0.03766006890251064,-0.902535714722037,1.3892664457877935,-0.017240603472475045,0.2374660280039257,1.1679798719102639,-1.698033006352614,0.16916620426999066,0.42941249801271125,-0.13469891981230778,1.0871812607259344,-1.8454826488167768,-0.9848510178962098,-0.9306684938226024,-1.0160963742507467,-0.18425490350781437,1.3536701260704056,0.1607525714328158,1.399553457307636,0.9511582506509452,0.9951526958069817,1.3494771011399491,-1.1629788770635476,2.1734752764462626,-0.20896617620319505,0.07745122737097677,-1.8302714179156352,-0.4367144811315869,0.9181941472451801,0.8117733376133456,-0.1793450563823205,1.3150803599649636,-0.5781580753041171,0.8324596227552756,-1.023687694224627,-0.1622643158573803,-0.00886770889070667,-0.9282602144032195,-0.6714446822883262,0.2749089772731831,-2.091507091052125,-0.8192610475210682,-0.5831564973541015,-0.9734058784929439,-0.8377836307774505,0.6519141619721273,-0.04712926724431676,0.9969708128918316,2.0202174904550483,-2.613882206820558,0.8470614296196369,-1.007262020120605,1.4434200101257235,0.01578811001339818,-1.6308641601280218,-0.48540666542950195,-0.6653866153042894,-0.7384498297219385,0.7098854051787036,-1.6879822523810077,-0.39045662168024825,-1.8955697562596672,1.477137686153236,-0.8176777690714909,0.912887026326555,-0.5143513964993695,-1.3095911898792976,0.9808706455698475,0.0043765819679644075,-0.14668223714060982,-1.7422971210814717,-1.292365488138814,-1.8892996656710113,-1.4090151461851663,-0.27933374865090693,1.4948038238751606,2.557448261953356,2.293852200823557,-0.444084631750929,0.17845244726129358,1.033572302488766,1.609050723858309,-1.4696073176474103,-0.48436611624241394,0.26073919772976883,1.1987886475308878,0.6271226490777955,-0.75119894232059,1.0001771422297594,0.5170549756180209,-0.9739452925767299,-1.3418659325685383,0.37008993020741243,-2.419651440601445,1.9086527687641974,0.589518738417127,-0.28181765186020696,-1.3513930485027756,-1.3188928990424107,-0.8306007155919702,-3.2132866704583365,-1.8916285849296173,1.4710787589460852,-0.670532254796457,-0.7957109710380681,1.3870864580448876,1.6956621235834912,1.0006927755434256,-1.4296329487955883,1.0343054947751429,1.147510020109573,1.4469754409549846,1.4427269588834817,2.0574068052315377,0.060603330377300715,1.710144219842552,-1.4454203234605205,-0.37211874977813475,-2.1675812191321864,0.4343070223008886,-0.7966549182746419,1.5623321895356237,0.029966977618111557,-0.5268532334493644,-2.087299761009725,-1.1531279217270838,-2.3050475538941084,-1.1119786321640814,-1.1111915279591995,0.67924155711737,-0.2924191888505064,1.3774304573619667,-1.5884992709209182,1.2305639184295356,0.8467537201665993,1.180573080183703,-1.6005077226445734,-0.9046855925485267,-1.0985721949854739,-0.37342835065916996,0.1059347456231534,-0.2438734405338788,1.3127718851519763,0.1457394553484792,-1.0307065019499724,0.6119223885785829,-0.40977930931911477,-0.2925330266234609,-0.5828217839587232,-1.0344960073037759,-1.8362225405813137,-0.566550436988443,-0.5422114790731665,-1.123867246685634,0.2809791332126847,-1.3250367585419538,-0.4476721781801828,-1.7320902381967611,-1.6917772114976612,-0.4244055012142695,0.15977255996016695,-0.03749727127653839,-1.426892712147987,-1.6400978612022987,0.9821277180280099,-1.5725924909755118,0.6277389184689426,0.921192412449288,0.2412096367615776,0.37944220141906826,-0.19545093845320102,-1.4338409666809802,-0.3141760853593588,-0.8009624000900903,-0.15969106942575909,0.9521949502144132,-0.8654240801009424,0.3161494840063985,-1.8010802275485287,-0.9226659832572792,-0.9022756507061012,-1.1666222821158472,-0.5051814567969033,0.16235636633358974,-0.5926728941301688,-1.2312687021504787,-0.37638266898646144,-0.6055256237437004,-0.21597174281462678,-0.5754824181108807,-1.279489813521581,0.7414826241895888,-1.1042449078284868,-0.5903736973272236,-0.01785338555327189,-0.8116257755648857,-0.6351842895843698,0.575248732471456,0.5766694294023453,1.2864819596623138,-0.2791959082218546,-0.9309913455682701,-0.6794394415508689,1.9203587425809943,-0.4615786049617957,-0.14501159044759152,-2.052957725589726,-0.872968123989212,-0.7142916549786057,1.5282947837711403,-0.20671188703603152,1.140306187030674,0.48595975117880796,-0.031742569222490066,1.2013885617413076,0.7411308898968749,-0.5404627307971845,-0.11634541833404885,0.3488175458248127,0.08245602248698357,-0.5162253692479652,-0.09295345481907051,-0.916796661165307,0.9093928711753858,1.171511340533405,0.45399461254659557,-0.6480773983737049,-0.5268138535053851,-1.3913529121188202,-0.7610957024569368,-2.165785209773207,2.038170258225041,-0.6152307915687024,0.7756234046209106,1.0559782920198466,-0.9995977159572317,-0.07914622150703453,0.9362576064089968,-0.9109047904525316,-1.0165924640299775,-0.7860667103792872,-1.7325446695952524,-2.0908488743184948,-0.1640116632229017,-0.9764540572694697,0.8293556445398583,0.39984495493945343,0.897978770207975,-0.5977390860179995,-1.7480960802706664,0.5674948129910485,-0.7798303889170588,-0.5505598497508308,0.6595639470834294,-1.142125586647942,-0.29841234361472674,0.012865946025888177,0.9205973253384071,-0.09682724934940086,-0.5568744698621978,-0.6203552061456327,1.1449594776809928,-0.042119857158779424,-0.19001788508971001,0.7114226405486579,0.9929650226341372,0.2769623949019211,-0.44034621851731115,0.6761844791689527,-0.7144469668092679,-1.7109846249829066,-0.5792735397686688,-1.853754235845358,0.48331785684881046,-0.4349933756319505,1.2045178944011703,-0.021689669292158497,-0.3689679376760877,-0.964071205435648,2.8165260944492077,-0.5886931940263542,0.5873632704410661,-0.26123176362851624,-0.4632943753067588,0.35373939152707096,1.942084618575148,0.2437041018864779,-0.7086376039555823,1.5377805522626868,-0.16883402960801278,-0.8427292913174712,-1.472947902771851,0.35667016316399874,-1.4905858725048857,-1.190836346506368,0.1774521024624746,-1.7695290913186283,-1.7655982063886713,-1.0758980766972723,0.3490213240998162,-1.1437334699834183,0.45218418246475084,-0.9851364529359916,0.05213623019583873,-1.2640892008048739,1.3385272470465075,-1.236940932015886,-0.6701838286743252,-0.7170291934577862,-0.48757187836382093,-0.44403226613213104,1.1432471115389056,1.2602057724800746,-1.376870312826882,-0.23575694943371572,-0.40955326088610045,0.8604019244768967,-0.5886239909409037,0.6535656242367128,-1.1096187693129553,-1.4031948401024794,-2.58556400573372,0.15281792844642395,-0.05030599692975538,-0.6332320186378743,0.19142321597172943,-1.2531289218004749,-0.7280361636823793,0.08332991646291321,1.0357930872444248,-0.5167975094159548,-0.25160525691927166,0.47755609064861554,-1.1761709265546951,-0.41858749542925433,0.08407051378391638,0.026153636121532424,1.5189663033240643,-1.6299782549594815,-0.39256539883486724,-0.26841801869007026,-0.36778710067874165,1.471326319285813,0.9803304436074354,-2.1150294670020084,1.012345117839551,2.8502408846267784,-0.5210199382702115,0.6522304359578781,0.2177208603086345,0.7012372505413569,1.6191425477448347,-0.21551872005147454,-0.7680839713201105,0.48154966289992324,2.392965407883006,1.2652289453796117,-0.9464551205732771,-5.010528428768174E-4,-0.18494060393747366,-2.7949002388966555,-1.4087275774239492,0.3676093248022902,0.43168907913202503,0.6281866791475034,1.1912500723870034,-0.4865962452554565,1.1309822315811253,0.756311734910813,1.816750483330297,0.1765532849615743,-0.9375130431349643,-0.6319844604808346,1.8771086373657657,0.09036559920083775,1.1197303333445539,-0.10278824072261807,1.7773889728757017,-1.8438126427670813,2.324322517308629,0.9400586356714421,1.3823075706008514,0.8986922934388808,0.6089257747080109,2.5260547440210335,-0.7518258071973359,-0.25552652194875314,2.4841708404750644,-0.29610175276317563,-1.3995426550131231,-0.03450466374307257,0.8635846666843792,1.6216785884353462,-0.0993089677342268,2.3191524887544466,-0.5332459741138358,1.4697663001260217,1.2716972589141982,0.9660309534616257,0.3056593058944755,-0.18797530167420973,0.36400320531037095,-0.3061886479260038,-0.24015920471079188,-1.487790942373314,-1.3035750213065247,0.13436689792191125,-0.048194303879308176,1.0955919065504618,-0.42843266883357967,1.0041521533915996,0.7622932709354621,0.7497757470983917,-1.2291185366226565,-0.2641331490811766,-0.62863129409581,0.7467283718304109,2.244439627773985,0.3729466008677064,0.2663013983464481,-0.06715380272516279,0.6398053509424773,0.30043807767029856,1.9573721531975643,-1.588940487890303,-1.8453855417453158,-1.5987123922929887,-0.0029942254358486264,1.6331879877582252,0.8058585027764839,1.2244288593203136,-0.18941493592261757,2.8956617165903826,1.2522263174246926,0.5970357683609798,-0.9445487956848889,-1.1919950254966474,0.7149579767739008,1.0999366014243435,1.4861359457266812,1.2333006108696656,-0.3301928194949183,-0.4926818560515335,-0.20747282066032408,1.6911820445251016,-1.1461845714998702,-0.5580421123192029,-1.2664578767794832,-0.9927324723208992,-1.9518455675370847,0.3534329952517594,0.44052054327100143,0.5004076590972784,0.18197231597817165,-0.488354531589214,-0.6192761765204893,-0.7863394612902834,1.9192623175001275,0.298991688051091,0.1696475011954243,1.0457057899386712,-1.8972670077399034,0.12407112044035633,-1.0210221360564127,-1.2109083680836388,1.0106810541959756,-0.7957075578763475,1.4609584163968241,0.04138358600378849,0.22422661270375324,-1.1416090524096354,0.9499263441680467,1.132329154471234,-0.9923125015794902,-1.197877914210027,-1.8342660058540985,-0.9656787383197675,-1.5740283928730894,0.28395531532613744,0.6862118487882874,0.7083480605623447,2.0030789644823765,-1.1781825054997206,0.5070862970442643,0.28100964173206056,1.8817141916460633,0.08481493495261949,-0.25436089865798384,-1.6525678671089046,0.050540704324025375,0.14692564061628424,-0.17850843512639156,-0.00794940709195029,0.19949102279941155,0.2484758938131576,-1.3866980241846172,-0.15742818138230522,-0.8479276827975533,-0.44132352129330066,0.6306434207116297,0.16007531377416792,-0.3436932639439341,1.9992884521107723,-2.3854773490489873,-1.176785976443187,2.4079543550970985,-2.10185608273227,0.5104153313601186,2.0760459936049056,-1.7537733076762303,1.0085397060161152,0.33174422713641577,-0.33082148138828255,0.8916040480071565,-0.9032259255901647,1.1110505281780225,0.1281510919456167,0.5533943162906584,-0.21077003528846,-1.1511551058356828,-2.3093859966599517,1.3452947417375216,2.01611289141552,0.46216875942510427,0.6216211680802161,0.7302711360202249,-1.309283959208959,-0.15267163715856175,-0.6794783075612731,0.1707523023370058,0.2018694125749961,-1.361563641188835,-0.6422921784943436,-0.9338336574742376,-0.4180952398814732,-0.18330089571194436,0.695520351565118,-0.7120521034630244,0.9899700132647631,0.49874045336559764,1.1584920322053274,-1.5650535505975531,-0.004198672435570483,2.0857411868440514,0.5081798651534811,0.37499340572330375,-0.14233909294982997,-0.8798450260580016,-0.6200242333461252,-0.5998706646238566,1.052925662343538,-0.10070867429039639,-0.43485581835440457,0.9910898440367748,0.9283167231272904,1.285462865639023,0.7025860717806541,1.7318464694795113,-1.0124310275274968,-0.5591440826769929,-2.0237246737703782,0.195371812833334,-1.2871351048150055,-0.2726158307147886,-1.5264997101422333,2.3461246680829517,-0.05964607398402023,0.5035316074685354,-0.5023567211156198,-0.669148053205129,0.4046252953371173,1.120548281115973,-0.5018115608170177,2.559925837986717,-0.1485316643306722,-0.0821994241357115,-0.336825901020845,-0.02190998196006507,0.9632750327762902,-1.3818494471255116,-1.6347484203704903,-1.7257478365849115,0.23725217892913184,-0.35473410992887683,-0.8499125992647866,1.8118798510901482,0.639244868904608,-0.9884868368248272,-1.245050024568821,-1.5356543697028917,-0.11316839776695822,0.15964408016137135,-1.858611749444781,-0.942386179243131,0.6346850014407501,-0.9705254301624415,-1.2387255456010688,-1.5974644810101015,0.8454317264770618,1.501759402030778,0.9635822016275113,-0.9708753751128686,-0.17062569558543644,0.7201259861358554,-0.9793746658170535,-0.22040624300428394,0.9818013107737951,0.4930790867070325,0.06736627763971371,-0.26443834138884453,-0.30308264457143314,1.1707151951880208,-0.2563009509426391,0.10442554316055862,0.12188341255314819,0.7170807282529942,0.32169132713873316,-0.8068385592766595,0.5358937769873476,0.22702256504745952,0.10979311724565308,-0.7097950217029465,0.32666815458146975,-0.5028753529655056,-0.8554910362017768,-1.6409041111004543,0.7964853757101126,-1.0814001254815164,-1.1929349271418466,1.197373696522298,0.4094847980830267,0.5574476686359621,1.276705483347682,-0.16664596543080026,-1.2141930745515876,-0.8298682800339979,-0.8918299884035834,1.3052719622923183,1.5195299926206638,-0.7364160862227607,-2.9742390906390153,0.813791831985797,-0.913811004706523,0.7808624821878719,-1.1245911897534093,-0.5647028061892495,-0.032856424688369135,-1.61833491115656,-0.3061822744431929,0.14125994875450915,-0.3557389054974151,1.2500311016320274,0.38668649683222445,-0.2433557501361576,0.05933170481765385,-2.193673755651647,0.7303547400511757,-0.1658296820715358,0.7956049006070518,0.14268036683025215,-1.1041333778834228,-2.0797011718397593,1.612909512099736,0.4540305062268895,1.3110741487795126,-0.3856506593038143,0.5651425219540346,0.29391608172870687,-0.4836981853729336,-1.0673166066520152,0.8007522112935206,0.43729010806496443,0.013918412820153074,1.0963344849923593,-0.035254853310184374,1.25787921220945,-0.5161391009117521,-0.2961143361257664,-0.8186088298590165,-0.01238041074635856,0.603543874304787,-0.5764713336294202,-1.0502835408256255,0.5642485557323871,1.939927037696901,-1.4470560127037502,-0.2435668203755598,0.8565005805443905,-0.10525897296399582,-0.35487343009991096,0.027521216517661217,-2.0812231141125186,-1.0302285254902013,0.03756388340299212,0.42062758213467977,1.2665794399284422,-1.7107451920704169,-1.917091615662482,1.9924542223414894,-0.2688330948855342,-1.6556250188090258,1.3601806127813512,0.8514066232836994,-1.0540529646824894,1.1071965078306132,-0.622437930303881,-0.27608396169884764,0.010499468174051755,0.44728079605571003,1.5769603670631376,-1.3342344619251538,-0.8657563688732219,-1.2836513427635623,0.9251181164765989,0.8144164743454648,-0.18656426690070688,-0.6022289034663255,-1.0896252108885198,1.640583597685027,-0.1890824354886972,1.8961280574173558,1.3060070960849477,-0.1044418983657196,1.0007252407264402,-1.3345320972765113,-0.7211193988754012,0.5441144866240388,1.6130952556089937,0.6218487195035988,-1.1418660533111693,1.2134583672154797,-0.14169139837923742,1.6131162484189547,-0.20688819377077916,1.6417516636447396,0.748917334166493,0.1063209344811851,-0.9068749121619102,0.8294260194104887,0.4904913301132298,0.5956084320073408,-0.42612703529458745,1.2816255906436298,1.428885781436571,1.179040688714323,0.3882664308105591,0.9377444862536299,-0.25197231616493365,1.9870789518410994,1.9481001240585076,0.6749677933429263,-0.07832087521750075,-1.4894940962152858,-1.103409462091818,0.3670649155944349,0.3536421059314067,-1.3607652278280002,1.2104416736721824,-1.4559304369680028,1.5531136331254907,2.033313015562231,0.0670280797964273,-0.6942173878899032,1.8178165986653148,1.3000269299082658,-0.06104143391489823,-1.7016790817785725,-0.1473136504594186,-1.6883837803638935,-1.0765910973387423,-1.2095251993606169,-0.0828056260950866,0.13566925443309405,2.5245543271318622,3.815417287640582,0.4890987423790042,0.4773800148097873,-1.8487703224014724,-0.6899788738488051,0.46358582779213525,1.0342886034876853,-1.1380586968072557,-0.4158323382757744,-0.3552231446363623,-0.33588143475489934,-1.011362430852252,-2.1117524234685465,0.47631173532243215,2.6361740233146365,1.9482021453907188,0.6188458122942184,0.3847241992928839,-0.5379401346566031,-0.6029754693007491,0.9315917020212164,-0.4934599025186509,0.12430438048191916,0.9683426891710603,0.8344786867624608,0.09438797023787161,1.7246489001942584,0.7144637418152533,1.2068511364676697,-0.9467992039375781,-0.2052362069991088,0.27064417185480605,0.25342734114049403,-0.5121462471378792,-0.22389135189531406,-0.4760300291016405,-0.6029929618400104,-1.0199506694725131,0.5691456827875996,-0.15856628775817155,-0.24275968553127614,0.19522963932479623,1.0104758305348769,-1.3712232599086953,1.5716512760687606,1.0072308682408517,-1.3141990071809697,0.8410631962763585,-0.566261457646178,0.31982486952470335,-1.8955281562983008,0.642688258872786,0.013439524614534315,-1.8229627402800874,-0.988564713409065,-0.15365241054896642,-0.2815547960931706,0.29791477358448276,0.06677627757417899,0.46399204883362416,0.2796849483105555,-0.7816516455897494,0.5261113472538257,0.12698295417035063,-1.1949492831897306,1.9011878591909375,-0.46066568123966534,1.0194789223622287,-0.8879443405944758,0.9144985164534564,-1.323727926609954,-0.06846718106767023,0.6485668102702891,-0.5670270946953658,-1.0947612774566455,-1.03804671257041,0.2724890673909343,-1.718366300278136,0.40901774691523185,-0.025414112863826638,1.854362522648976,-0.3196549898866504,1.847016428246923,0.05075573023932884,0.5024109942836138,-0.8008134561641291,0.4121393912710001,-1.0844070235488137,-0.21652905060173214,-0.2185429183205561,-0.7231542800208398,-0.33715955785187357,-4.2731517895327536E-5,0.343174671452809,-0.12763530755392238,-0.9354124282544353,0.4107676750129008,0.9324997715464639,-1.8927875127175129,1.2824462408591637,0.11530779644470872,-0.9363453163844506,-1.5977318662220383,0.24641208043787444,-0.2792934270593052,-1.5624582917097642,0.21534847720549202,0.3444794278677927,-0.15637888330777133,1.491088103073973,-0.639253859545181,-1.7082116347666438,0.9176207585511198,0.8952900833060952,1.1096428700485037,-1.2164640401982536,0.6497091287756119,-0.35112946733430245,-0.2191812638712205,-2.540238186000217,-0.6568534625191407,-0.49411815199608083,0.8970987215367646,0.06628956982728552,-0.05002262868741124,1.1148057457086304,-1.3090725774256808,0.25989086456701244,-0.4964678287052651,1.7729286239223032,0.5499510841566134,-1.0832890273247002,-0.5375017228492516,-1.4758942114095694,-0.8137037219003349,-0.45449606859487024,-0.48097359036765547,-1.8619599265253792,-1.7014400499954556,-4.054955988416685,-0.8654315834809738,1.4982908950946099,-1.4239595422360987,-1.6329600000604112,-0.3625143318039683,1.2199197387127216,2.188016822703149,1.4903160554241857,-0.4457574456535705,-1.2609654304267166,-0.6735591804533818,0.7599068259300934,-0.7515748998827325,-0.1802784661211533,0.636936447467677,-0.32477640451580825,-1.84912428034577,-3.001879272118302,-1.5311543636132996,-1.1453126880442572,-1.1679661538392574,-1.4925544285448955,-2.6152051273309875,-2.5160505390937655,-3.4228609830773644,-2.357715856096974,-2.6276751700971044,-1.9777165822631635,0.45310001589030763,-1.896472606526322,-0.10696280559109442,-0.1369403427229622,-1.3032523189387832,0.23433890361769796,1.7809690590683964,-0.07300833114222699,-0.9145982785409377,-0.5740872607617065,-1.1120391685003832,0.868498929116479,-0.9796832905482501,0.20545167214918117,-1.3964865543704885,-0.14158274091330933,1.265027134304684,-1.0986698050108814,0.13865465052245746,0.9488299386432286,1.1385919602111123,-1.347715978584999,-1.5567513829915038,-1.2472960200795222,0.04371538525398868,-1.378965383511314,-1.7831489302102421,-1.2178384327690503,-2.065213284433118,0.3604479073960832,-0.314878442055505,1.7174377984050813,-2.4881408723697436,-0.42756707221809365,-0.23935782808333467,-0.6711965619012221,-0.4894159026445397,-1.856315026434821,1.8039331011569513,-0.48123415738349823,-0.08363712297113002,0.8696016693699373,-1.5857285038040247,-1.2731054397394936,1.0557651820654992,0.31850020356783926,-2.0975334702930795,-2.286217694152054,-1.0721444997870593,-0.25607148834739485,-0.5054187425912264,-0.4621670645188006,0.7317383204764004,1.824302476786346,-1.9364319924741278,-2.2668964187744325,-0.6972774550775913,-0.049643653903112255,-0.21978692835839866,-0.5537130277630955,-1.6602381342801087,0.34535731721946905,1.0406729540982946,0.5823484624030337,-1.6267454064024314,-0.617741739482263,0.10823961488150428,-0.49881762453540696,-1.4699275313533116,-0.5101672699948919,0.3162954804634575,0.5837005651607201,-0.15161161750007568,-0.8539746016933787,0.38731625401486786,0.3854926295577607,0.9363288688172846,1.9979652551512004,0.27143331273874,1.0423115677820354,0.3027662744345495,2.3046652189832577,-2.468089646399493,1.4105484289667758,0.7082946685186854,-0.09608472139634998,0.6602634918085322,1.212034070065577,1.685564751277162,0.6939768759749013,-0.16638696762089172,-1.8578245252551582,0.4786761984528414,-0.3589887690564683,0.4056716133713997,-0.36768321814301064,-1.5811990561176692,-1.5148268407886525,0.7259352607582303,-2.7617178909621196,0.9905587642047746,1.9904706296791828,0.3303107854912883,0.8556098766277964,0.5087835378575545,-1.063843316604477,-0.5337556980954852,0.0018488776771527,-0.29485314155410636,1.3753279827012619,0.003322558342692628,0.7029890206007723,-0.9354622411918994,-0.43039067446388174,-1.0341603655000193,-0.9762019929267968,0.46761448939626515,0.9008144037003696,-0.2019634489569342,-0.7148038525728146,0.03846150668870014,0.7445968988174566,-0.6914167777782733,-0.8973044640247106,-0.13715166761824032,-8.601949407418172E-4,-0.31176038868149136,-1.2488040134087375,-0.10121771737386996,1.0720582729610215,1.9089699237939362,1.8027289368317654,-0.4100135935960462,0.400339994923217,-0.7253363327048999,0.669039639965315,-0.1282814206382299,-0.40217766209366945,2.410673415923176,0.7380536823796539,0.5017218367167683,0.17522277842949482,-1.9229135520453844,-2.807501600191277,0.07459384682618757,0.6511461490832217,0.8433042175117998,0.7896615941206719,-0.4781973166863596,-0.010421137958703855,1.175592633993472,-0.12396549779243572,-0.9199513767134303,-0.8344329126645506,0.3278343271993772,0.23557415823078445,-0.07147386073440642,-0.2201041917217116,1.0484357751964206,-0.7814697575679435,-0.7237260589736637,1.7209609909436754,0.1739735187924107,0.7063789243120394,0.3348445028317678,1.2205474289149398,-1.187122995667882,-0.73857413636451,-0.508241868021573,0.14391357825630727,-0.05475274055443502,-0.2220776285777182,-0.37102878359964525,0.9595619606638294,0.06413676098698293,1.8206840550723598,2.373195455137846,2.601128201409644,0.677253930267306,0.6431427124335106,0.061643013545851784,-0.18265769213858035,-1.5790180337383815,-0.4053497254302368,-0.43126857907054644,2.3079560622025643,-0.7554269921236373,-1.0754119717057433,0.477047128110338,0.25237255041313034,3.169896903578498,0.9088825915418786,2.1949392864085233,1.0094851893007961,-0.8178011075886537,0.7026811320072742,-1.960149521210328,1.4033234718959526,-1.7546942565605383,-0.4684398634566802,-0.7372443193018615,-1.1136884482884584,1.0103745687962415,0.5855800699240151,2.206956304378277,0.7871739632432019,0.7548198653661198,0.18443862335578676,0.5391898371244997,-0.5693158642677748,-1.0166860193563731,-1.1087998128895002,-0.6139691668303986,-0.6307366782356434,-1.5449654522098428,-0.639874266108182,0.06305230320288507,0.5683240850081155,1.5273598381548399,-0.931917062801369,-0.7319370455350892,0.30393151595533263,0.06557835650228541,-1.1388208643766768,-0.27392520811632065,-0.34166492346377797,-2.0223829689879684,2.247995319622793,0.24184760320524348,-1.1834789008963458,2.3803148612341363,2.531255421774356,0.7632511823280681,1.1523531661149689,-0.48603217918349473,-1.0342540117896384,0.19684505669026117,0.2339991447019664,0.24503775954521625,1.5664615110072062,-1.222509647467027,0.0901353985433355,-0.27112366224475504,-0.8134204400448297,-0.4836855753005061,1.0868371468970563,0.8817412721228448,0.7428977226036947,0.20321931312114777,1.966458760341345,0.9284303483529932,-0.39325578114385024,-0.6978403636740647,-0.5874650607209502,0.45235013123571316,0.044751870809603064,0.03034550751237528,0.5783067494745018,0.14456249671658483,-0.10868909915043322,-0.31608112555933415,-1.367970499124354,-1.3019923403587168,-0.6086641860212733,-0.5480863093273378,1.2842841896008683,-0.8996910878726746,-1.708941404875442,-0.6528893589007799,0.7735708125202816,0.1428407372036689,1.2923686805824985,-0.9475312559216309,0.31875647156797043,0.9462687040883698,0.3748325847765854,-0.6815539044390146,1.1113807992552338,-0.33363484456382786,-0.3120907255765094,-0.984007299372963,0.19873581391270928,-0.3704760371098002,1.7495383984005906,-0.27700640929576525,-1.7150966918196986,0.04826325097784436,0.21392611796908936,-1.3370079159430743,0.060554370992282544,0.2068201285477262,1.0808541253438162,-1.1249531055154915,-1.5395471446576694,-0.16918257458118827,-1.3160175558997655,-0.10922019768003455,-0.09314150282873886,-0.4243682290888055,0.19471185210522013,-1.0798776945130197,-0.9505337320884382,-1.5100740070668501,-0.5981148186064524,0.9052167275751829,0.024956079182094942,0.010449448825284119,-0.6993816960367656,-0.5737139261940061,-1.0509729160822978,-0.4224918259637502,-0.14463045326503604,0.4579367987880491,-0.9075025939142554,1.995840494640685,1.6209870577186463,-0.022103753173156673,2.317756813163966,-0.14415209100257448,0.3579594390036956,0.6345496847672494,-0.1802925159263101,0.5937406012684955,-0.882702483650331,-0.22484921420262746,-1.0063159082382842,1.9810527106130047,-1.6200248497422258,0.7228355518065294,0.8132187191871285,-0.12104591918385119,-0.7083084091068204,0.1034553073142817,-2.107085010312577,-0.4224416917998636,1.224182631682891,-0.7142257514426997,0.8910699088470807,-0.6164978626167796,0.8790914169687807,0.6225340658045918,-1.8059885000734284,-0.6475136223682837,-1.3672816920582989,-0.2950594522932191,1.3059265952905321,-0.7659090312094347,0.2484977739470434,2.2900105907551462,-1.5892806935161734,0.7717339866397104,-1.6627544177538456,0.3174377548711778,1.960407758056564,1.3142462634326217,-0.608204778153356,0.41849966602896854,-1.3823949526774362,-1.6487213960575393,-1.6055090944685704,-0.5768324036761492,0.25217511581486723,-0.8465944231347816,-0.5831019520759548,0.13092028360226815,-0.8356251611906813,-0.41392808504475614,1.8316875373209969,0.10861469906928094,-0.08908240982927508,-0.3845935502563466,-1.4565722054746342,1.8214699134286707,0.9154973265632979,1.3502596015525397,0.98348145493833,-1.1706442639132582,-1.1028140038336856,0.19055686493735347,0.609290275714851,-0.2439024764959337,-0.14824803441263484,-0.519805353639001,0.11546470914496626,1.2068252878134795,0.16977518642150125,-0.24616487496181488,-0.20868969740130291,0.5799426205408469,-0.1750517071290425,2.353377542783284,-0.9532830317621902,-0.43747844552664883,1.2855786183154105,0.03796961098379642,0.10930262146947016,-1.7504335467201826,-0.491938444789638,-0.3401985269476007,1.0084300939785038,-0.6437341121585354,0.4623763042880858,1.316306974234234,0.34571236315390874,1.0570186842929314,-0.9597654142140284,1.3259543369237314,0.9525425903297291,-1.6763150398828368,-0.598856183938326,0.4784983655505555,-0.9187005247534958,1.2025305523097818,0.5999250009369933,0.4036646456208418,-0.3490520425062463,-0.11712813253438323,0.28424422670621335,-0.07841544747616164,-1.5138147792377956,-0.49353980665343355,-0.13999163601642922,-0.6758587320529339,-0.5246681984649222,0.37870113780781695,-0.37479034815411294,-0.8838986698984947,-2.058359432714413,0.5754095878159324,0.18799079131245333,-1.2087045769308253,0.15288134863850766,0.08063410142049167,0.45887167097756953,0.811866947531702,2.1285113220366725,0.412795320976262,0.19720863526753682,1.0819512107400053,0.07041914450240544,0.7947293248411061,0.26846188089900225,1.3612951076123083,0.7971783267279735,1.0213543024171874,0.1239090336176085,1.5740424363851826,0.58600011936952,1.5375395302660266,0.9405458453015397,0.34045739800712155,-0.24803558832969277,-1.2731930290438045,-0.5992870929319288,-0.9969785886884339,-1.3545255945972676,-0.08090815748047343,0.5332204679407591,-0.7956674534878375,1.9927312114871287,0.43667932978141805,-0.39406830059338466,2.268880176754946,0.03548822195309138,0.2384069848522914,-2.3347842678464112,-0.8017603817250952,0.8145920639336295,1.4658747172730997,0.7796715507814481,0.02562281404187725,-1.1673853862728965,-0.29016501086088814,-1.0146150150007551,0.6571202275734968,-0.33964766752745706,-0.9797781160102857,1.138339855007325,-0.16915511450771786,0.10449396128664318,0.7663183085499311,1.851279892920155,2.3409508021036696,-0.8025923568602713,0.23929862241362687,0.13765676611501843,-0.7311229791406075,-1.1645478850514208,-0.20776461251051379,2.728441506397299,0.863146005837763,0.21613834320240685,-0.8004866251000429,1.3984347689938113,0.7372556654205589,1.049858784922552,1.2510061564363395,1.8426174237679949,-0.9148905715908281,1.612083793785184,1.808759918793,-1.7159408243331638,0.41960822694891303,-0.6486165710184231,2.1726753771805156,0.6086947499903574,-0.5812628719786549,0.19630369023566624,0.7933975503506638,-1.433144165891318,-0.8101916273087066,0.8318663194243213,-0.7923737467036851,-0.9990276239349758,-9.041276557446735E-4,1.7908709505927647,-1.2034845679591462,0.5673932863738561,0.8257463072685752,1.5929305981019901,0.3029216321344087,-0.15455924968358178,-0.08636435589042557,0.19830359699989233,-1.4015516614601993,1.420104129161992,0.32128265145457024,-1.1777258659213385,-0.5692717782704726,-0.8501855023580026,2.341315983517516,0.3770247220980437,2.2610395207266305,-0.4272277354814661,2.321941524378462,-1.1542093472864015,0.7426616500580826,-0.36114652108588574,1.4349113060419736,0.9215968495737341,-1.2095026081297575,0.6531087422855069,0.25337129345170534,0.9275761515667611,1.2902129294132136,-2.4128270027302126,-1.3708578523473136,0.5615861261727119,-0.7007764972682794,0.12673282366652888,0.3053141979723029,2.6380142840924763,-0.022156268435968074,-0.37576154483059965,1.8640196670254634,-1.4552681305182855,0.31889281480207193,0.098638199648823,1.0222085103107474,2.1399896498637663,1.2157119200957711,1.8475358299731206,1.3707110306439072,-2.4925679528589018,1.2561197795866423,1.098863458710071,0.3687585222271818,-1.4984855111181388,-0.08741894821235813,-0.5160408397611634,1.273976026697265,2.055024236193078,0.4944237803579659,0.7497934922997306,-0.7912416499743368,0.507832724749828,0.8117152388007342,1.0048501243205734,-0.0757984990026999,-2.0465841172006756,-0.14860143143950275,-1.1900906366102388,0.5410668948908007,-0.08127269651423176,-0.5025935774592052,-0.30898465990772883,-0.19512762214398074,-0.7917623595247152,1.0784505318786526,-1.0618169452628503,-0.0911615902951431,-1.0751510185353357,-0.322322504529148,0.31653319449860534,-2.59045410069501,0.875049641355482,-0.4145787211300019,-2.2853192775387794,-0.7326105061525773,1.2942764989341629,-1.8136366019948518,0.246003191999808,0.3404708886553139,-0.59663770574521,-1.1487821745987683,0.41278132702006237,0.35943811204553733,-0.31227390312023895,-0.33263244859162483,-2.1963511256058443,-0.1654150827880803,1.2127910545528418,-2.1621529704724938,-0.8925920560727432,1.264647671413486,-0.551824765791888,0.10411772873524257,-0.2257137133491648,0.5204145143458403,0.9832469279772919,-0.8171102131267578,0.17282861599495364,-0.30002560410660134,-2.7821760384030467,-0.04632202309630165,1.9976037888428688,-1.835158660004492,-1.8978205279217908,-0.8955759579266451,-0.42057361511552277,1.065947162002459,-1.8044421411885612,-2.094832805284658,0.03307186010820775,0.8041228777053451,0.18464857843682447,-0.21043607297395653,-2.245911548552461,-1.8024369827546742,1.491268771662254,-0.9363120879622618,-0.0015254006569806028,1.3594418830975488,0.30946798235174333,-0.37825519740911817,-0.997135032768752,0.46749551115416754,0.42769794120810267,-0.5641251041451386,-1.1196606191843057,-3.3767880939029387,-0.06452272401027782,-1.8656209351442044,-2.243339645067908,-1.5349706069651177,-0.42381684212739584,0.996988444998599,0.3231610413176408,0.9181686638253177,0.02245843234445573,0.3582439860739922,0.9976685627380837,0.6770584540542482,-0.85121391737516,1.240146403723886,1.68794818279722,-0.998065381370672,1.5212903398223356,-0.02173556339723231,-1.3128948435747305,0.2974112430143066,-1.6935808122243379,0.33868588493445934,0.7809190429765931,0.7994274750601239,-1.897180078070778,-0.6628767148695933,-1.0022322308904628,-0.577184161893885,-1.8345709906774228,-1.0182112570145698,-0.3171676703401223,0.21372356845611304,0.6460736040364669,-1.094575840516053,0.10441887090372015,0.8616802306386132,-2.15530470637108,-0.8135760578423117,-1.5479568854418966,0.006724345075367992,0.1979175221718486,2.0388340058938774,1.7073079943492588,-0.2673409374119882,1.146090412211739,0.2945364448261331,1.3254744311468116,-1.4674292057333043,2.23136171518196,0.989828832062447,2.0223596847572005,-0.6734891348462133,-0.49056547216471347,-0.43024276404597755,-0.2680461636196883,-0.8808770966896492,1.3025707733022107,-0.5881155198630056,-1.8302907697968698,0.32087488905694045,1.4900729589531834,1.6558826692864352,-0.2324035514308977,-2.2929385823801764,1.7822439961023473,-0.13425403703362196,-0.013879222815125785,1.2910855268825752,0.2647234378742544,-0.3622194768097132,0.9299705081605824,0.06235564811047803,1.807948004971834,1.5868707327911822,-0.1249669722020218,2.5400032712840277,0.5187195903600228,-0.01250743893648043,0.3306858124203803,-0.6562865858210508,-0.7999521076387118,-0.5634363369695814,0.06421547901440001,0.7052264771944894,-0.835574423096272,-0.9620711308430484,0.028249230123413526,0.4070424694268217,-0.441964557589371,0.40602277099911077,0.8651160322296343,0.48300593527136226,-0.06289442432212133,0.6270879587920178,0.6920367566638725,0.5930847423623085,0.9895627593413988,-0.09438156634140397,0.33745705881356425,0.7078651207923603,0.593826658964653,0.9292031158763754,1.3393230698344987,3.731586788285427,-0.1580078339324388,0.9035645344943674,-0.4221917381440793,0.06550676440857349,-0.021450884731078305,0.1919431543378479,-1.372848943867007,2.046028804704752,1.8687288394002484,0.017849876388342227,-0.420147135433099,0.37260923120667455,-0.4563839928526744,1.1519318808414372,-0.04931826900296831,-0.4220027306720117,1.268560833473485,0.4199272952335718,-0.6620177704235528,0.37877683404673157,-1.650948594501207,-0.41648361644310194,-0.964459585619831,0.3300840489389064,0.4550146393441786,0.3074933881296888,0.9807875154596492,-0.39714197113553257,-2.307344542457192,-1.0366130263160667,-0.07144175561465993,1.017552440412309,0.8663552509109945,-0.0077619436161408956,-0.8450461245416113,-0.25412260993711067,-0.4578377754882877,-0.762562687921125,-1.4421165855443974,-0.1701419686645752,-1.2834403725431065,-0.8354567561645235,-0.5324228085496083,0.8396053295324822,-0.04269664171131781,-1.2261240255148946,0.3230320932777625,-1.3732306082287382,1.3311604799262877,-0.782936062436019,-0.8403806591822759,0.26175446118567913,1.6950097382382943,-1.3012466920848178,1.3964329249197374,-0.15838702140920843,-2.0835646535049968,-1.0394721888637697,-1.7269564995926143,-0.21964294063698256,-0.30835601762115433,-1.2083327766722827,-1.8496796181458137,-0.6683450434281824,0.5381763815758915,0.897884488419058,-0.2648364082156322,0.37318510434841445,-0.0937403581970109,-0.024461571602934988,0.4428280603177884,0.13087665933159978,-0.4388196388476244,-1.6245813769410853,-0.9732999180650842,1.3586821095779618,-0.041182571142459067,-0.6237427497284709,-0.5748965845208367,1.0301156271841874,-0.8016400137115965,-1.1123881111062128,-1.6553362802152416,-0.32475664692617745,-1.2107799571952282,-1.3583024225052027,1.4410335070802593,-1.1436659895081651,-0.7327853792649702,0.3184011142970506,-1.4935744178947774,-0.10812081869060639,1.032340965547614,-0.4028589641829028,1.172323605278267,0.7769579969823979,-0.03311658778666212,0.9593480233675331,1.8317773327426723,-0.5004032699728811,0.03993257971250996,0.07834900381318097,0.713830271107495,-0.1634097600186414,0.08721595358511289,-1.5142368808275777,-1.5944947402338427,-0.2040715141649761,-1.0960650422718636,-0.7461998829836909,-1.207123683152848,-2.0908193105491404,-1.0198589417667723,-1.0259317287699943,-2.492383607164599,-1.1772971705784812,2.3101416637615197,1.6352612561658564,0.3381207331164912,1.4107398118617218,0.21090614230291782,0.07129344293569864,-0.11024470086320028,-1.056110901767651,0.7104360657349917,0.029426224582985997,1.1355203546619865,0.2548530219774306,-1.8622743966153996,-0.02254994577150008,-0.4509673857907666,-1.5496092327140032,1.42605277702602,-2.110134660847302,0.2313531988953375,0.3171275433200507,-0.021108715194161173,-0.2309842064274103,-1.8712551772010633,-1.7498907003027182,-1.1979832894062727,1.6016635008499036,-0.913957713462805,-1.021637344088549,1.0158256947934818,0.05023814716965656,-0.43912379783532296,1.0876290167080618,2.5007526878897672,1.1045885224501828,-0.8663816017659175,0.6255538383828576,0.8829314230632714,1.8811535406618967,-0.09283320933202134,-0.4746925586480174,0.9057261406077081,0.8300757188390352,0.841004712253399,-0.6886690666676266,-1.5372454625744594,-0.3166018395425913,-0.5165439591914281,-0.3150986852396716,0.6667732126438793,-1.8420992113143724,-1.7271939201517243,-1.2001278485125024,-2.1822647185177977,-1.8421785740574061,-2.1206760758562897,-2.6085971432187485,-0.06085596351233623,1.7171526195532747,0.4612013917599148,-0.6075528268394101,1.1065080109457133,0.03719544784517595,-0.37684902900875816,-0.6574199159107792,1.6178516467154211,-0.5951715123394895,2.238510948553276,-1.6424214021040067,-1.977525191938948,0.24088429367970735,0.9102605657344124,-0.17564801373910072,0.25671591692202056,-0.2272547375461518,-0.5683377932639398,0.9825730301780086,-0.917393547729378,-1.077267327559647,-0.19596535523839928,-0.06710813729786175,0.32128937729220275,-0.32087818984453653,-0.9839086971972663,0.7546190853943389,0.37966989471394946,0.430723754008461,0.5016195600723963,1.5499827136519662,1.595975691328293,-0.17559266235733434,1.4595127843789784,1.4715773637205323,-0.10217981953120187,-0.9515449779873459,-1.790424329860469,0.008260984847376633,0.8339440115519726,-0.7302895306497303,1.2540363805988965,-0.5446640542160003,-0.7092608874821159,-0.9113314131877809,0.5321445378236335,-0.5374605611386444,-0.4259607362330761,1.558140318590925,0.5083603826641271,0.11924230874173966,1.231467206925484,1.3681601065951154,1.4757616434759946,0.46141030895771235,0.6749177553077905,2.6380116028351197,-0.01635501166146049,1.2430573029650809,-0.19932944853184698,1.0750680259302907,-0.3390504871841914,2.08813078754632,2.103881215399148,-0.9898266873130123,-0.046252510112510054,1.9459660032131254,-0.25210597998500944,0.30091250342608916,-0.06455688964384833,-0.12404285667021342,1.042836997792439,-0.43788681768921844,-0.9321900377742846,1.6772323099673025,0.2380807553420773,0.9673782369603342,2.2179798203019634,1.6069550397526728,2.194506067442139,3.597656520265415,1.102510293754996,0.17074622719315438,0.47428731433305077,1.134767213246309,1.6206041934170288,0.598254267169015,0.6066005387014747,-0.11505032831674855,0.49811794790456004,-0.1607954998620151,-1.8770082962746844,0.009236665237656214,0.16208401581987628,-1.662734308286938,-1.510683070614441,-0.27264715303478765,0.8121448120075888,-0.5519583222432692,-0.7757814723397324,0.023020695627617747,-0.8999154066342249,1.8172025595720305,2.510149508150403,0.7313633882064642,0.9669748008087597,1.3197318720636912,0.4789678616295192,-0.2732069966037657,-0.3860096681786658,1.3661969132341374,0.3101567230639178,-0.014394212683374404,-0.6709724319558589,0.005625207063503472,-0.1992632405982369,0.2453259412866584,0.7743466566341742,1.3863076312829987,-1.2660563552435662,1.9361789380466756,1.807708834455202,-1.2003016780456166,0.23603613571825366,-1.1380712711976957,1.2176842495943851,-0.4740471820655612,0.9145998170128001,-0.2861483542015238,1.4802201725298987,-1.6332803844324792,0.5284780154303712,-1.2026162498863973,1.223507286148164,0.43688688269959747,0.42495668113583807,-0.22562483449624585,-0.8502053147918537,-3.076005458826678,-0.12787289887556724,-0.4835881515843744,0.842294368685891,-0.7801359156904842,-0.04420599282337162,-1.0428036783268735,1.4841517202447916,0.04703069521441025,0.6187144637837952,-1.4549209499200788,-0.6017187290848083,-0.7703657954655744,0.648849208556843,0.5333083609843811,0.22862114155237118,1.1931442920380093,0.019866308808459642,0.2988526505662915,-0.35063708993145076,0.8525769237932632,0.08101373722612863,0.8314881119245713,-2.4106982832413424,-0.7881194562568251,-0.0459707611709971,-0.825926040354033,-1.5361162199320093,-0.7800055568310773,-0.2678611137393611,-0.20011937508482702,-1.4602541915241234,-0.17166645559919014,-0.22930958747019115,-0.026407873712879563,0.48803645554507796,-0.20873134102327634,-0.5195921093043223,1.5266005532368785,-1.8824712528629044,0.5074697272720317,-0.5592838764965751,0.7586583733185144,0.13006863461114831,1.486278051702542,0.16584356974965558,0.10124764861580382,0.9048666489316692,-0.17935416842721572,-0.3736540129660366,1.3962693098680368,-1.0296958362084212,0.8975340570925859,0.024961383329939323,-0.4305887263442479,3.1718760931708063,-1.4805941952047306,-1.8172532777121888,-0.39043122493083054,-1.0278872521980336,-0.6837942668732644,-0.37865417111231703,1.9674442855775809,0.9518582833940211,1.5495453423360177,-1.597278082679409,0.5198512136882737,0.12301342337753184,0.19357035389006286,-1.7466525161997437,-0.9435201585196009,-0.04443830520856241,0.8095644543820357,0.9746902827091826,0.8488018625809598,1.3586362718567329,2.3972202959196323,0.8649340849211294,0.11667136113212297,0.2925087691526844,0.8514540839803163,1.0782244016535927,-0.26399743870145503,-0.042442059982021885,-1.0613956171824366,-1.5781111107181758,-0.4466781008415905,-1.2019752785904547,-0.4450677958884404,-0.17695814809525967,-0.3831562622236267,-1.4342392605746732,-1.0192570692518619,-0.5185327495497717,-0.7473077201576049,0.23275957452397242,0.4949362028878546,0.2667628275774438,0.8330424443441464,-2.16668130579181,1.4724944543414615,0.2855712035899098,-2.1049714298605484,0.5474273073624404,-0.6811927279103891,0.05470407318236928,-1.334928138433914,-0.6673408876658297,-1.3242016391144096,-0.07113734953970528,0.7406614933875209,2.6548043747586605,1.1628105306293928,3.1846264996594376,0.9961233212468824,-0.7128920718272005,-0.3916602764436651,-1.8659944460110514,1.3687476980635145,-0.43487568866092724,0.6783313132622444,1.0674392249660731,1.4965732281296698,-0.23746951016508974,-0.057725585656483926,1.6701034103233443,0.9347267617536077,0.5411134943564951,-1.5135571737497175,0.4657659854901444,-0.6138352803475084,0.296157095434624,0.7094296925094282,0.12856193329654994,0.7281901066231183,1.2762904147195693,0.0350301717425493,-2.0371769650368665,-0.8333819213656143,1.9036426562565507,0.33556542385513805,0.23942048408923797,-0.9741995614899494,1.1135253545066635,-1.1308584621949933,-0.19649077963759204,-0.04241403502913252,1.2233711776448182,-0.02145683454265248,-0.3872187071144923,0.44933365074829373,-1.2405241972170085,-0.9464471413588104,1.228024790667838,0.1537598396716254,-1.0393895466252538,-0.8414630023965027,1.146842580322372,-1.5375165675973064,1.4160770573476282,1.2568791079502304,-0.07453073217305323,-0.7790681600137385,-0.10372116309020296,1.6206269544730003,0.1683815338457333,1.3125885763760383,-1.1965091652843578,1.0343265564727495,-0.23380700604994487,1.0102346243297915,1.0600906118595825,-1.23105740246624,0.38549287410920996,-1.481858004343932,-1.4945692188572506,-0.6091877496361552,-1.6238459821866946,-1.1606142939168558,-0.956532993063292,0.20238409576799196,0.027769275624456514,-0.1883721012228713,-0.3296480555695695,0.5731068272249429,-1.1834236110566463,0.5491894319840424,0.18954104202291908,-0.6799384010529897,0.5177797261322956,0.7344435710577688,-0.41951565181161393,-0.987610629625148,1.2218120014720868,0.24306166467820117,-0.9997920105454133,1.5975926355003085,-1.6836297540949756,-0.5395171081743961,0.30148329370293675,1.8882946636675475,-1.375580907513456,-0.2874560913276018,-1.3503204757691434,-0.12010433651804162,-0.0610688184984155,-0.43739848451281466,-0.06860897351485375,0.35939244531382125,-0.7842229329441357,-0.19508017623989082,1.2690877446461863,-0.20757995234846846,-0.7026911340636497,0.41531478866287314,0.9474103574030842,-0.8875479450657243,-0.8224748759993856,-2.1444476889319106,1.869596823916269,-2.7751917426313253,0.2350467751648022,-0.6924362279677778,-1.324011109318974,-1.8235831041869341,1.0965799065129158,-2.0915203111069935,0.4166655344401817,1.5831205482920325,0.31770034240306,0.1574953099905858,-0.47062074858805386,-1.4043669402616212,-0.02418217045807107,-1.534425886144569,1.3628746170897068,1.2658672104390103,-1.3929778245419342,0.8202881684029169,-0.024256153478534558,0.05379305238252495,-0.1876090170517048,1.1543551276580901,-1.8839031049450787,1.2728466556707043,1.0361558367973256,0.02844328480829136,0.858089089620688,1.095277404967328,0.05224411928649171,-1.226537535470941,-0.6057132418448172,-1.3800324282745378,0.16294728623966995,-1.2035891763389337,-1.623280329873173,1.3280206462897548,1.9659834201098783,-0.7300966088153056,-0.7070650612601398,-1.3904152784439152,0.9526897826597209,0.6691875129539431,-0.24187503584482722,-1.051247068988501,-0.2474874517792191,0.9067835278843784,-0.8356309107021621,0.9367943346690232,-0.3480685116786045,-0.7725088038469439,-1.10175708619687,-0.696626106039161,-0.9124939508133828,2.5426327698846714,0.20983749370881338,0.057865060983435745,-0.279690667538093,-0.5207664951322784,-1.4312261836986249,0.8613558296746582,0.45292834595222586,-1.3262668700698281,0.7382550291636697,-0.4426269990255433,0.48260805984827,0.4447258070128113,1.7035079557926678,1.5841490473789648,-0.23129679972594533,0.09651001997686168,-0.262413765958732,-1.1747856633984524,1.4256189731273903,1.0636484204360703,1.6100942217271512,-0.7080309134207643,-0.19425312224284494,-0.1735973084781184,-0.11255221105995471,-0.04356989166578596,0.6691937883414418,-0.8167638025525803,-0.7125497998892101,0.20267760190490944,-1.1129919031936502,-1.576842177494196,-2.211803273013497,-0.511141032439192,-0.3646044505636966,-1.7047781810259852,0.3700333846091774,-2.117589901702713,-0.4595228415911312,-1.7689767225028181,-1.5342903867196596,-1.2980205188654417,0.28617925785275483,-1.6948843781219753,0.5652281325658507,1.405022746508888,-0.34727184451978016,1.3012923917445158,0.21914917124120759,0.4505173717562946,-0.8217954031064454,-0.06831049725576034,0.15382123182483537,-0.3164889441853092,-0.10578957621135755,-0.09745907044293466,-1.5819285998764603,0.5514418361641927,0.10141869807943978,0.1352609503981247,-0.3978989592821534,-0.07925713499613374,0.27282193432288004,-1.0857931497570357,-0.5563749614450767,-1.3636759693885,-0.7861538860630765,0.5587106705590796,1.9528743747557111,0.2674671826245074,-0.6622478391560723,0.6068502559163393,-0.46051115760705286,-0.48113567355091713,0.5687690921411184,0.34844443527898733,0.2505380163891782,2.3040255327353756,-0.3023077874937224,1.5657134016423633,-0.2970076764143488,0.828178044908268,1.136392018922712,-1.1996533054024372,0.4671393614977559,-0.3978730506630463,0.12489241326875697,1.1547137601994804,-1.967410629083269,-1.1222427773532628,-0.47235459696940374,-0.21038915325581065,-1.1420031966740511,0.029846848802271158,1.760819323196769,0.39773075466981406,0.8250393639973783,0.7371683888692987,-0.0257269548791625,2.4907201690733807,1.0803308257023458,0.9612209156210425,0.9801624066491816,-0.05233979049034959,0.08478465982488174,-0.08313566156560662,0.5672955840351013,-0.23347662831133018,0.27206765978820296,0.5532241479448324,0.5749690542504133,-0.2226945367626263,0.9865023335948157,1.3137505573381263,1.4512346672313194,-0.5452511314048064,0.0971528335960309,1.0782277719178708,0.9022983362160307,2.5529508012894544,1.3030267936721334,0.46309166174727645,0.9698988849498038,2.2426955776648962,1.3645538716261285,0.36532583430354865,-0.4274705121634179,0.6349119460085151,1.1790173066659835,0.5474021533473868,0.2725308159525863,0.9239531702170849,-0.44738869837816614,0.5722113646943708,-0.551435353947918,0.847979433013179,0.957120619495884,0.17248384528526098,0.010557309339053128,0.19871532905490946,0.4238545749680082,1.9830828932776419,2.009901841921933,2.099940463737,2.6722663644052775,-0.20208047528445885,1.780388244616498,1.9901039678437538,0.7426912763294863,0.3010945204619987,-0.17590116574596143,-0.836883515931217,-0.13110831528668454,1.0645043142928123,-1.5266063771023513,0.8782790343359508,0.21091906733063534,-0.7308095131471847,0.7343710017893501,-0.4793186156899575,-0.040779024273000654,0.2411371575937955,0.3515163062382388,-0.7262415331876616,0.34530416894763827,-0.3635306033084906,-1.610597821023165,-1.5306912726599222,-0.5146779671109827,1.2500345567502755,2.1799153573416605,2.223630352838717,2.0514860758406415,3.759287715087398,0.3364121765510442,0.588336099776675,0.29431029858475016,0.2553225438408968,1.5010504997785694,0.3313801926962134,0.11038270226116398,0.17802213545798173,2.52842502740931,0.6302242363874317,-0.05582689883644379,0.515848070233793,-1.7349360855152793,0.06991839054779046,0.37286769417842214,-0.5327345725930072,-1.314097499952231,-0.5665026592095675,-0.508038631153673,1.0885065791814708,-0.6361529235758212,-0.29167603178471296,-1.8150416423211813,-0.7135238298971925,-0.028495536847158106,-0.24420840518294626,-1.3307938642570558,-0.2602740553772913,2.1542702671978637,-0.05496899449513482,-0.794594612694243,-0.725043658285006,-1.3015185424015014,-2.911444127916125,-0.30063563084185413,0.2559084207747901,-0.3248398597882803,-0.9561843859161577,-0.04744677288889472,-0.11132686704789374,-0.18784009878615907,-0.5035570528721662,-0.7210441123861108,-0.7695634434904022,-1.6042460519732031,-0.3787946484938358,-0.939313178861054,-1.9179964629627897,-0.3941988837844202,-0.6737601991124663,-3.7018191619855365,1.548752007445464,-1.001392670717796,-0.09515585792240375,-1.3934738483089377,-1.9842997669881568,-0.8202730014681917,-3.1635616620914435,-1.2527409028083232,-1.5083460524399857,-3.6436826378345595,-1.404592778634423,-0.07358970702489043,-0.027610001733881416,0.6152596716409183,2.128119378710438,-0.3337898206784399,-0.36608300789305137,-1.0190748389843742,0.16182889142176857,0.3065516858189591,-0.6368708879518699,0.30301877201821725,0.05388087503703644,-0.9753747343627225,-0.024619182397566095,-1.1644101002538185,0.005817123650268119,-3.106798168824555,-0.7358675780189133,-0.22925833576918514,-1.4896834841579774,-1.6103076540266057,-0.9888295095048573,-1.5508510985629458,0.09408619324711093,-0.67168663599125,-1.1591514068115574,-3.0393629083210185,-1.0089765282908136,-0.5872272234109871,1.7750677273019733,0.9682385996623872,0.9660915323502679,-0.23684452545893442,0.1301123067980726,1.4083762358431935,0.8174939189176428,-1.0994116432814078,-1.0915200404363907,1.9396298505770748,-1.1086323011661356,-1.7635546988624498,0.33426066243192204,-0.5817535302594602,-0.7101528181047002,-0.5976510536454842,-0.4345832160624431,-0.9652592211547725,0.25980523048810433,-0.7879745299114098,-1.9689057885623011,1.1109767125194077,-0.1275106663453087,-1.0069782778208314,-0.3528869625400807,1.4981908434947793,-1.8026301757333476,0.3515942655589204,0.24951018299811953,0.4671691269794049,0.5465686353883701,-0.6177597451211295,0.7356432661238216,0.7418802240740154,-0.9194060367343594,0.29900866047982166,-0.23866558491872994,-0.17980343879674554,0.5416264372334002,1.1050050477728972,0.05585286611994543,-1.7650642258664115,-0.9657284373876638,0.2436028087995511,0.3747738143697742,0.37919235249398364,0.15077716026921936,0.03689622672319191,0.4243897728636024,0.23522323378194612,0.5610331741520347,1.2568910206204906,0.08735242378771393,-2.4499039091379666,-1.53462519294247,0.2505200666470649,-1.2805647911898885,-1.9008511049000978,0.7047683257997165,-2.9162590481807,1.5813813699311308,2.3374622124260123,-0.7900155110498197,1.6557972983829163,-1.7295483161523344,-0.569085277033626,0.8752590541203082,-1.0843522774970002,-0.08006611176487785,0.13885283584103475,-0.6115886683563814,-2.2734898016663605,0.25782151005016823,0.8921006835631389,-0.5837355943240493,0.02525603740357094,-0.03810922622667228,-0.6372990634591896,-1.5969007245083713,0.08352062742775954,-0.3713040050178891,0.031490076157436375,-0.19766298312946234,0.6743264805366901,-0.5341297367968108,-0.051187035499462616,-0.14805426409667458,-0.20949328288861727,0.5891486175560332,-2.923841231294683,-2.2628968468664237,0.6574811704753206,-0.9268387506558784,0.6494635718838272,-1.1087283621260775,0.07969235563251144,-0.30885350282754515,-2.1233805647800343,0.22802952105449295,-1.9015924592073357,2.354783644524561,1.5929797190004134,0.5386954311374994,-0.7427234266275936,-0.22472629126531696,-1.0090174673381906,-0.22885898785671094,0.8021335269711991,-2.0638815750225725,-0.7170941841139078,-1.5600368002208853,-0.345813765410091,-1.4122296595791852,-1.1655017087293247,1.1975275508250416,-1.9910844530349494,-1.5010254266782697,0.35972186221810587,-0.24702441129423178,-0.679351187866345,0.04576068911332529,0.6856628834115837,-0.11150868446500711,-0.33212476856031287,-0.03497728218331488,0.4639022305411484,-0.6054980076044648,1.4410211513280164,-1.2908356590610015,1.8343942017889516,-0.1895273686512143,-1.952754354990877,0.02913035349149418,-1.8385104758416217,-1.4170462358464193,-1.3285999872356797,0.04373739721681584,-0.25890051610106557,-1.2797242452242326,1.2127260485231537,-0.22731228908926604,0.4845187673424724,-2.163703580614591,0.15896569542454564,-0.8438086729707525,0.3541522835759021,-0.23642841257872513,-0.2566818337818002,0.8357091498076826,1.0404748504189294,-2.3614697802978832,1.1302458218023812,0.6654632323187679,0.91413940192985,1.817190082271701,0.4464999893958402,0.12875852968787332,3.087244937713408,0.043586131818205934,-1.2907904898163995,0.5341169187037589,-0.9208885165289946,-0.07887101461185234,-1.5549761904596184,0.783118963685547,-0.23038384736375633,-0.26405282132957314,-0.1836517630228787,1.1461517308938471,0.6441099580933743,-0.36003574590951903,-0.7655181340672544,0.37059495232837375,-1.1017716132631599,-0.560054930900578,-1.6459873196684964,-0.6307177531845444,-0.876778995787644,0.30605547348794077,0.7589905040533518,-0.3394166229967548,-0.5755500183838655,0.426794352138434,-0.34791777722932615,0.7466292718925696,-0.9793073026997158,1.1944882207893095,-1.1307193324288798,0.7331622591816784,-2.209755234578387,-0.26673669772276554,0.499369069430997,-1.4666808460218603,-2.0913075004161974,1.363110895487533,-1.2638526544173951,1.2804177931831473,-0.05180903620833176,-1.0441441624991692,0.14025752710454564,-1.504894396217544,-0.3551058920215761,-0.5027949756908143,-0.23713565723961452,-1.2014973375349807,-0.5745053420110469,-0.2972126410383086,0.7531499319094718,-1.6973607264960888,0.2501950307182918,0.972051769484088,0.9061016511014253,-0.14789783756076516,0.3411179432675842,-1.0632560129520288,0.3501284083721383,0.6168108804114666,-1.042820160128942,-0.32232470900897964,-1.5512028127864168,-1.0342081989301595,-0.49720698820518855,2.008719834148072,-0.8042840543158644,0.8758684127303578,0.658184392011159,0.8480747075888446,1.1224914979430012,-1.6492925636477056,-1.2956961068853827,-0.19351905353790225,1.1066539289426454,0.2828578385903034,-1.2283645805791683,0.49568747576343014,-0.13559323422197597,0.29009914993063335,-0.07066536976023609,-0.11314992641184897,0.05117302105039498,0.9622994742392424,1.4149610138017918,0.623179258167663,0.40557464227520534,0.18510575263043705,-1.9730983700324087,-0.5084378043952951,-0.10952361251426139,-1.2053282820575113,0.1957543943176639,-0.5479133464623064,-0.40475202425676127,1.4080894207183554,-1.2640333755714346,0.7240186258125894,-0.33674139865617425,1.3510034644711197,0.8219458050377394,0.4887621138714581,0.12252783808018877,-1.8069451574532862,0.8442622697093175,-0.30932016383600924,0.6015103215848719,-0.6112023961534768,1.2990328842588332,-1.5225413956999356,-0.0313215439876678,-0.530960903863076,-0.34528277555318876,2.119607901782003,0.8114403924196427,0.6753783689164258,-0.42408674306882865,1.6042521363062785,-0.693649761531556,1.4295682941068149,-1.756013242728376,-0.4758652786070918,2.7338277878708825,-0.9273135433941654,-0.40886543588870766,0.3458994801644541,-0.3069251010568425,-1.1243127838565543,1.075261562270754,1.6071918397800948,-1.9664983380542256,-0.10545884668812774,-0.9313020310540722,-0.0026987816471546024,0.0373763902086509,-0.9192965862018544,-0.8044755643116692,-0.5357625396946861,-1.075857838100893,-1.2788259930312413,-1.2873113156509655,-1.427925382742893,1.3521036131160644,-1.46349907393243,-0.6581738181934835,-0.7522356547472694,1.2270110116858546,1.3327636146215907,-0.2202511313866497,0.9581895397381734,-1.5199754018089056,-1.6711813084492848,-0.06774037095366549,-1.581643619992743,0.21028868262811365,0.8357751677852269,1.4381348631045552,0.9747841334093431,2.1455966871283056,-0.5901031302240749,-1.9114610868020898,-0.25958294318355485,-1.0975513361157259,-0.19881984349322152,0.6029632127747777,-0.6359382231341655,-0.5223409899167948,1.4050852430332104,-0.8436504971044605,0.2820632320186115,-1.2121193477230086,1.5469838479428941,0.3313025318674192,-1.0024379086638189,-0.08726905744271564,-0.7734036616721792,-1.1094091393351133,0.08444507874762458,1.1583104818253698,-1.0528556959409008,1.1055269732084532,1.0664344216470125,0.9980543844478843,0.5685383002680867,0.2093894320771484,-0.29933633553924927,-0.1503180454653011,-0.14894375471990806,0.3258566940122197,-0.6422541117570957,-0.16085852521957528,0.6950683656257345,0.02631729000024094,-0.7103798447132753,0.7671986735632312,0.07930389355296834,-0.24640297754772017,-1.0502428448095251,0.1305726655881847,1.6076334184872139,-1.3530838515273678,-0.4207947341801556,-1.164575304743099,-1.7294885006342895,-1.4101831336518829,1.1354066354037406,-1.2983463888380864,-0.36886312387639664,0.15385696431461296,-0.5696045158230565,-0.610169359137986,0.3489083272326579,1.249792540564299,-1.4843428068722946,0.5203856366134065,0.17482257992023417,-1.014898742993477,-0.6696795771962357,1.190359503565269,0.8664566150731658,-1.2942947587834237,-0.45346442919032914,0.3272637199966133,-0.0402140846762863,0.12867419159252425,-1.0590017651969885,-0.05761351335754997,-0.38781785459632595,0.23885279040535232,2.466626337487475,0.9920318109233645,0.8032968595288594,0.5645309155096581,-1.0432424176692345,1.226321012959036,0.803776377740501,-1.2590535428228575,1.490570517311143,0.621551194645459,2.6236289401249753,-1.3828758010631752,1.3133504114044603,1.8084606418883704,2.1367778746316217,0.32828386736762927,0.12164441218489216,0.6554026247076933,-0.6986683747322866,-1.1399192671976834,0.29010682654846315,1.34519519974056,-0.9891608920155213,0.46294329713824683,-0.923901017000078,1.9815523164637574,-1.187129826976876,-0.2899614542557969,1.3694757434411389,-0.3373125773038899,-0.11719959914593606,0.01850301335297638,-0.4081097482659757,0.4323369489010469,0.6439463962957109,0.10474196784187945,0.004312433131771586,-0.0839738766856971,0.32512791630815935,1.2890380625880506,0.3375380770227945,0.947540535612158,-0.7533734101585149,1.5139670966572056,0.9894309463654628,-0.528154368698118,-1.2352035225295568,-1.4692824246452536,-0.07935907720175774,1.357730425356082,-0.5895475431747497,-1.8250137522546626,-0.4112660082248278,0.5934844046720996,-1.234411779196512,0.4708363506965634,0.09265634662616586,0.0436505990909583,-0.6897491513733223,0.7125804189527374,0.6061904644924172,-0.6930589222853405,-0.5027667419443858,-0.8104478352515948,0.7577034127481072,1.4448370232736598,-1.6203292174200252,-0.7113836863737436,-0.10370381545497433,1.7712692304973503,0.23435150031896942,0.9668078469235442,-0.31143897355276334,-0.005898473404116402,0.24735433612136964,1.2426097171143589,-0.48107880450065876,0.4355281285142827,0.13102345514256183,2.315093694330139,-0.8386426214231973,0.7603541727861266,-0.4701691857508508,0.6596279176265688,0.13305281411913913,-1.3087379433240387,-0.20230935339736242,-0.7888060798500229,-0.1979135702147715,-0.3021283940736888,0.06590732816048955,0.2789876028110804,-0.8935134219618551,0.06838491504827862,0.046721876192935295,-1.1420493803205263,-1.8463514142121722,1.250053003745116,-0.38905097669544353,-0.9727349736540456,1.4014100799513989,0.8149129425705437,1.277711979295468,-0.7313280534442201,1.7389760436087127,1.9492704019323952,2.0407481127508853,0.8232732695222371,1.2803785295770147,1.4009978809356205,-0.9610114152485061,0.08501460705470983,-1.315015343768023,-0.0576162866879976,0.5278692913665842,-0.038493618257924946,0.954549358636001,0.23929220315389757,-0.041795399754793953,0.32272307535051664,-0.49613075882308244,-1.8341823662775913,0.6709118020329037,-1.7585872387931654,-1.0553169205652644,-1.008530676473475,0.6430601360244674,-1.6929678592397306,0.45392478440786294,-0.04409301051017464,-0.06880476964738316,1.832283793742598,-0.25264907492792094,-0.25105486217196277,0.9833612525491254,1.880641750530613,0.6743073114309384,2.171223423998171,0.15078168158634014,-0.7474623400627827,0.8839408596953912,0.7384493406792304,1.1651152096443436,1.6776717791552742,0.1961237560814985,0.10875699115723558,-0.2692011431871419,0.07650339659795158,-0.5594343331719552,0.17746460558556207,0.9618227920316842,0.06962908488059649,1.5754405382266108,1.3417796539221043,-0.76077754399792,1.0393372267078427,0.48226624283723596,1.8947765004694543,0.28665849840760393,0.9709577338918546,-1.3006684848657117,0.862264434766343,0.04843533765795729,1.71238092801567,3.237241413340139,1.6579706488083323,-0.04619130999860788,1.9873894400495646,1.5565287408904165,1.5827723981928727,-0.7319688670406814,-0.11486235683486712,1.3858526574337517,0.11811509673767125,1.3494994102944524,1.2775171424815743,-1.2249538989373487,1.5309509663076977,-1.421295795455039,-0.2501850498424388,0.7199559614592702,-1.223399581037005,-0.5785645137605748,2.6744293488062723,0.8104155321168776,-1.3984376842161161,0.6588897231283412,1.256974020430762,0.7189942157494653,1.3831286533684108,-0.6420173218633399,-0.9534559110941677,0.11851068421109369,-1.157082246798535,0.4601137410782843,-0.07603740917996893,0.404536255838107,-0.7356315111484595,-1.421468473511809,-0.865671062396605,-0.2757148264507757,0.01890819176359917,-0.02352506804025239,0.4555124935917106,-1.6594889042317678,0.8269170252165984,0.13565958082723137,-0.7035446548497599,-0.19387859847008293,-0.6766150526485732,2.320975366834821,0.4368695488354934,-1.1623837481292403,-0.18166047904634972,0.4359234643326842,-1.5046965832321277,0.6044846710896199,-0.3144509743473458,0.5648342142654453,0.07156974712537638,-0.220043580297776,-0.31366895644580384,-1.033709318952452,-1.0994380239848827,0.25333247975487,1.533280342667577,-0.17502402536600808,-0.9733639557982876,-0.7550280288421192,-1.088232265347578,-0.39462679358535724,1.139584907310605,1.3306583396470066,1.1123254517636554,-0.7178127879765575,0.2022811686300856,0.8494329912965047,2.2621075652796008,-0.6895846638976241,-0.8531515240629733,-0.8848349537025356,-1.0323074902721818,-2.905884443558985,0.12434600531808089,-0.0962278141628547,1.0794682461271217,2.254582638789966,1.0854872408435237,-1.0838877670222058,-0.9391206910429795,0.5474474485879103,0.4712562429635663,-1.5676577407578318,-1.4813773492418745,-1.8611091433731253,-0.15716502409492322,-1.497858159024304,-0.8482855981745391,-0.17992187732621867,-1.1103623037691852,-1.9759687227342528,1.2848251256103558,0.17418181245003767,-0.005678287404887951,-0.5810631920963799,-3.023937999291393,-0.11078939719195872,-0.815630118611737,-0.4464579614306014,-0.8885344195543929,0.5112253221584296,-1.821483582735107,-0.2679522116449291,0.04246758069109803,0.23048772353670524,0.05508702500032725,1.1995964735159619,-1.7136409331247913,-0.7642593194251888,-0.5465913561693337,-0.49205058865700774,-0.21216129809127238,1.2424263429085927,1.0447695724794468,-0.9029470949115613,-1.1836578205197388,-0.9506429652707049,-1.7307467082438863,-0.36958510507686554,0.1111843245484958,1.8513128802156884,-0.8296990292285192,-0.09226154837172997,-1.4056532201144916,-0.19308057855962535,0.21025966901362497,-0.894674414072584,-0.7656792283458722,-1.3115313708349696,-1.9560310244307415,-1.044727235117454,0.4072350147337452,0.24825026811887344,0.7924852324145409,-0.8122178702248719,-0.9539070498620069,1.2226257202727266,-0.29340182314927327,-1.1941894944833387,0.75089505590428,-0.8645723245550314,-1.215353242146959,-0.07996611973475433,-0.5236954502036648,0.5968495060362228,-0.5000453999036089,0.10551495094840285,2.019155286599615,0.23236382514024947,-0.21859742305814292,0.5421101109594096,0.6049655732466104,-2.648404991041328,-1.967006186753473,0.49108728726979944,-0.899063273417153,-2.0921076711505417,-2.0679376107219154,-1.3054175483504347,-1.8953167663330908,1.205461663408625,1.4653124460404463,1.1676265511151815,0.6892621736009822,0.41227074833392213,-0.8351381627017931,1.646788732781555,0.2561450279988632,-0.23960841122718232,-0.41490468032739763,-1.139967379012615,-2.188232842950693,-0.5623528714013973,-0.9803851587684637,-0.7798204861928,0.8576523859155077,1.3604199341679635,-1.0845296964852493,-1.0062837206905102,-1.025443605285286,-1.5508225443915291,-1.7363086272568131,-1.8944751586364954,-1.0305539488055036,-2.574885363183707,-0.46702151964359295,-2.2877711140383465,-1.6426920001929979,1.3184513867382022,0.827631708664364,-1.0613842971636789,-0.568178980169394,-0.6602051397139281,1.5835924192637094,0.8842285000265598,0.3132148357404125,1.1711499159487104,1.786983897197774,-0.31275148173874273,-0.10406343667787496,0.9174760470437523,0.23070335823915042,-0.35321558987922397,-1.971183194611056,0.8549392080537098,-2.0620718347306575,-0.8806029971546707,-0.9325884916171054,-0.05236001464135018,-2.745892150095229,-2.2750538557851145,-0.415210492389249,-0.6461666902567264,0.43470264737676007,0.5062858780686428,-1.137966165142156,0.04840010509177932,0.8856422838915545,-0.2010031493495173,1.0872829125219057,0.25875395207240953,-0.43316706357403334,0.555745086639796,0.2960906091001554,-0.24627226668279995,0.31468182310292814,0.9293610444182719,0.2141151072424365,-1.1166880821854275,3.275399650183861,-0.4534079500704504,0.35633407879738643,2.3147543344645958,0.47642706947547525,1.615083161391463,-1.622616309494945,-0.24050866035679364,-0.5538103523780843,-0.6930757055240919,-0.7687285198003977,-1.0000830245581314,1.1780525282533763,-0.8707843275405265,-1.664876231660791,0.3772351562655485,1.2127769505266177,0.6216803224720562,-2.2736530892164044,-1.112039486959048,-1.0783860899989408,0.40638126650087336,0.2278572007254281,-1.702551121349552,1.3375106500046063,1.4483356553360185,0.39283668894923107,0.9331663387479069,-0.6099704856651864,-1.8707995822910177,0.6588462647049881,-0.12145752497190064,-0.27448462942639484,-0.9148929911646977,0.39839336198892683,-1.749322266533022,0.04669405759841562,0.9026489289280102,-0.6090276945297578,-0.22792444071359627,1.1927109575835833,-1.3156415524211542,-0.07681098648536196,1.7444353399889974,-0.9049053163192949,1.8006394877585783,-0.5623631662661748,0.5372217799297136,-2.0191463117286705,0.3217002092353849,-0.7353953264363279,1.243535567217923,0.8935275012968579,2.2297976814547713,0.22552432874409142,1.1003301999968662,1.9335029435339195,-0.5928623829855723,0.13595569834255505,-0.09230274388203923,0.7859258978253151,-0.3242260330882107,0.3355802987181746,0.11382038656356211,-0.6065401973519366,1.0675621344440835,1.3196915045475144,-0.3587554122397655,-1.1343726621060095,2.294875905216996,-0.8727668317571522,-0.15523405681318636,0.06189078552550937,-0.8657615202222849,0.5538553420910627,-2.894453436007088,2.169289251955296,0.8746335798205203,-0.5404536483225373,1.076335479187456,0.4937080332831516,2.020187066222961,0.9129880341824462,0.7139650006281992,-0.18953004177221977,-1.085925754554518,-1.035721716086788,-0.10229558807124033,1.6437567122697756,-0.461950420271012,0.049004680281915854,0.24760711014003794,1.7299269505648094,1.7185514612584787,-0.5983898297901651,1.1574127623181087,1.0833432969562455,0.853288394107204,-1.1690278105666518,-0.6888438610998927,-1.7845502464944287,-1.664485958066721,-3.3368815240508427,-0.8787695242838242,-0.3481349308512294,0.5420762506308663,0.959075265696338,0.3748892472870121,0.9383948575455271,0.9283312765878095,-0.07322609232082505,0.3594353247886586,0.4154328220974966,1.077735966170685,0.7737942397275678,0.9397105155400108,-1.0445166915527606,0.19459202898607972,0.018092422100511787,2.3379594410991564,1.0870739857977927,-1.0648531198558104,0.07441932277285818,2.2040150098110804,0.5924272097609397,-0.8890683424327063,-1.6603498133087395,-1.5407955334635788,0.4583409622554786,0.35418395523973045,1.0337865891957316,1.21948785426998,0.7883291764208983,1.3430516600838573,-0.07736346757965198,3.090072642939227,2.322695338466421,-0.7058146302546892,3.015844581779972,1.4327458664969626,-1.1635052021906875,1.6892584973507117,0.2941876086796582,0.4698956937629143,-2.0599674358617457,0.3189928001050106,0.09083040033176837,1.695259446682568,-0.2071269676146976,-0.1473860874533887,1.0754869321941056,0.5087196098581817,1.7705042317984732,0.3854115625527102,0.6212892127823079,1.3988550325877798,1.2489536366275025,-0.19968955004629174,0.3963334175265572,1.213051689161083,-1.5402029719837034,2.6035311870165176,0.5073156674589692,0.11258259802950951,-0.050833260533547156,0.08658233089790908,-1.1714664119511309,-0.7551694258533144,0.4295589581490448,-1.477672125776637,1.8890691108926834,-1.6954104930825094,-0.4590473309077876,1.3679573633557838,0.48235732776304613,1.1319430642686532,-0.14802808997480363,-0.16656431652262463,0.4393549943421894,1.0812870010516695,0.08138180952348947,-0.8387239758049118,-0.4751688249958172,0.17555173264699597,0.5269975903017192,2.4622854049268565,0.3533487841739864,-0.28589320347786634,0.9339093552163579,0.29731877133542134,0.05664327325394412,2.1293801913077246,-1.761435161255661,-0.2703770219370343,0.974038860093843,0.9592578687306138,-0.6642798637100815,0.8529896448579232,0.08853686886873684,1.0513707132433503,0.1354227075354608,0.8266455006236714,0.03507522171744087,1.2960955781565353,1.623029301776639,0.47573207120531424,0.152494127951585,0.03555418643093362,0.9155900414494933,0.9968458526702122,0.25508950228944716,0.17981980396212174,-0.027062143874281786,0.23837436292328218,1.4793727297849055,-0.15570800465684048,1.7626941395989106,1.9638356792251241,-0.7483547342420516,1.063463920673198,-0.7870635730713432,1.405543361089582,-0.1912123093894468,0.41963260970980026,-1.5897567565727195,-0.35874562363178014,0.673222263274572,-1.0836335421733283,-0.4678704090202444,1.9443522305695815,-0.34780760950680717,-1.9355806834160678,-0.3959480068824537,0.8654133320019981,1.59232625001413,2.1404297555481877,0.17906810319687338,-0.43343958707536334,-1.0898736123445742,-0.2843979211141959,-0.4925459386835686,-0.10496691782406826,0.14685935803690586,-2.436560534255145,1.265923908113825,0.17321751477198538,0.9803949672172406,0.7474980944959453,-0.6441716599368201,-1.322940005026363,-0.14669668120501636,0.6243667587952424,-1.2729548273321718,0.11754575475879378,-0.5292078355909137,-1.0145921897185404,0.3735565145971195,1.6931415676448713,2.1647113717872903,0.7857012193470908,-0.05629044685040562,0.738377811597486,-0.6439757056765381,0.8790178625891487,0.9116725298159684,0.9966810727654662,1.1635790900029372,-1.1614387857187152,1.4316051780308912,1.0137303408775926,1.334756716896767,-0.9095633927325637,-0.14105827293547774,-0.1534252225232188,-1.5003112058072439,-0.26354211926787696,-2.056830707297214,0.18302317853742736,-0.5131624315372146,0.02548759554327944,1.739966014218606,-0.4500176184101644,-0.8895296343697139,0.10269317165066326,-1.307086039075077,0.5586192105154832,1.5054801162118627,-0.5938581375120121,-0.19579767337309625,2.0982946190043417,-0.6848845138226357,-0.06008943128677554,0.8072336544094058,0.3776659811102553,-0.13134715313103798,0.09529156624844196,1.4801042007902845,-0.5488511631641722,2.2777803994290418,0.40879587524341965,0.1427197708363206,-0.5363581330348346,-0.2537474170127249,-1.9387285324102228,1.201328497702461,-0.9511236713860329,-0.6113059340268012,0.8677004916169048,1.5288296797877863,0.0784844288407461,0.5485463624647008,-0.4128574572575569,0.5856122464066695,-1.1957518821764153,1.325769607753958,0.5963290502645225,1.7143088116154168,1.2211502304202269,1.462340919223686,2.499850527917812,-1.3526388263618643,0.41736341337851357,-0.6289694879804685,0.12449489485596218,-0.6342648945191651,0.17977295262696097,0.12099784106228746,0.16758935457457236,-2.0863237712501173,-0.7502543155552949,-1.8175556788874687,0.5411315726807115,-0.8065606507484695,-0.581697124444546,-1.0047288036687825,-0.8244708050879797,0.7679100855447084,-0.4704092309511152,0.012135142604203656,0.28496166558165775,-0.663203960040254,0.45903768807566636,0.22433662097118567,0.27389364526187354,0.9382782331747401,0.5117256913474006,0.24243917768048862,-0.5515401314666196,-0.6598954497374837,-0.06765254933355404,0.8328244538633287,0.4183238385490003,-0.6515044727141996,1.0279845193048207,1.1133308644564832,1.6338391074742207,-0.6337997961997621,-1.286621529152489,-0.8380936092379571,0.2869687286687797,-1.5000735004195906,-0.0774109648768665,-1.5482860619862928,2.7053757795620283,0.21405328529715634,-0.727210755453272,-0.06824679853129502,-0.7292628941470612,0.13726157301358843,-0.616501109925391,0.16930940551503817,0.5420192183393846,-0.7151211352433742,0.4966973629874156,0.946406263615121,1.565668139199614,0.5086491197756711,1.118391126841019,0.34348619445877304,-0.8322570131718926,0.9366436766395719,-0.5599630976062284,-0.36511324618026403,-0.6962282565629785,1.0700652440615892,-0.7809337477590319,-0.762647589421575,0.7821026615643397,-0.6841208865294935,0.04496340112977249,-0.5478651323281344,-0.4932098188944214,-1.2539516250888172,-0.851519409010562,-1.490687410833211,-0.032886208814345556,0.06446470535695245,-0.4213509658682062,-0.6512573364363752,-0.6140981906800942,0.27251465902537725,-0.7085423846187723,0.747860352744512,0.28001412800496567,0.3418659081053894,-0.09760182085790246,-0.5511419725437651,0.9839531499757979,-0.5773699133928428,-0.08594661330031644,-1.8085850298677595,-1.9110147696767177,0.05605639523070474,0.15175823002627348,0.7913645692669635,-0.6959673903341143,0.8209255130442281,0.8987835029390882,-0.6902573722550434,-0.04563275265964325,-1.667066122694841,0.09754949919259326,-0.7460400983255366,-1.0363549175669002,0.9286360597297707,0.6739483110746183,3.0328091262590307,0.26306209292818017,0.15867263787208363,0.26454668564364775,-0.5086252985518036,0.8825069953607908,0.07015022089157051,1.219299238849872,-1.36578590480781,-0.09148606001427477,0.3365116090461197,0.27751388543564187,1.1050746482062062,1.1938731157996327,-1.6066169759437188,-0.047822097929061294,0.4075999938756338,1.3185013804397123,-2.980244093519651,0.5122202392026731,0.872990233039821,-0.06884594273581046,-1.268159892471506,0.19663332523325286,0.7525208204228595,-0.40008774938396163,0.11177538086048974,0.1693346357061902,-0.06829320160217409,-0.7980530688685114,-1.0679576172088665,0.4951312917285457,0.7306819627859044,0.22686065151410625,0.5710917087436309,0.6030357202202682,1.0603555430794918,-0.34536133260623775,-0.045034938562375955,-1.1623501554492492,1.4160352445573543,-0.835356331805347,0.7094479980767401,0.1287186726098849,-0.4861072720421011,0.7522810704770914,2.2689103867089018,0.34927906344782544,0.11219614395260885,-1.259497430475193,1.1492897930526662,-0.6133510025615397,-0.5859598246135866,-1.5830255038826233,-0.6744150609481272,1.0524287741134304,-0.3786015384433308,1.3505616126121665,2.9909585114877855,1.2582859587492017,0.42897216090950924,0.26590317527681917,1.2081493427686893,0.7143006554556236,1.8127133739846617,0.27356137633113636,-0.6953753413212734,-0.4464946866506904,-1.0559486915310792,0.12129153382801011,0.5963559421981205,-0.7022774114933413,-0.33693586087435845,0.9505749766920758,-0.9502529628209212,0.41148409313340156,-0.5164043782150112,1.0260879091244766,-1.4500574447835641,-2.176369740819944,-1.6426861866426388,1.7019408584006546,-0.2287734540271495,0.7903597375489257,-0.22165060541457582,-0.1235303817887052,1.9502683957504168,0.5349484967900429,0.465691397825079,0.1406457221015335,0.6845786080667073,-0.9343095351223297,-0.03504128624545479,1.0660404197932278,1.6836406112408933,1.3331745294347144,3.5466533005775283,-0.6331457723114866,-0.5479580384663566,1.0216084796479108,0.823822875133481,1.3373865526655027,-0.1434083141634508,-0.2861386545530337,0.5157538862813555,0.560191520419174,-0.6689520422410562,0.5113054074966532,1.3113800888190248,0.5084097553859211,1.680954281599385,-0.3000665282291778,0.8886579855780525,0.16807056864606457,1.8819171696548764,1.357067568963814,1.592680330960181,1.2405116960360059,2.409477132713372,0.672374929583656,1.4738990135418442,0.6000238031663416,0.09728111251031107,-1.6737787671894868,0.1464537082320105,-0.16291999374902838,1.6264007564582317,-1.6106513247429892,0.4137500025876059,-1.5634052882137608,-2.8901497325325067,-0.7520419091076753,-0.7903347464423889,0.5914260863375436,0.4382259555457281,-0.4171873208182665,-0.29350102477712586,1.0436854649089402,-0.5387075632919358,0.36071024412388264,0.2602075400510704,1.3645071110915228,1.170996026475422,0.9699195820068713,-0.36395570689765344,1.8305858273422668,0.11186823718754435,-1.4393663106550278,-0.9557684291911543,0.06974650941686068,-0.1614105638058878,0.2502505316257086,-0.5099057013130992,0.27039345758734495,1.2529385107837692,-1.698994794739953,1.8519831213562101,2.3579714975166595,-0.7885226422844295,-0.10069959428873144,-1.3309253823656342,0.38004385343726543,1.2381540097829609,-0.25957775629815544,1.554811443939647,1.9195628024909972,0.8201936718358691,0.6235207355202381,1.4012343706953714,-0.16550097888917062,0.4555323365545788,3.4004328726764337,0.9089815489487741,0.7545084926374955,2.5222411408003578,0.1967062047265149,-0.39415693669416013,-0.6815213839714671,0.3337354876244767,-1.6295165092126256,1.3240408107308013,-0.021903121262661845,-0.2797099382262567,1.1139402884269025,-0.5746640606367188,-1.256441405969136,0.4938778743678187,-0.08327967536746854,-0.034879317187026075,-0.38018792383837097,1.767272161633318,0.16402984640775245,2.08226544236578,1.7533904371279923,0.385311816594498,-1.8166204974072522,-0.928126798215316,1.2832951060443878,1.748331764308664,0.015480242693699785,0.158942968507632,0.39393319021602125,0.33519287839114115,1.2177736988320758,1.5266906096557975,1.6444375757719911,1.3530721440071207,0.23166955511559523,1.2293423917680348,0.6520876111118177,0.012066019480847828,0.6671898869560634,0.8605243851278717,1.2763078570082278,-0.2145789052371528,1.1912989100540652,-0.23025623797361514,-0.03788146173401435,0.3741027883577243,0.12687931553217666,-0.20526715749377572,-0.5259788959041187,-1.6435469825149873,-1.1511786520222995,0.8831370688994685,-0.29915758384065244,1.9586308493668374,1.540637468292002,0.7825907743814411,0.1064343941320188,0.3484742377525369,-0.2837776942090552,0.13483144633586838,0.15039041396521968,-0.3659782266366919,0.6296132673003357,1.0131270550518876,2.2175676622828107,2.230163793593682,1.5361457315962617,1.8070503473099897,0.7836154788664668,-0.35790653044664683,0.2567353024380733,-0.9030727047852104,1.5237777431733563,-0.8940878146682847,1.2528140056838841,1.92169866736009,0.240013547309518,0.08961931361482793,0.9158323983938501,-1.6149507538015375,-1.7929060952789673,1.223802052035769,-2.275921352951093,1.0685623139733957,-0.7217276759869103,-0.737806511764097,0.482866813682854,-0.040033449013294316,1.4766273290728098,0.5147555681731454,2.8552540635691734,1.320854772622934,1.1781355014261,0.9249635845500453,-0.05385957527244692,-0.01611645935458067,0.3367313176082976,0.007904267121834794,-0.710887145514208,0.3068496024004915,-0.19632828117907564,-0.30762688429789886,0.8899067875136772,0.10419283576184056,1.036979588984865,-0.04981918080535472,-0.8658638008194552,1.0584293849299868,-0.0727220975595823,-0.9298443215645028,-2.210223507140957,0.4003311973903481,-1.5583404890660157,-1.9703461440832202,0.5038765678183241,-0.0924941654995967,-2.2425892974715156,-1.6496254786435085,-0.6529660436263083,-0.21176834187809784,0.5660575388103485,0.45471849561501754,1.1623446042540382,0.6339151929369766,-1.2369758336326984,-2.2830568761283225,-1.0856675040355113,1.055290402074508,-0.22249198569281883,0.06474762412106981,-1.4847879463816147,2.598475817896817,-0.3298819834997969,-0.1289413238528588,0.07817141747031815,-2.508140569525883,-0.7281495804187278,-2.678085110534257,1.1193014901636307,-0.8771751270843738,0.9223975624302714,-0.6797331706391512,-2.8151206461135785,-1.0214766660747459,-0.21883584949489657,-1.4984858075291185,-2.6385505154015836,-1.6320056267538987,-1.1366256659033656,-0.014738870854205104,-0.6635295495654451,-1.0035073591620438,-0.6031429707565167,-0.8369931892804198,1.005914447078868,-2.4835898668867005,0.9279797955331028,1.537460815277213,-0.13327532650439206,-0.16408949810951326,7.411317421029755E-4,0.7996645466030591,-0.32264246534199204,-1.8061551321899494,-0.3351855329099474,-1.5735404396996489,-1.6181306634503807,-0.7079922419542423,0.009610675119873503,0.828661858225932,-1.7863830441784938,-2.13786251478089,-1.6885263792173335,-2.1149935094245924,-1.8846445595557515,-0.8762479587329771,-0.6389666541663398,-0.2751406319952376,-2.2545275546132606,1.150137186186672,-0.9492946147785642,-0.620496424187745,-0.5014659271777596,0.4303599330035083,-0.8333646387765331,-0.5632323898096584,-0.7364835204132945,-1.0157701494046603,0.6449550652659064,-0.5249747124473606,-0.14425734620849595,-0.21293324376261138,-0.02477468150398592,-0.07368368547278807,-0.49471622068785537,0.014743693504733804,0.6848093410723647,-1.275118620235352,-0.4071793368000008,-1.733647718584452,-0.4114266947016131,-0.5000619673089853,-1.2918072618236884,-1.2167303266818856,-2.8985200431268714,-1.5784106728380827,-0.5778190178431537,0.602143147212675,0.5824478297306974,0.5203290032447055,-0.36304832640918727,0.7975631033260764,-0.5072980885352166,1.29608650025219,-0.10040769155842065,0.7595789700327688,-0.8798827250209411,0.3956849716935065,0.2514417575891131,-1.0861459625261065,1.1383386863676765,-0.555981365063,-3.0189741587241663,0.775623790775819,-0.32766950651583665,-0.32309091529562084,-0.6095495348239477,-1.057633408113561,-0.258240573179108,-1.7981457983419427,-1.1733642487474036,-1.7628546333039838,-0.1372991267865462,-2.266247371038995,-1.7875917339337795,1.3168406035314264,0.7798648612247848,0.5116771138501516,0.5092609912579362,0.6303137133162232,0.4611912479088129,0.15861301628171312,0.7812429162549398,0.3057108509517008,0.4333563600223268,-0.7333144741711983,-0.5550502475719004,-0.13937821557527233,-1.6412719354283098,-0.35812397228241627,-0.2373360950598544,-1.716923352467988,0.11652662428362023,-1.6983919654626116,-2.1041461339897394,-0.8876287148881862,-1.036295687725961,0.19909528267251395,-0.36192382112149896,-1.0839802039285782,-1.7243673797421444,-0.31014169207322356,0.6221068926998237,-0.24212224182947864,-0.5730946347892003,0.5518443877599816,1.3598827122556265,0.18288636691451507,-0.970754274765453,1.811096625550922,-2.0756383680007113,0.8161161161270777,-1.1806778833289453,-0.6533950823880332,-1.403768784884428,0.8065772963002291,1.0028656706930945,-0.9586951665497566,-0.9041533247386647,-2.2421976088085467,0.4806894859391209,-0.4182239013952556,-0.8935475866226856,-0.8583295573501888,-1.1905889554904086,-0.06268036776705578,1.4062648185659672,0.48037922266709465,0.647998071222059,0.6401289257782308,0.017681801870090223,-0.28170652472154,-0.21288355385426444,-1.3288960730493913,-0.6688411945744303,-1.4302162160565437,-0.2791515660128178,0.9987404412105784,0.1133798876256935,-0.02662458260086107,-0.2584818666357769,-0.568995294002851,0.31193468598739665,0.033985573725354504,1.7384743948861991,0.8854629882670507,-0.4773008908005172,0.8311476569280138,-1.6123473244087463,-0.8524209734971576,-0.4852927336635078,-1.5108025327721941,0.22762479593879176,-0.07157326730650311,1.057072096324447,0.689552924027452,0.5507265413883502,1.4816737489080427,0.23495486187797254,0.023201234028916645,2.961114062292481,0.2835909033551231,-0.539107397124092,1.2753077970719986,0.8750864043496184,1.276194590945154,0.5674249175637058,0.3186477030867879,1.767292502714357,-1.124716748724231,0.5550092101116693,1.9986330539795751,0.670555188230941,0.3480848524766132,1.9568039684841771,-0.3984054628919665,-1.5130757868984313,-0.3795584035330942,-0.2505024502359812,-0.3594379179144677,1.096546840196123,-0.3020036059151606,0.31850611906131665,-0.7072993056634252,0.0062515349736768444,0.1890771604659347,-1.7188281666544845,-0.26483013394687643,0.8658178269445889,-1.5348816468709032,1.668988751252361,0.1739693946230877,1.2430537024052632,-0.8865993479108654,0.004794135277398204,-0.07583161351396793,0.7185421766450394,1.6480249000976344,-1.8428347553313384,0.07798300338027614,1.920707614246863,0.12797140884007718,1.2521094255016145,2.5438355892632876,0.6522942881469129,0.39402807399543577,1.0756000084814108,0.29047107686430856,-0.18247422573480024,1.4842688257192493,0.6544864322140868,-2.659210791520295,2.981779903117155,-0.4631820039337679,0.29995179455122506,1.0081936292717122,-1.2045843067512338,0.34111063879891357,1.1005143118094594,0.5838465406907124,0.4247899083268143,0.22085919057416994,-0.5728303574587806,-0.4427007676225612,1.1382902612688326,-0.5533640317981471,0.5768510272899572,1.3797681267382575,2.267456219484215,1.8136378025404685,0.47090411401646254,-0.09121993648035868,2.4674639785181323,0.09052647653794516,1.1975606358647193,0.6284318629037872,0.38088139648165836,-1.4750891303928748,0.747326110008535,-1.4156525833115041,-2.0290142099293833,0.2520829039287609,-0.989863046069574,0.5140135636989426,0.5867486161245973,-0.04654093675127683,1.16268066423594,-0.6392270673120684,0.47816964700646936,-0.2730179306750659,-1.506899217614643,0.2642337275788003,-1.8383392922817785,0.21180588602082526,-0.349860562312489,0.08690572191537445,-1.9344251953133196,1.3150723318546433,-0.23287331345160409,0.13224339284930778,1.853027127749425,0.6199969706759416,0.9840273000435135,-0.2678754551765049,-0.0686731538772293,1.8587960069008513,2.405172149387123,0.6835812091430069,1.49006160141892,-0.009810965556829823,1.9164950773219247,0.25167014889809275,-0.385366602959127,1.0505015504144144,0.2732569603950004,1.5988009073357992,0.7615101629533786,0.03114286025967866,1.3342013962437396,-0.08302101421958571,0.8258678638232049,-0.4824792150306765,-0.8962576144973416,1.1250764732243022,1.062009431492943,1.9737664337125114,1.8655335092912828,0.5665819208829609,-1.6025840799515254,-0.8844206355005103,0.9807936926310599,-1.0557116104731183,1.966781618615638,1.0269950826697458,0.8579830878821041,-0.1516111267220312,-0.31434936484923987,-0.7689576506247943,-0.35047547121352,-1.1009713185204884,-0.9455830795050615,0.13634444916786115,-0.41547344073178333,0.6690771486219901,-0.47571607730532955,0.07441190864130333,0.9275702465390124,-1.4462852789976564,-1.5440673530930524,-0.008255783355821436,0.17331380351345418,1.5233832032210006,1.2609799477495205,1.7900481026534434,2.452148116535058,0.03790770797708854,-0.10663512293513636,0.7443045839874938,-0.7704518701443686,1.4694651462543287,1.1297576796259794,0.47799024478934815,1.1625398156196982,1.2377486940341438,0.3588716623563717,-0.08445635410660592,0.6030469666154992,0.6064888811434784,-0.336620875547147,-1.3846769015567562,-0.9992686477103928,-0.523608531006137,0.0402094972978616,-1.441772839998118,0.5987097528645295,-0.35665650003404503,-0.061879958728289296,0.9369415451920192,0.845540049889835,-1.0212411025275003,1.5242726594898006,-0.6739211770043902,-0.8111796309407995,0.481432162473202,1.1873895554690304,1.6026165422733947,-0.49040546780784616,1.101390881334602,0.5922966806989487,0.603758304307568,1.7436106084337364,0.8308791570114706,0.5444725390797432,0.47828382021970434,0.6909745436968464,0.5778502114273432,-1.3058681021300318,0.62156082332087,-0.13401592757952835,-0.6025520562769202,-1.550769645045016,-1.1510566937552247,-2.070469131923839,-0.07123216558268249,1.7644518861242873,0.47219600280185786,-0.606739320263943,1.2413912459252783,-0.7692997630392565,0.431073460854122,-0.2340142973739076,0.996218619264619,-2.0007185603331674,-0.20821146877511607,0.8826852641155553,-1.4911279246924125,-1.8623919173821064,-0.6876119833092441,0.10798758266339377,1.5454819937540671,-0.23261527029149814,0.28501377099642156,0.6779934094845917,0.6567483309420258,0.29127298744294744,0.8086715225338523,-0.5475240669512695,-0.31134696123488287,0.9853483053577945,-0.3908181212194835,0.4878222466179647,0.9864604907742094,-0.6388712758472489,0.6208590197587807,0.9892355656384609,-0.4551522169491128,-1.3063966928598714,0.6001707428843305,-1.5844003325902176,0.49476540533718744,-0.43890037638892504,-1.0690352834497914,-0.03209005995751308,-1.2106354938857904,0.3038711833052926,1.1486229070220648,-0.5932188392366213,-1.134159846211408,0.0643176803446334,1.141670169872089,-0.9277143536359366,1.8659563929763312,0.06335481521068695,-1.667805540529538,0.8073827004016946,0.2072762713188679,-1.0871331161976676,-0.2818386709090075,1.0310230305118222,-0.009723445664767918,0.9002332634501564,-0.12255373882913696,-0.13377955778310954,0.17027089442381207,1.0501225878549243,0.4476486986979425,-0.267979216999712,0.28958019654546924,-0.22000590733042194,-0.39319364458924255,0.5368909707326486,0.2946034008820556,-0.39738842172959454,-0.9323487185583993,0.6158644097069108,0.7007955447677918,0.12049867654783104,-0.22464706765346587,1.92447712328652,-0.31368834665569023,-0.6566307219262054,0.5430180148985077,0.6569943631766975,-1.5711789786565318,-0.39964578078586943,-0.13583734254175053,-0.9327779526479133,1.253896123741304,-0.8562858683092346,-1.1259149941282678,-0.7132037955887556,0.32213489388365835,0.7118441446091294,2.7960097755225366,-0.742396357029575,0.17551918598997612,-0.9268838936225702,0.48190636170071754,0.4966280209448007,0.7589083711136162,-0.8092646146444636,-0.6799249392911267,1.019432256142327,-1.8878203213417704,-1.622918421081179,0.9149064339289537,-1.0317872437444284,0.9152083530357791,-1.789289501655163,-0.659813676156946,-0.689620820270176,0.28586816681517724,1.5927203412432518,0.6778092265885797,-0.6188304390865846,1.4818927872568604,-0.7884943728717544,-1.3136444941918046,-0.9717859903858278,-0.40509656507135994,1.6708797495905592,0.2670011412647524,-2.040250256980543,1.7840835423965165,-1.4402923427014858,0.01738225143119752,0.14080517714606539,-1.265079873425988,-2.81376517926226,-1.2592786756869512,-0.576168716727645,0.1747572502181899,-0.9384040602157969,0.5087061089944291,-0.7941054899629197,0.8761156392018382,-0.9211125600195358,0.523059304408272,-0.39572326468214614,-2.4082750372679063,1.3346089268295573,-0.06409337193414212,-1.388303617620569,-0.6370540366126562,-0.3441633371737584,0.35877451423471884,-0.9463879408787137,-0.7697404522546221,0.18062961544190534,0.8970376427934275,-1.8554689823749968,-1.3310328986818767,0.899195474668185,-1.7197508665045704,-0.5279068758921329,1.0573007400546504,-0.428725420903133,-0.21226982172482592,0.2658488804548354,1.8327384429746465,-0.18805259928297643,0.7179915562836723,1.111431447086643,-0.77332521337393,0.36551415878452875,-1.7848355637704518,-0.32881456345545146,1.1389246969337705,-0.6798449216983704,1.8480837711095774,-1.1694228257445847,1.1162277912682568,0.2397176170153166,0.7822811491852334,-0.4867892550200066,2.6223120326673817,1.549529140219094,-0.34906600280056055,-1.7035358930078157,-1.1809959178623477,-1.209073151809057,-1.8222558276219312,-2.1481020386045007,0.6656396964062543,-1.446569484754773,0.7718009610358918,-0.5424361546909475,0.3820969608303964,2.8049913673949187,0.17270639672629104,0.8034345639783882,1.9505242558640232,-1.1940582575287333,1.3310187568835032,1.0976333869226844,0.548243031386317,-0.06425948386128909,0.8085345843250271,0.9668405909569784,-0.6347253115051552,0.5414387065672907,-0.23758417129562634,0.3515773071448526,0.4051893182354419,1.8217460374918355,0.6444445968263064,-1.0314261565350447,0.1902056657684726,0.3955968328829635,-0.6839959188294307,-0.5912544742181695,-0.5123221383309644,-0.1004529858488733,0.21841921848579057,1.1116322417439275,0.1716313232252074,-0.8386767944555245,0.17983764131247526,2.1593828525949403,-2.1834044206577543,0.33677606166541635,0.30909957356235884,-1.4454127686906604,0.6304457199878223,-2.427634745198885,-0.4811823504208879,-0.08197055031279417,0.10041129346835417,0.8879659058550515,-0.20153184431061014,0.2881939434320014,0.30366799642968484,0.6267160060762773,0.23966168300399934,0.2989386038595075,0.18905965708389486,-0.05726960224194787,0.23193978664221754,1.164142311162498,0.8076322588958874,0.8843123197901579,1.5018391433119205,1.0711905267770299,0.6119784812830373,1.320982996546623,-0.12359108337593272,1.1795367682835463,-0.18090895184381015,1.0999084565498956,-0.21279299694254503,0.5543568010255217,1.1979645104669427,0.11028954994973633,0.4952214351124679,1.0947769563919867,1.8119338735170445,0.45441140953695225,-0.584901534653677,0.35507729936184745,-0.11591661640084726,-1.219330985451591,-0.06188492122338098,0.12971386433732493,0.7372219802569354,0.5265659379464985,1.1251927294331383,-2.5339476116712345,0.5284506010610421,0.45143017112988804,1.1942606972182612,-0.8789250681631969,0.8556546359597325,3.196569582600004,-0.3467086298161558,1.5147995429199144,0.8436199000232202,1.983787347303667,0.2651802396774868,0.5098818613187146,-0.8484860543543538,0.18651006614453855,0.18703161457555012,1.8210902569898029,-1.006013016815699,-0.5368584578098742,-0.2515842329271339,-2.1773250735912573,1.048860598438948,0.8470860432493923,-0.6615125877698989,0.736681640722236,0.25918884896097494,0.1490154704730176,-0.4455668984914062,1.49530220196442,1.7068212046386961,1.830214570612924,0.19719241774893198,-1.460184410546124,1.2626342914790907,0.6374729218299715,1.3814847449087715,1.1142615296319647,-0.4865026827853674,0.6748817599074584,1.5220837576548043,0.583436846421419,1.245071692898001,-0.8711386693638326,1.0589976092959126,-1.0887153782116947,-0.21086455590352113,-0.6302529881165675,-0.701164158995071,0.9092775752937227,-0.6651947520648896,-0.577752359567386,-1.4123456589266796,0.013090737986490892,0.7080946554019478,-2.4846449955780363,2.3830472699319847,0.5910117015242463,-0.6864122581400435,0.5154333726152709,-0.25571421140533845,0.9995985927314968,0.15368966165741124,1.9066702266940716,0.06399170396994265,-0.07054931142685013,0.18872366714024186,0.44685296114579237,-0.2311113483561521,-0.18851674419034606,0.4528935095193333,-1.5001491304991996,-0.5033965653288004,-1.54488705407024,1.8848960245431374,1.9505228885642965,0.2971347236558575,-0.05976526022520322,0.21416784949004886,0.6340702284036431,0.7598590255999265,-1.3156148885920684,0.6336189221112429,0.6398818517829464,-1.1019616814834723,0.33199807918170604,1.963214959919574,0.3239658880436285,1.8183703346052218,0.41608406507757745,0.9694361891591787,1.9624758402193152,0.39665433846148457,0.6743662213559413,-0.10180067567267363,1.3606589600101384,-1.183075099213979,2.0402411358474324,-0.4938644813724893,0.7092035944286589,-0.14053800859924118,-1.061526835381166,-1.2829944948931544,0.3051727654851478,0.2564469260804966,0.4660458396777169,0.10956199143000511,-0.1777922489137637,-0.7262227948014082,0.30276380527815383,0.8030198217276295,0.29355471073799455,1.5350582898459595,1.3619975666971815,0.010566650452064875,1.7167170813029737,1.6067089342882752,2.5226135703695345,-0.134548865473409,0.9664058306853707,1.4197660329042687,-1.0191168226500322,1.34543393977469,0.996275980835778,1.9091225101639435,1.1413514056616192,-1.1943482881562049,0.5799516297442282,0.7978489081844105,-0.03669992824792164,-2.0656696157257635,0.08764274744727894,-0.5804096723355576,-1.153330052308051,0.23882937320164896,0.24038134735499433,1.3820956571189305,0.3967817200933141,0.8711486447799134,0.4716639500643353,1.1739488533578841,-0.4113308502991532,0.2526703661723565,1.2435694927524756,0.2874323637092588,1.112853454209659,0.8927217664478112,0.007274506897787782,1.3960784978486382,1.459994320740943,-0.2445901314038308,1.3287381684189623,1.5563572614458596,2.1156209550497214,0.04772505608866968,0.856039237778433,0.393275337465915,-1.3187418134582223,-1.8334277950494728,0.9818121122762034,0.2132483005739246,-0.3861335517801397,0.21135726133287192,0.7818854604801813,0.6946294203924801,2.2819429129367923,-0.4448745563004337,0.7969473791736843,0.7630020682207211,0.09102143394460245,-1.3041979311763048,-1.7120008498651078,0.5941973041161847,-1.412835627836252,0.08028030893385284,0.3997956985462101,0.3499340668367362,1.3824463825496127,0.1971641392549444,0.1459730714107065,0.4092048376318008,0.0869582865903387,-1.6054751150439208,0.8194155134945358,0.2563686504448059,