{"layers":[{"type":"network.DenseLayer","inputSize":784,"outputSize":30,"weights":{"rows":30,"columns":784,"elements":[1.4223451547180974,-1.7091625822922307,-0.2968264574930135,-2.025289498147339,0.5946566483086807,-0.16464378244662015,-0.2578350518383442,0.0059257279701559135,-0.0717051991807996,0.23343923671605663,-0.3721460627471304,1.033168088578081,0.2876542519646087,1.3722259848716396,-0.2814124335955291,-0.012527128774205636,0.47198795225588186,-1.2249593504473923,0.329870006103342,-0.479161404191714,-1.4590638799575697,-0.6351993790586151,-0.43144544041288874,0.1928837333567637,-1.1759664407297845,1.2764417603089904,-0.7736940522633655,0.21954873133130304,1.062475309335106,0.5909257024276733,-0.6605831836370005,0.24026604345588234,0.002073092048698162,1.9871096793481833,-0.5953385933363723,1.1098337129667892,-1.186384412374607,-1.5143415302714662,0.5988717849624823,-1.085862250503573,-0.8773010242434631,-0.9481371476016949,-1.649047142045824,0.8612927179594223,-0.2957863852469216,0.21836975415000084,0.7540061904436062,0.2574496789420299,-0.43079558901626136,-0.512728895056499,-0.6639304319252382,0.5292859474972302,0.7509549074090158,-0.704727665954447,-0.4346243052409705,0.2521562497912189,-0.4620078126104509,0.18080039073554968,-0.7729562681007313,-0.47834015683930786,-0.3587995674276696,1.107625619337755,1.0884716721080956,0.18962585815390176,0.2919899133281822,-0.4090456469128124,0.6979835555619426,2.382584318498496,-0.41244100272703543,0.45000628311316354,-1.0602901408552687,-0.9622990499437114,-0.34904595227815427,2.0836802856074654,0.12845093330230575,2.1684220945784065,1.7463068235901311,0.5081699379950658,-0.6105485795390648,-1.6047696512384022,-0.9437746019217601,-0.35371421439414813,0.20216600913191837,0.5162347410923696,0.5366242648319943,-1.2570799041059568,0.5207341263278659,0.7478692055612159,-0.02731268144768526,-0.4299632955210509,3.0837118144366897,-0.516706808152655,0.799959860483445,1.5922790925746062,0.6735108269647418,0.5513779969026524,-1.665044952635225,-0.3808267510494426,-1.3323505564631557,-1.8991959363766275,-1.3939304869966074,-1.54140561175459,-0.08302494185090391,0.06963703515387458,0.633086678117707,2.2230069360026814,1.1674913626341423,0.8674462483439329,0.33199875893841185,0.8188200885364099,1.0492940394138341,-0.24298952909844648,1.7240907098502742,-2.340321927471305,0.19064791160421765,-1.3019922230153633,0.19356288266444155,0.9292290528828806,0.30818118652372833,1.6568973333575439,0.9510428869292291,-0.468013225299002,-0.0017080685725705022,-0.17132791954482304,-1.474667961948771,-1.2834296616666367,-0.0841835119338304,-0.06104141422401279,-0.544107272932626,-0.9929921464560121,0.8904618709484279,0.2050602882016081,1.10676204600901,0.2047378969050221,0.38569668137537805,1.1899097775558323,0.22586338041130952,0.8087476706681985,0.6991519544096646,0.45509583599805453,0.6562205867927354,-0.4931562241351657,0.9873475151839061,1.3150409491358304,1.4782623665378452,-1.2427279086152383,0.6280883784258053,0.7604201217730492,1.6991412132581434,2.893974483294914,0.715222154194779,1.061610565927591,2.216697037894376,0.45948530391067505,1.5087070893739283,0.2555031841990345,0.013748055407714753,1.2932701834920524,-1.0249543760260846,1.7876089585619968,1.0499611185398083,-1.0150553992977132,-1.4152777766904239,2.5485363942663657,0.7453369461067265,2.0112208075412554,1.0735845817427943,-0.16182265457216558,1.2043581427955785,0.28798207814879706,2.6870228455147114,-0.3019494780947141,1.0509471765900755,0.7890504499428596,-0.13653660947933202,0.3681578542607504,0.1673747332829666,-2.4023069193254276,-0.8158418574974223,-0.1108353877664329,-1.1400939898608744,-1.1357529657577858,-1.6215070745487383,0.4887673302244242,-0.3810280389867222,-0.6289575830518406,-2.7226411446810586,-0.5122904741164278,-0.7764566219030249,0.3100411362607405,1.3155909210022014,1.6883642466910966,-0.6021164997370085,0.5956069732369301,-1.429951614698773,-0.8671845841229646,-0.8047928448690094,-2.0522252507862926,0.7505555140272553,1.163263146160748,2.0307032479816645,0.3472141266500104,0.13031788070382053,1.08383453711955,0.18432543119397388,-1.4870638164100967,0.09361489085630738,0.5657564078274945,1.927893773147376,1.1804286755752527,-0.7873859769651609,-2.696213760614929,-2.0255177451832025,-0.9144973024214329,-1.7747483339910894,1.969649343743046,-0.13788319880148114,-2.043085484149919,-1.2238512703504532,-1.489910055449474,1.5801053006847507,-1.0024456571171285,0.41674527456518323,0.5372803400248966,0.45462550985498873,-0.13646966487882295,0.0016621452957498496,0.9546864032727773,1.7959187722412862,0.5126869978830956,0.020659829033504315,1.468220684218579,1.8546121780216678,0.7902801512698112,0.32153167829398505,-1.409991423227808,0.03244209282788662,1.4096592634462164,0.780289458096912,-1.3809863372689841,-0.21488676817523225,-1.5873001788200727,0.4121420403324324,-2.0069585780008716,-1.7818763285950503,0.08169941992673223,1.199910466133911,-1.121713728745041,0.8772510752529852,-1.464033851473923,0.3914436558366602,-0.8103127646217633,-1.726710598210162,-1.061143592644788,0.9778719823713192,-0.4430780241231063,0.6566449646111874,1.0489805681894286,0.5674524953251804,0.6640565573025066,-0.7792644701506402,1.3507453524486308,1.0774163429026755,-0.7782088691911504,0.22025686324582622,0.9258539448597244,2.2262715297826867,0.323258783095434,-0.3417580350283548,0.7388653294186365,-0.9092150731547771,-0.37100650587265466,1.3515798661804783,0.6261880901404475,-1.760777589196098,0.6311820103852527,-1.217396908261889,-0.3876697175257381,0.038403117176252576,-0.9462630548589815,-1.0744280638673684,0.7015213658312497,0.16733839732689515,0.051716546610716944,0.08075455070468032,0.4653965516421111,1.225917498561156,1.6469526971128479,1.250509089047295,0.04681416498074136,0.9558945236901362,0.12064970145388129,1.008737196651471,0.6833169422134567,2.3663613992924293,-1.2398758852147012,-1.572096046064914,0.03068529223474321,-0.6139287020490285,1.873087700212001,-0.28896536664284683,0.1878978012919011,3.1382013468448156,0.8231926793165647,-2.590215963095121,-0.6523081894901652,-1.4488727021288623,1.2562130687423076,-0.445520557135694,1.2876063974449974,-0.5806190630545395,-1.1419118784311286,-0.003115843954765187,-0.22234639491263844,-0.8313199987645342,2.3324942930182972,1.906179844821553,1.4389217290653877,0.7955490952381029,0.7489707284765232,0.3416466002354066,1.0337483606764464,1.2395564709219749,-3.952474766527732,-1.928831852696909,-0.9660548566544995,-1.6848442378480284,-0.7746264182842306,0.9131357098570753,1.2334914760071112,1.7480070787737467,3.5995689211706225,-0.7250217887802894,-0.9434354583392275,1.454687197835752,-2.3013609448186005,-0.2451212918786682,0.1905110176734618,0.3037631457717876,0.9073751817768081,-1.197279205374645,-0.9135861298847359,-1.201950148180856,1.5509012209643274,0.6463421962221528,1.7171593193405887,-0.6623185185924553,2.4452503760795863,1.456410232559319,-0.2208738794480718,-0.3992492553511549,-1.655684025068974,-1.7965660641490213,-1.022649224555927,-0.6218079938880912,-1.853056871555308,2.5409047949661163,4.404584753267646,2.216308664038446,4.973793998255954,-0.1015252795656579,0.8991613691192416,1.8539618333324077,-1.0296759746351316,-0.0186364724678454,0.530523413237102,-0.8235879606782238,1.111388256486829,0.930612024822354,-0.6919204669371601,1.3552424359413693,2.4697833999658925,0.28406772012744147,-0.260404083644177,0.12284341233078994,0.6897188483206186,-1.1178238986392552,0.44605298515069497,0.8680261860804351,1.5036913894329766,-0.018239592468283855,-0.290265761813674,1.1522733006688683,-0.3568628235964391,-0.28192937062259865,-0.8091625332797863,1.572472805208752,-0.04002097777588605,2.475806045339712,-0.6374681383876376,-1.5296937664405008,-1.0119633979434604,-0.39748862033252225,-2.1521899003438683,0.2102659343923569,0.3222651517904402,-0.690301556675196,0.05376816620865582,1.0236945945564837,1.879807955421997,1.5389867153854684,1.00026551613827,2.1211898128878994,1.7026419866905849,1.9274274707519,2.9085924522278477,1.4003820399471183,1.8148538627626618,-1.938476792889924,-2.626827207950581,-2.582729000493657,0.19249027002545002,1.7298825322209457,2.1582014488095376,2.9009532204233364,0.09399954311091939,2.5347462287381815,0.5623863137738826,0.6609370522026291,-0.5088331756867859,-0.6676378557966214,2.149990521136742,1.3155557091409809,-0.2705955465841619,-1.542891837867202,-0.4965726077535584,-0.4482868431751955,0.2958858468633091,0.9901091194809334,5.571557132000812,3.669969983120723,1.303980725031086,3.777236176372352,1.4374854740647258,-0.40043160061939126,0.19623032206254062,-1.1438214047327349,-0.11006005542640669,0.7116326062448225,0.344528967165249,1.011272785571861,1.5986446718952538,1.8920541780738058,4.003677640804406,1.0529246457031165,1.1289029451127761,0.022440941575916917,-1.814509652983207,0.545322025002543,-1.5172492777286906,0.4518377279213202,-1.3555391577657936,-0.3456801997960194,0.8187450697088343,0.5286772686299295,-0.3392451871896746,2.724931214931912,2.4089318037569067,2.594511426837707,2.811736300633677,3.566145977454543,3.1888603499279897,2.01305156604521,0.7896673915123177,1.5065905077782002,0.3445865800094819,1.6585738141824238,1.9196125142746758,-0.5436112565910858,-0.6170538465126347,-0.2822312384005493,0.3002442840116512,2.0037820015922865,-1.0144734571449487,0.2877918045360624,1.3333954919891384,1.4402152370482681,-0.3271104079607827,-0.43328807514159495,1.2045377769842043,0.9564207734339065,-1.7567432707149415,-3.722489658240449,0.00236440302314378,-0.9876906611279913,-2.8845969527252553,-2.0193300754043357,-2.0897598384265184,-0.47475625457417836,-0.9174586956620908,0.9001580696708924,-0.4427812531508954,0.06006989331834383,2.340144854551264,0.1781922950576199,1.0682075987487285,1.2853850244350065,2.263770699640581,2.8817283589849603,1.4178859053476605,1.0453211274412613,-1.620850236340447,-2.813470072438056,-0.6062768780661277,0.46942260029903454,-0.030696302190085213,0.09019354927463771,1.6993946198138852,0.09414912190554793,0.9781979763583203,0.6292878054282945,-2.4443101594807692,-4.990668856407129,-4.752643854683729,-3.109588934380342,-3.538633576403268,-2.7404500398749736,-1.1768528299199663,-2.776362220477395,0.5436141111954548,0.4063358672139354,-0.6537356606268292,1.241394390262268,-1.4752336375146613,0.9579673716664611,-1.270395500229604,0.12078943560781875,0.29432782704203847,-1.1308672274511693,-0.11423710013156452,0.20569463887687825,-0.3218909768944538,0.44058924432560953,0.7573691683140139,-0.015238945522735296,-0.6983988886250314,-1.5609782816977844,-3.2646494086042637,-1.527104266840617,-1.2130997173241198,-2.0934633624241474,-2.2033826905133296,-5.269649594268072,-4.8705368855672715,-1.4464574705104785,-1.91100400000832,0.04181731809677902,0.4226956339659146,-0.09974847404180517,-0.41903606974062724,-1.244150798931475,1.441417939428482,1.517780499067752,0.3782132301603538,0.519102095409157,0.5868409901557252,0.07762840970377631,-0.3826993935958045,1.3913920569231344,-0.6981133059590224,1.1739741795496728,1.1811762838452855,1.3562635054440695,-0.42144523424675695,-1.3720663878179358,-0.26890871234637337,-1.3870331169356742,2.337917174070257,-1.2469087598612958,-3.020619668628084,-1.844056348378586,-1.1760451551466136,1.1707263895536744,0.3891116982056266,2.6914961425181185,1.5221050291229563,-0.5814393571599157,0.48262773808103676,-1.154976752227897,0.4065104527362735,-2.6851168832193735,1.0859956351667917,-2.1128217108536673,-1.1767395817383055,0.1938383526579528,1.0131784054994704,-0.46893452827928656,1.2814878718000946,-0.4018256869831391,-0.5753489085300513,0.4970760321800999,-1.6842186955308878,-0.5572872626280275,0.1422251692380583,0.6534892553232451,-0.5012755335529991,-0.2173278085822118,0.8807809478372025,0.6515768320430811,0.9162623734203468,-0.8981992247763694,2.725980405387924,1.688028365599025,0.9063787044862778,0.5584554894124961,0.28722143362579594,0.019796310077948857,0.8201210134067282,0.8615224439452074,-2.609438359410669,0.036415741326168094,0.0062214405205629885,-0.9874337426739768,0.25473805084513723,-0.0950715266770088,0.30323283538610896,-0.2587731953065557,0.09284589857897202,0.10770723814597288,-0.345847089213461,-0.09486272456384381,0.4446060426325488,0.9556229956509923,-0.29921973754666925,1.5153047855713062,-0.14351455155510665,0.7421796725254325,2.104636773680228,1.6805381370678674,1.0892635886790547,-0.6416635821028652,1.7633101405098146,1.2965755809797577,0.11674565744549205,-2.7731307212220977,-0.6773811295111584,-0.616137397630362,-0.7108535857726347,-1.6171860117731471,-0.3454396677566145,-0.40306881831516084,-0.2621308627584909,-0.7474951321010885,-0.9963365234968655,1.8254293771732888,2.6597352972902812,0.522681107348406,-1.3722328525213028,-0.8081263258687796,-0.31255001562549883,-0.5692286120884491,0.5189312311558149,1.586596969044847,2.967118187872634,1.6730167050269626,1.3661566572873303,0.30330101330559495,1.6225888248673295,0.3435355476689157,0.24074485966720308,-0.1690242173773294,-0.2521576754295363,0.021571589427717128,-1.9127246721687574,-2.1414793071179528,-2.3576917665403343,-1.1712319914267655,-0.42135511620602034,0.5468439992966239,1.277930542792404,0.2543208378332923,-1.350516276025778,1.116975310589112,-1.1963685771355066,-1.0177652463732734,-0.09708556606450737,0.18974337661714646,-1.3404265717943895,3.0637785356391887,1.9802683001792205,1.3981460804482855,1.7406135290104732,1.9862057145070668,1.4978483283064006,1.707482832018919,0.8628158327956811,1.352429679376124,-1.67738653201457,0.6474240633374386,-1.3957347194355445,-1.7393334070495043,0.12957364092063386,-1.3609787623422716,-0.08610676614605232,-0.9093945353329302,-0.4864662970291395,-0.6264672297476394,0.7425391307156948,-0.14662446937918522,1.472003979186336,-1.1537475757021205,0.318526107126361,-0.30729267081216016,1.5084312741048935,-2.220136881307648,-0.8764875721680683,0.27651431502501317,1.6578524652216682,0.3598477028872856,1.2009169557491204,2.8739617159822144,1.7088522960406516,1.0551788986632011,0.9548815360903087,-1.4007747123120675,-0.11528422672883228,0.1631810281555023,-1.33345001399489,1.0550776646433393,0.32793505016274316,-0.5107394095162392,-0.8635039704423033,-1.8333361284732472,-0.6058391970741714,0.9689909113990278,-0.262753509683666,0.8892076128916611,0.4114405568329203,1.4741912389281542,-1.0361947292642555,-0.03551018420588697,1.6954770582482082,0.4380526237884942,0.5148941073100634,0.6422772123175238,0.5285213554862519,2.3912096958736746,-1.8019772720460052,1.361650809299688,1.0092382161438642,-0.35844540766093297,1.8034984517836035,0.14003226105611039,0.15898559170420581,-0.6694845943516959,-0.268480575568458,-0.3574412794314612,2.5069879857281774,-1.2882397491426134,-2.132421786219301,1.3224356256137693,-0.5894564063183232,-0.27186289215948395,1.27903810825817,0.13586008536239239,1.326936605588777,-0.08511184346804467,-0.12037721266621793,0.6870990359291088,1.1003538728621225,0.664760625667873,0.412208866108161,-1.278525002497792,-0.05835004593532872,0.9499217947320152,-0.027953708897965623,0.07838980525596655,0.7552438930423018,-1.0534294395420938,-0.2514827717749376,0.8496885840842417,0.2010751102826041,2.2174866107595297,-1.104838154241256,0.11757366286045458,-1.0860590041974172,0.6109029075958071,0.550249416542817,-1.4246082263326392,0.46264977531887325,0.673831814780807,-0.24334270888600049,-0.16259374517152247,-1.5019385040010713,-0.6403486193889092,-1.693940262250079,-0.6803723653717535,-0.36047949590695244,0.7604131232588465,-2.0627106551514522,0.010268579647282419,1.2306507928008104,-1.1133485789017117,0.024882873813750893,1.2046246240419871,-0.5235239436116217,-0.6546639747430665,-2.227612443565806,0.5905894892959773,-0.08845569213237359,-1.00426770192406,-1.100825917219275,-0.10332881125324109,0.906561555925226,-0.8070365152108463,1.0851548323522247,-1.2766047288833202,-0.558499511208448,-0.29058443481962193,0.12575813951863773,0.8554759775731894,0.787498131782761,0.2591128364216867,1.7853473694797044,0.37775885682930443,1.1090272604475966,-0.2483001797556374,-0.26271102041486943,-0.4784316440752272,-2.2486378054040426,-0.8977859898117847,-0.7310361474900909,0.7586755120642868,-0.41598775834177026,-0.34868830723423955,0.3625853155807703,0.9828546127565727,-1.1681326655154307,-1.0641939423746327,-0.8494173952918072,-1.3877475749888786,1.117154855955045,-1.6082608976752344,-1.9220525119070273,0.9446044423131956,2.031123384801296,-1.7006179235257397,0.47537274004688485,-0.6733613026643515,-2.255124017196057,1.1148721636242647,0.38368007611636457,1.2959740214645894,0.6101189175212528,0.423788953526585,0.09381430458096707,-0.6617997441332516,0.36388130210087455,-0.5553141061733013,0.09733803268058071,0.5346985218435455,-0.0242238765400623,0.8019204947938751,1.6758243438735885,-0.5867948384599465,0.08802772285904177,1.7896555333852373,-0.707611276508033,0.7648722624734866,-0.17589484354487397,-0.9240727987852729,1.6229464136937126,-0.0325117106839087,-0.1999526086107706,-0.4608889225871337,-1.7277588429550657,-0.3133904449737599,0.34518902011271885,0.7552709980679871,0.04219512790954585,-0.002902010059921321,-0.8418395623933235,-0.27325004350173226,-0.23691998283594498,-0.06973085706006198,1.3193613116246177,-0.23532982093436058,-1.9133688055699498,0.8055739012785696,0.03481632140317898,-0.17098876917243738,-1.5714220968156905,-1.1263154307414882,0.4338443565070446,0.07536464443009344,0.3003268597799675,-1.622471815781,0.007938675757662772,0.780406695781994,-1.2693767570615493,1.312381939250082,-0.5556514062903158,-0.5597501055036505,2.184934971447508,-0.9798653585148707,1.8141202016513007,-0.482061273483605,-1.3189008857767115,-0.3193252395024678,-2.0128856823167856,-0.26431890580111966,-0.3692472077161141,0.010956801111618555,0.643005353336494,-0.815461984514979,0.6551724307631669,-1.5734526928413421,0.24494727732548027,0.8118589110815593,2.8700783979296918,-0.5299734382665638,-0.6953931827145436,-0.010078073047623712,0.580691170772046,0.9314813851547599,1.1999888789128368,-0.10102057247329332,1.8012834859501416,-0.8584111737375942,0.08823920159205478,0.19461886495169725,2.387379410747487,0.6441341712417262,-1.4287967571472473,0.34141227411441794,-0.4406083736283319,-0.5386171028263675,-1.5446834443664343,0.5638066807439395,-0.12721043373973778,-0.6194886218060199,-0.5956269058617184,0.572495784973321,-0.21700863954123895,0.6623104892630023,-0.7582625821788691,1.6782654648455604,0.5247069341278127,-0.9992000164295292,2.298905479869584,1.6461318569988173,0.27682158824218883,1.4741574644273971,3.330471068949682,0.3903579425315259,0.28464552682727706,0.552716056426223,0.23258193232248475,-0.0916676641323503,-0.60544326701016,1.7294628229711597,-0.36015988405763716,-0.03931420556187377,-1.4562951996671218,0.828984737686865,1.1103784903097533,-0.013186757103092491,-1.5086537709860748,1.7392468718267906,0.24061655889000352,1.6671532582099495,0.8912473827148805,0.5534890897537594,0.682463370356259,0.6668027831162535,0.5459128117229995,0.07023520313597824,-0.42797460476289606,0.9476144511304728,1.5827754070919486,0.25230610364521533,0.6245305771703756,0.43973845506739323,0.261163530988195,1.6396979757525576,0.4072137741338688,0.34584762173730127,-1.184015202449103,0.4126987237825262,1.2506050336903103,1.528833425868818,2.215919746017035,0.8950984953139492,-0.6015620551899991,-1.1783483180785106,1.3216556626555347,-0.5850494702845866,-0.8923541896986433,-1.4127079857807954,0.06450774351490345,0.4724852001340646,-0.26434345397059583,0.20203237993817794,1.1428328419895322,0.24068378120784534,0.2918717749524202,1.148153196613535,1.0089989632499994,-0.6514760838749681,1.2424171620882791,-0.8549317381024852,-0.0584276305039111,0.6657420428707164,1.9632330348283342,-0.4422641990683515,1.553393171518683,0.22861535688302118,-0.12169519700217629,0.4900113267121529,-2.2814284869329278,-2.23020775846707,0.05689634342044427,0.10019916009824167,-0.45008871308319476,0.6178352591315637,-0.1771135107391796,0.07925842674201941,-0.2669668576045163,-0.17518097404705765,0.5131511493210167,0.4772242918537012,-0.6167463250680985,2.0901849138446047,-0.2306263103618702,-0.09075936557491027,0.2081909371896053,-1.2576825803462934,2.457773636907232,-1.2891339365852885,1.1221629276714058,0.3917029436621475,-1.0236570863885022,-0.34367258030676145,-0.25396977395238163,0.7657331177252029,1.584164799670636,-1.2028362218095994,0.3703504724068246,0.9223312678514112,-0.7174102847528079,-0.9781335724988341,-2.1752440449197046,0.05671597611925167,-0.6472010531780273,0.23127394535811002,-0.5049953010630439,-0.9960914608339447,-0.6375191875775802,1.4072360548547405,1.5956846949504444,-0.2683279647771785,-0.15588702016993547,-0.6162672938814965,0.5035527005435744,-1.9421563317538422,-1.3023844791127468,-0.6814130188050144,-0.64141706778066,-0.6542662446911174,-0.7523031252389664,-1.0964072010097716,0.3630764968475435,-0.7836338877221041,0.46484409497410145,0.458109812624723,-0.5473850894299817,0.7651740650788635,-0.297221162268904,-0.44957108243786303,-1.1889349178528554,1.461756091530814,-0.01581934080723882,-0.07040404369798002,-0.13783972823621432,-0.06312990813703401,0.4115670697674485,-0.6313941471481651,-0.18530752156786578,-0.5778014283763567,1.9208550006766745,0.6287185527653014,0.0021617729314881732,0.23116127362289282,0.7091324863567747,-1.4304445536822035,-0.830130055531495,0.06007277352634063,-2.0806792325089893,-0.3803600269947942,1.2295484480216126,-1.3645011675373389,0.4526974354986741,-0.14935445253461468,-0.2281268266533653,-1.0607124563143882,-1.580299390505618,-0.5134148448122413,-1.0429434187620417,-2.3178857430218014,-2.071407754235015,1.7498941833778938,0.5728952981981096,0.47592772675424794,-0.8809066404397332,-2.0794042914305644,2.2647919946365542,2.4808637588523728,1.6935647544272245,0.3245983151118074,-0.4052640013306512,-0.7599784048397014,-0.5486588067920224,0.543400325389929,0.7129012626454521,-0.5446412065911346,1.1469594196120119,-0.9155374288692556,1.5330413918227028,-1.0005940168209804,0.3697167156361649,1.463572368428658,0.8269266629018545,0.9361572259380382,0.5703578038025755,-1.2688181091664679,-0.44136040209478394,0.5331196466851632,-1.2396944629865252,-0.742396709923574,-2.3830223073902888,-2.2357944963987806,0.00836100989305362,-0.5308636404250469,3.134329483083331,2.3226735976780035,0.9262368533460027,-1.572154576735913,-3.512654974743192,-1.3828434257008142,1.4222151963545835,0.13815344805893304,-0.11622465797443549,-1.2240048604565401,0.09837066948731354,-0.14318254762349936,-0.411784481083587,0.11077574274155255,-0.6471219376662588,-0.16634175231383658,1.1042008658128863,0.850535110151675,-0.40229060191592114,-0.46027864324301554,-0.004714733496752585,-0.2145793019499182,0.4060651837479352,-0.9721032067145553,-2.2874535093706023,-1.0589984612135497,-0.6624374306677059,4.753177103625725,1.492607946645232,2.113161795384203,2.151815728974099,0.019680891862313556,2.127364124555969,-0.06795692480952395,-0.25953828175027316,-1.6729411329876918,-0.6430763080392535,-0.8039599193661897,1.0266756287527825,1.3642372927139987,-0.864497813866376,0.44736387926369575,-0.1528024969389658,-1.7780629851308378,0.34533637313459475,0.42634181434675816,-1.276209839976007,1.4904351082007747,-1.1364191777103818,1.2670963617227617,0.1897466494846638,-0.3972511319902363,-0.4446677116499071,-0.8824388872725232,1.0027408341598512,2.2287183210511508,4.400579933500373,4.113378575595358,2.584053096469478,-0.04611504520087292,-0.8007938965359347,0.8902378917643798,-0.10291185086072567,0.14144449900432432,1.552005937732036,-1.5455601214040517,0.9001391838357459,-0.2576790280569966,0.7769100659476199,-1.0856586486340152,1.8155228890737618,-1.2805971305505628,0.5195449833380448,0.6818958337792346,0.20698296513457826,0.8883101449760721,-0.6146001273192572,-0.14896256337433955,-1.371410199579114,-0.6201814018689463,-2.1348863196333885,0.35111688866602775,1.7224994655822583,5.032271727352364,3.6519206591433404,1.795922783528262,-1.3323920740642567,0.5686807253994869,0.6443167967275834,-0.2630112752959931,0.33634880118924476,-1.3808855948082495,-0.6711233444143616,0.5147818454422689,0.35176000832356064,1.2707899619180274,0.5310111950986226,0.6479196346771487,-0.1709621481704564,1.0868208905574843,-1.0607706953726246,0.43586098346564195,-0.7494454260618792,-1.1015050057229412,-1.2883890757847614,-0.0644513546800847,-2.6808300097418503,-2.0385937639743426,0.6076158214621337,-0.5744988648556364,3.8645567451727985,3.790645564199661,4.111676106965557,2.869810702819703,-0.5613028868499175,0.4298048221463722,-0.5047673035200037,1.1686361132516565,-0.6119804715700841,0.8009679686661723,0.9997138627626511,0.2254067810534838,1.5570033595699246,-0.06210079687176387,0.10187901844297552,0.47193936890731236,-0.9863155999405052,-0.24844981010258854,-0.013707910441347174,0.5351245009697506,-0.03753567921849612,0.09325884818312044,1.3404909227155162,-1.2883228453461195,1.6510719525024544,-0.13652108237645705,1.5427990088900123,3.1593138927824316,3.6829416058906648,3.517324613827427,3.0131973688939104,-0.4656760404526342,-0.02693825019494066,-1.006322084520431,0.39703652097357445,-0.5916792210309109,0.40462639166170133,-0.9570095287099178,0.47660076402245494,0.09618447334968826,-0.007324536575063604,0.05052049234348482,-0.11702588451023044,1.3226790972155449,0.31896820436906154,-0.8315357826301905,1.478188467883337,0.02945212545912218,-0.05712757914695474,1.4397139307490476,-0.7863304349714815,1.7537182308886128,-0.6654922486401528,-1.0982601658178766,1.8293195563317737,2.7114164268505374,2.2393523297193743,2.821027797046742,0.07268815176629555,-0.5305857013277844,0.11222019263285885,-0.7555820248866524,-0.37330571958743025,-1.1117592183342104,1.8455151725547079,-0.466115102144371,-0.395577308879704,-0.9354060141830953,0.20252433266258416,-0.5162777397808529,0.07188509289534464,2.237646163449487,-0.8121914451887067,-1.2054745850932935,-0.4862429004521537,-0.64493752707215,0.9571001871974919,0.4311603042838183,-0.33002190966436007,1.8013722840949404,1.541389800666242,0.15696658369833244,3.4013936919488033,2.2890800511822365,2.380455530757062,0.9009083167788525,-0.432794658652036,-1.2917834388498661,0.5486358406532491,-0.4423251678421629,-1.4688949370186648,0.8367851620284668,-0.3973173894937851,0.8502429495127145,0.22417808464167324,-0.5607517538128673,1.2884753373501938,0.1414199974255025,0.9176454202116519,-0.005700390602735096,-1.874509779129373,-1.538894426564796,0.8583454759527642,-1.3274996126256533,0.25492190475585685,1.474790853527568,2.3484374560523986,1.5578959737684257,1.6686444386052595,0.8283190042196099,1.6216976911409198,2.285745391802025,1.365596128463504,-1.2431053667783991,0.8986430583104579,0.4219255911207142,0.7105800869805152,0.26047517361506056,-0.7983466450737826,0.06580920219171939,0.3749346130603426,1.437934685725659,2.6096134066909964,0.6570088281546236,0.9863196920252059,0.9290514121524417,-0.07371663848345335,-1.1697741633561165,0.17240085559838786,0.196056614892704,-0.8037923600516351,0.10627409652028434,0.15099049900203462,1.0120669870531276,0.3271454679159805,0.7605391528692605,1.1003530070564838,1.3992826421455111,3.6857782788879097,-0.17040947322340771,0.4127589650582317,-0.39221162184914793,-0.4755702609076168,-0.45483368091243476,-0.44868253285480003,2.149045490811718,-0.21104752106560845,-1.12165806230885,-0.5100769636574191,0.09694701943314463,1.3524848452303677,-1.211035441697789,0.8287410667854783,0.2746225038740307,0.20568055302765767,0.5263730031838041,0.20458268761345827,-0.6649683756399013,0.0758121906016535,-1.1504592431899534,0.5540744582784919,0.46025989701616743,-1.3375946199816815,0.08174630202199086,1.3314091810738877,2.312172530357018,2.4463422571664926,0.3107794181842845,-0.7732026729162935,-0.7298856628457303,1.1092898460428027,-1.005519928080501,0.6090025252234244,0.5271935788330128,0.238602876697872,-0.6621827816297768,-1.3713328538178289,-0.9436227969564005,0.738598053243739,0.4174217774883926,1.6278992366896758,0.008674600117418888,1.2425681669632103,2.152952947388392,-0.17286225411407566,2.054404572744214,-2.4458530464790025,-0.08203727391646388,0.11571269122231337,2.209226646255892,1.876438167377734,-0.36510907149539845,1.436961521847929,2.3578041814499286,0.6476324254759932,1.7467720740045711,1.5552569692297724,-0.7578069439694092,1.784973136174946,-0.13257771379897695,-0.3695500216536779,-0.6474946119468875,-0.9702516165905292,1.3507647775732727,-0.062411304712539965,0.7824606073613295,-0.5840590807773947,-1.4401456244806294,1.5834820987705815,-0.16593802609223568,-1.288460051332889,1.2184967674836589,0.29576219705995105,1.2010195339577614,1.4264419858850743,0.5795842162357463,-0.4837290882494847,-0.7114985145877939,-0.2811238205193487,0.36199380427035577,-1.2708831802550713,-0.4827339139527648,-1.09340126695152,0.6087505092369294,-0.9950903016587921,-0.34949523475857347,1.076604804596408,0.1394928583540291,-1.2750930944617331,-0.4856771953867288,0.3114637152601839,0.7452022730576983,0.2010514974695409,1.3208730967419504,-0.5055325296434798,-0.7892491209591482,0.33418920770054517,1.7683197895510814,1.3371839790674014,0.18058039758066025,1.300982825030803,-0.9989064691875954,0.5714038447117097,0.06175548260302795,0.7259547309665998,1.127887165644932,-0.12852888995019235,0.6715382071791209,-1.6512259435713998,-0.7838632654487835,0.778348533171788,-0.3693178025973423,-0.15580895213684884,-1.5150181063850217,-0.11941687741766632,-1.7342373176577839,0.16277408139606853,-0.2518309717759528,-0.9659223971203434,-0.8198090629314669,-1.100816734377339,1.2027837572175903,-0.22857741169025278,-1.1134604123383631,-1.2404189208528325,0.4714988581295896,-1.5948756220864069,-0.5766805406194003,0.6158312065126219,-1.5249998764276935,-0.7551706036741969,-0.2570053565638715,0.5565962700768873,0.613581703156592,0.6566718898744608,0.5444070713679708,-0.9773130513130437,-1.312432091119827,0.10011054605583782,1.0803899452086902,-1.6432707083366809,1.559445653578447,0.29068259998779156,0.4145112041373667,1.3659032958883504,-0.20459932427809865,0.9053860336813605,-0.02746711223868585,-0.2831903387200356,0.3092608520358541,-1.3592532767038579,-0.7732566621309538,0.9497606048272783,0.029620466157050725,-0.8417698185730842,0.08368001195477524,0.3561335579767783,-0.7727617836385337,0.25912523043222124,-0.6710483359245377,-0.6599131352075279,-0.7822805125136767,1.5976430295786197,0.19593245146310836,-0.1147438806714238,0.34074090868325574,-0.2830883497818322,0.5844297191517306,-0.2676553288820823,-2.1585017026075546,-0.492004248337391,-1.1845793502570179,0.49307554707825685,-0.9944104322748125,-2.4670042633247005,0.5590476341902398,-0.6247857305587394,-1.8478707718628051,-2.1552246110233204,-0.40099844739257334,-0.12737845781688148,-0.5536637867885651,-0.11179330275278962,0.8406931246068416,1.5743116411345561,0.5886414742402619,-0.39617586187011755,0.3373415612300287,2.6021038914924715,-1.9922920744452575,-1.4809278291957322,-0.2221237521402657,0.05334701513123746,-0.29084868744460535,-0.17927722280555503,-0.8379702787677411,-0.20350958642312783,0.010858855508704897,-2.0467036577340156,0.01943185030899445,1.2671839734982504,-1.739309480791398,-0.9212962286781939,0.9916881929192372,-0.07688148669418714,-0.7038497801623667,1.1909488126527685,2.1781632267288127,-0.058351408853593016,0.5288010345214965,-0.5429330813133831,0.15842510249945552,0.2338555875675722,0.39214681491083936,0.46888258340303757,1.209102774411225,-1.4830312326977935,0.3852765133905263,-0.8358126489691158,1.6082227908885471,-1.174632415160368,0.9760226336374616,0.5039208271281905,1.24014657949811,-0.5194444208863265,0.9013522746312983,0.45829208138773786,0.08414866211194108,0.8438585640113618,0.7343036565296456,0.40982521730933835,1.3155956627922845,-0.8577355254104464,0.046530966148627007,-0.5103538268250098,0.3627889989798044,-0.07224561229203966,-0.7716774865404556,-0.09134672336593426,-1.1916732169957556,-0.4455786629098282,1.0185847039025837,-0.20737417711350187,0.9742262751557993,0.596127380875736,-0.46610521829953117,0.6502546461248012,-0.7867512773726566,-0.8078838302699151,-0.03956404164200596,0.2049927419438638,0.2090164727219834,-0.6379587188697659,-0.2448603410869732,1.1731514120206215,-1.3697519677662122,-1.2857413171854755,-0.7388993604544728,-0.8745612450332646,0.7264659365581073,-0.8089535872498911,-0.2115820964177203,-1.2507974200448146,-0.7401990865383734,0.9522387061849285,-1.1278969511843744,0.006137876234063385,-1.1615384797604396,-0.9738164916528091,0.6345669655110714,-0.4546836243552336,-0.5511911220052585,0.21112244911634317,1.3660025440022356,-0.04284943759045345,-1.1268695723807753,0.4105048930847188,0.608109988761602,1.3481274917987542,0.2706478411258469,2.762029224868579,0.6335082625901567,1.3576385069470138,-1.297087966826557,2.754799914481421,0.3466124759474011,-0.9037547070670604,0.19223427939743695,-1.711377465862569,0.6061410007455948,0.8668505429902735,-0.9221304759812716,-1.9684516743062814,-0.4158787245660872,0.6154683296771031,-0.23699274061462616,0.6985069231130677,-0.013819410571380135,-0.333916058228706,-0.13820706050463702,0.39384311787938336,-0.7367484853338986,0.13751623833462423,-1.0523891085300003,0.0694325718159296,0.1576437898491141,1.2866435182828404,0.6262700223665859,1.9888607760319312,0.9907018867362568,1.1858796932086115,-0.46961216989976073,1.9274942612130117,-0.10417175530780051,0.8598732652661373,0.32088549919787945,0.5931325384819272,-0.11235631412504236,2.7776541752577524,-0.3641523767507518,0.9394750218113319,1.5062530184260656,-1.2420151677189557,0.5978917736142323,-3.0033064033255816,-2.6753110972236716,-0.2579274131812877,2.1077275209727415,-0.07448413978479203,1.465293060868263,1.3939214479124458,0.4893240406684938,1.7378507620988342,-0.35797287842142217,0.5788002275650438,0.10506999744355447,1.731175572676744,-0.7530365149896201,0.08741593005941858,0.39251436796621847,0.5883752030824245,1.0346821375379358,-0.5374538075201627,-0.1460750438921645,-0.3787631251143076,-0.16003386589094587,0.3439335846806964,1.5607281286383297,0.6655004358497707,0.817437134887847,-0.22822799149766756,-0.15631316963595904,0.5015967655760343,-1.4539046848265158,-1.6548092867125395,1.1119043212980209,1.7159325269128702,1.1511902718129334,2.06616343566995E-4,-0.2748988716014125,0.6890226630306019,-0.8860757304236813,-1.1470561768900471,0.4742853154735618,1.3651267153727038,0.7151918981589329,1.4166730182134522,-1.1901589393899425,-0.6831397566216173,0.6323163634581299,-0.8036387849118242,0.6589708252273426,-1.3389968842368487,0.6948353956296406,-1.290316260174146,-0.5319080560981765,0.6039257652551978,1.3770323946126175,-0.12211301245313082,0.7313414456976286,-1.0055742506086465,-0.8810982461447049,-0.3605689345557704,0.33654624532104765,1.1649032266832238,2.49665892146929,1.252565383351351,0.14131870185086326,0.5482114080895573,0.8360472165963198,-0.4709053393361348,0.3888830871976957,0.6899978474708517,-0.16236563109592606,-0.047589006039718496,0.5286415343283204,-1.2549277646389392,-0.3492519150939561,-0.5363685474274056,0.050223628420875445,-1.0038315167482321,0.9141038185910395,-0.07371460184970378,-1.4402285122244372,-1.956007390517628,0.14376546766495227,0.2862529499681921,1.8732160493162886,-0.7911012672784272,-0.29609245932393824,-2.010281906887893,-0.09345612277301028,-0.0642701138522408,0.49387702450213145,0.07269633188512452,-0.9092748185048456,1.0145033088328452,0.11453463157278666,-0.5295686656696269,-0.8564153377354442,0.4203427324376345,-0.7992644798261506,1.5056725059650355,0.7623788267384554,-0.3896643822451729,-0.8187537954580151,0.22209708070891165,-1.301822655854623,0.18770033808236877,0.33038925469119584,0.6189273674699871,2.381278162945455,-0.06837208103032744,1.6667973689200037,1.28958783128964,0.39553482914086446,1.3334667927630302,0.3974921821325924,-1.606307417982948,1.7306499425546407,0.24098836864157303,1.0285093044969094,0.8697480069109931,-0.32271111888767134,0.7439204933435859,0.0075335280246515,-0.04866662748350483,0.03476109056549014,0.4853658288095144,-0.2352845435927185,-0.20077888360928217,-0.04121564691155656,-0.4523992210431816,1.44988091180263,0.2709181555745446,0.26650801731245377,0.41284304817324946,0.963484997086972,-0.37270152284237,2.657507070791448,1.2150587010594749,1.9313506314372502,1.5542788333803061,1.1729112330270588,0.1742568377927446,0.025106374679272916,-0.3516297846094238,-1.257299625968599,0.7981746413375436,-1.3051268659512807,-1.1773038571891141,-0.7115074418967098,-1.2514255099963076,-0.42416295546154664,-2.3512247659447274,1.0555778667744138,-1.8294803802816686,-1.2591326397787643,0.9462589176645565,0.38464515086281253,-0.2110223294788219,-0.9604202231688242,-0.8818535529733239,-2.016411771512439,-1.6225011950844839,-1.0739282159243149,-0.5362094241867127,-0.8048335847244668,-1.5626595661935005,-0.7758661134542101,0.21334847228981577,-2.020401454445103,0.9834533308433322,-0.09844942589050523,-0.05242359495165084,-0.9710166232389325,1.3983862918802432,2.2258931726340214,-0.24734720370977623,-2.376226009579843,-0.7109250887260077,-1.7591588067355637,-1.2066325233638866,-1.187575101926726,-1.299814013106937,0.5796810746372947,-1.1251121284640446,0.10966752501606761,-0.5015746620020226,-1.3588177078614918,-0.26683629367243,-0.19593422172225822,-1.2922523757648234,-2.811731529763573,-1.700149525839408,-1.4150678864480917,-3.897478749028914,-1.4168874258959014,0.052791267586072915,0.5710455768928521,-0.7753018178321528,0.2767481444197871,1.4872161834483648,-0.7796036994875054,-0.3217870327004278,0.27759519525031057,0.7656661989262826,-1.1896097350428596,-0.3645078949608544,-1.1687357610575004,-1.0553606090161005,2.599099359073285,0.6520542594099419,1.256078337065631,0.8208451972255193,-0.6981787445220738,-0.8110800558442957,-1.131395589741062,-0.24178624886643277,0.21763101847907862,-1.6427681129436644,-0.26267427328170695,-2.332054686400754,-1.7319231256419294,-4.4412586390218225,-1.3705938508980342,0.4896088261190324,-0.2175729738720466,-0.9323478899583073,-1.8143438984565843,-0.6735133915772978,-2.0103992957904286,4.091471243464145,1.3181333860195978,1.1541883450142354,-1.4689825732966784,-1.7684802548411753,0.43833407306491096,0.3674183369686355,-0.1638118092815685,-0.37741500420938096,-0.5259941142335373,-2.2147351655628484,1.8741024251619236,0.02530995504081301,-0.5918705231564089,0.27953538643395026,-0.4906302544472172,0.9087925356793226,-1.2904663785508927,-2.096953414264636,-0.7142263543264596,-2.8958945412665695,0.07863877548396678,-1.7945532287045327,0.5877888338777014,-0.6343913114787747,0.953906283929184,0.10193567958211541,0.3515357052657136,-1.1441457005011364,-0.330629458738604,1.1285936035774908,0.25788552219290795,-0.1772629557727521,1.2713937250026124,0.8778638025817489,-1.5592009917619905,-2.738232225146196,-0.9646818584176956,-0.3751612062228483,0.8226379785270599,-0.5828452745063726,-0.6430751019145997,-0.3751045982296884,-0.9696251007350128,-1.136580637855093,-0.8101652820809767,0.9895942467676655,0.16757587713809904,-0.6314823681959487,0.4507736269316114,0.8577327190416059,-0.574260740138939,-0.8724260162174062,1.1381344918324265,-1.1757669772922696,-1.0397255966634893,-0.3735364883698966,1.6285259110339259,-1.9283287047202202,-2.070581575750255,0.32780538483663596,-0.7053655864339421,-0.9261372013947262,1.8360432800356699,1.5115657271728595,0.550809495175981,0.48319823767793424,-0.6007837671306001,0.28264695377087823,1.0292048354569463,-1.892654641125382,-1.044718663540234,-0.8769259092660964,-0.5052098939040622,0.7334861094549262,-2.4763789715459184,0.4274424979091696,-0.16160794607436893,0.13814579529767382,1.0541392677672006,0.1538683344461266,0.025927714653521457,1.0840545274961773,-0.10109689200358118,2.7479644662568954,0.9021284696835498,-1.3166612026429116,-4.906029686661256,-6.730757095379283,-6.095111856407331,-3.4217195917164323,-1.1384083327915981,0.5805623892744042,1.8850001576904838,1.8977875823412373,0.58692329150542,-1.6274412244132455,-0.2893989813474815,-1.853278026309629,0.8031932635750807,1.239354132211958,1.2667447106498728,-1.5213032078731479,0.26182209977122783,1.1889583760352174,0.5956874285873204,1.2973060707952655,-0.03849312021981556,-0.4414525923513121,0.024903986818682427,0.7914560844892174,-0.0976062402997678,-1.5388469117544907,1.481224820924927,-0.66504942471822,-5.353823367567687,-6.123758977301146,-6.877545606664912,-7.962320862606322,-6.789636846594243,-7.765882073566536,-6.235339963976208,-3.4968395170777464,-0.5937314921232133,-1.870911325509975,-1.7383286488357161,-2.304883203666262,1.0855605024807486,-0.056936243991753524,0.028910998621679014,-1.0056410105785976,0.5202618603408358,-1.9829975557396253,0.4286120995049302,-1.0456873508538358,0.5215758386495646,1.8823784458149557,-0.02249413371449068,-0.8093432753662582,-0.8608568409225591,1.3744385469982032,2.3058895391451384,-0.7482027228492777,-0.27432758583909134,-2.376917214023565,-3.349005560960543,-4.384565586600325,-7.554915784253215,-6.632119982510255,-8.151604133824932,-4.234527579305744,-2.1350345516674345,-8.914205519267633E-4,-1.3124752011098835,0.15640095311444116,0.4538432915862675,-1.2636422059229142,-0.4889095261169641,-0.2689420242683936,0.63671898416684,0.03092276184368488,-1.8431753665360506,1.6730207314234204,3.008456445293387,-0.1634746468933117,0.8524265586823806,-0.41893402542937247,-2.5992339369080155,0.8847323157407957,3.768276761179685,-0.4211494146626938,1.2100533738799566,1.1188427668947174,-0.21072492455521807,0.3994821325727165,1.1630536665021922,0.48237731427044583,-0.23413301169497322,-1.4570460969491705,-0.8688575406258584,0.5657469297691863,2.7305147153232285,-1.0429366625736833,0.7798940090071993,-0.9844883556724552,-0.23946229199773386,2.8718437981618368,0.3959238183239431,0.0685214643592547,-0.5243890194769628,0.38633253536680184,-0.9137290341776054,0.005462677020200035,-1.3521224386938397,0.4469863009592279,-1.3489872070903366,-0.15326846866672822,-0.24804978787834076,1.7500509177979358,0.5015258084608064,2.0092365639001124,1.2396344175807212,2.976062220781928,3.9035167606199144,2.7338576067877587,2.9446216179215456,0.32681810962240804,-0.6410107107100739,-0.06592355325457933,1.6137155675319586,2.3619115550756553,1.8087128396495193,1.230705103214474,0.8228235937659027,-0.928644458172665,0.47537604231446834,1.7613360894599468,0.40379482201967715,0.8676203660635379,0.10511881353693515,-1.9842389697517993,0.30663981725615064,-1.621305558387083,-0.42126858276881024,0.822312993097719,1.3542450011005243,2.1197688001484485,1.765002489548548,1.855509202638005,4.159275911362746,1.717182332112518,2.0748629287852545,1.6656362156376516,0.7346936219624998,1.3597662854166295,1.7804660546743214,2.9086425151806714,1.4671805518714716,1.8650024763937036,1.0471087494615692,1.5931289173864296,3.8737344132366927,-0.6534770821487873,0.5592184711704311,1.848986479733692,0.5114295372914188,0.48873960070734124,-0.020910535025822477,-1.3836101753966081,1.196946988920177,-0.014910165099230112,-0.9980108860278446,-0.6871375461141538,2.769286050270024,3.423819007599024,1.50457318994373,1.7377995836673767,0.9701646859852467,1.5119240416008224,1.2650817423598637,0.6038165629525045,1.3892583967110361,1.2303331319380648,-0.1353977822558333,1.842027013274221,0.04006938441327718,0.7671707529204594,1.5257460985680578,3.10958427305978,1.6562244948623388,1.7480301820489594,1.5119079801490294,0.8444877923938903,1.756785816673109,0.08209358061386943,0.23174828262646657,0.41882664104661516,0.664119513590209,-0.4190707482766915,0.20566760912129053,0.6735924426233623,2.4416278209291207,1.060084637475114,0.4736018199984552,2.0222651774441447,-0.3013804038132373,-0.5071775042985507,0.33614332401395275,1.375839099221602,0.15419425994383554,0.16743439308018368,-0.20673241735877956,-0.12974848774142939,0.5458656271744747,-0.5863926977119844,-0.6691859038427652,-1.35234973303423,0.5048362313897223,-0.9848868739443987,0.16289895365501045,1.5758404968675899,0.7723373646553056,-2.57936745613671,-0.6204398252137926,-1.5206296863291122,0.4130072448514997,0.16201145243971177,-0.6748047402556208,-0.04430043624728424,0.08379993329801011,0.9706464762821568,0.4704994852253628,1.2978601569716732,2.3318694576875676,2.5813519762963253,-0.6238668423573449,0.7469423859627221,1.0096765900635398,0.9286214546166666,1.2817207960478016,0.06064190907232297,1.2286468595277373,1.7599519986672982,-0.18228607916636638,-0.47353429953431836,0.14141185154985683,2.291438881507739,-0.1780772587781057,0.15369193373232998,1.177198870593341,-0.26859960445572933,-0.930192026542821,-0.4549015101494755,-0.9058623051480788,1.75550483912163,0.22643184287739185,-1.3716379983653022,-0.7952209074702891,-0.5723360414635745,2.2637930875095167,1.777139403866225,0.21349721650388023,2.0618450020069465,2.4851653308300774,1.2088065606416292,0.7320713720539082,2.0700840420636935,1.0256552881137029,-0.38306107855452554,-0.9440500075235607,-1.2048370309179126,0.06603952039114566,-2.0537882398881715,1.1704396257258312,-0.26655234431229907,-0.7930767899642471,1.3286078805008854,1.8581832964302845,-0.5373866991627928,0.5874522639293095,-0.9203362581780857,1.349254627143009,-0.35589165020599234,0.14680857158396682,-0.6343062345827146,0.09958000670920539,-1.836533808797959,0.08788518462138568,0.1970323752768404,-2.0362498478515536,-1.5691367900909623,-1.5483603000539308,-0.32050415143419403,-1.4312248738500921,0.7942114237220778,-1.4787311318900955,-1.6088891661111795,-0.844293769774291,-0.2867633460546239,0.2715670046321752,-0.09466409658882317,1.65173681208281,0.8952342360677393,-0.3121452938942329,0.561329025725416,-0.4217051992365551,0.12419864568998287,0.71398215568225,1.4819980698875883,-0.0963689125182726,-0.4541601246814671,-0.18090714702631985,0.4973136953056345,0.04797541602132672,-0.5476777535490445,0.8736038762025391,2.5035436606076398,-1.0967139967748856,-1.5631887923482457,-0.7568855086247952,0.30961549864332416,0.058445453198093814,-0.37037354101087544,0.7656069338146727,0.18646933821160774,-0.7010144350961739,-0.7880416649556359,-0.023859634574060023,-0.7847373662262991,-1.5615157621582505,0.33436808483534636,-0.17135435059894888,-1.3335079719075718,-0.5609014703506078,0.1631131251418489,-0.21872129733840381,3.694469291884013,0.5549790059739336,0.3149254939915133,1.053447209408026,1.2066421610859126,0.026449865632593276,0.11739382003493731,-0.26163468176523696,-1.6267922013015232,0.03681976648755827,-1.8070697816676309,-1.0066329087493397,0.534115015124283,0.5690246749382171,1.0736495408741644,0.9461794986354869,0.686393304928381,-0.3733608851672592,1.629028854031163,2.2694942456672154,1.1581487973518507,0.40237433777662057,-0.7323173455958736,-1.3631218464791854,-1.808684767788208,-0.968742501279394,1.081956926302395,1.0755611706957497,1.232384616740155,-0.3350079228356765,0.49266614472456133,-0.15079180179350415,-1.0656725945008236,-0.9551251454268239,-0.9131671465466321,-1.123364811165403,1.1219624261209056,0.07139725258998404,0.09667858347052777,-0.2505026158028149,-1.3514383584928307,0.1272910457088733,-1.6906607447514288,0.4491965449451689,-2.261097389231095,-0.6907374304417252,-0.45385642534052856,-0.9503761965762557,1.2258844923469554,-1.956062917319474,-0.9181109044243423,0.1985000028028141,-0.1665678611741024,1.396997391212489,0.5712591312400935,-1.2001873581999125,1.2979742131915986,-0.026742165318185185,0.3657435090184454,0.018437705364034947,1.4645541230520571,0.010610829012073015,-0.3456166544039133,-1.3422003084527394,1.1413846756164376,0.5465934210771094,-0.6941013853251603,-0.5385227162836811,0.10906942425995991,0.08762950394066342,1.231004281864825,-0.6315905094163217,-0.041107227503852095,-0.30889065895553536,-0.1859159478486948,0.8241073494276752,-0.07783569075064305,-1.2746814124408123,-1.7543364235606225,1.4010400841587387,0.03694702917510569,-1.2725977389632617,-0.6941155244802466,-0.9498839206602164,-1.2001562116137359,1.1012577465346682,1.3160129745593805,1.3683446607022967,-1.0815043365014172,-1.0742753193541288,-0.1496789391969288,-0.29512982368866153,-0.11965543601802868,-1.2602177633735654,-0.12897992720190607,-1.4905795515287918,-0.2420430344905949,0.3669541474340436,1.311793876868106,-0.35381527333201324,-0.43457748397629475,1.054601480713308,1.1855836279509433,0.802875499265185,-0.7150137440668863,-0.30805235869272407,0.7995080541588832,0.1552905777820716,1.2069796019122851,1.669422730959707,0.12714481373741415,-2.048120643944214,-1.0799874833069258,-1.2516240753625352,0.08493390268314893,0.8704662582458675,-1.152405667993771,-0.13119741543097344,0.9443900377707088,0.5434414228781446,1.481989899704333,-0.0909007623405748,-0.4226760610165006,-1.2183961322596293,-0.040056121787237595,0.3303314132718963,-0.06194055239579969,1.4734057767081157,1.5106214472423698,0.32554565937134655,1.7498710650105778,1.492485818370444,-1.270797439629633,-0.22912027946370456,-0.22415141723376902,-0.1297452094541654,2.001908766824789,0.6955859068010906,-0.6895835756437884,-0.3500993804763805,-2.565185737433656,-0.42270193602686157,0.09275318160340128,0.7246446980409402,-0.48981076011018804,-2.2382265162355015,-0.777225485546488,0.07524520244161173,0.8928565975627156,-0.08577966534513123,0.4267258332986405,-1.2028231875937498,-0.9910599785311196,0.3840619086296344,2.3242037106046087,0.7701361047517932,0.403308300209928,0.16536952711670003,0.7555410636238103,1.8964794756454242,1.4361196774338676,-0.1298170913421171,-0.12411945770785857,0.026963642156197634,1.013117614704207,0.36145349221180667,1.5422737961457644,0.6280331976639029,2.2063228178271026,-1.7429646693088714,-0.37161268726232305,0.5882956952634198,1.1216721201540714,0.057132560430589806,0.9696236657738939,1.9361549493572097,-0.4623712284317951,0.16898144240680674,0.5949837083543913,-2.1830739493783398,-2.298513577362645,-1.2175012386889206,-1.009786415830628,-0.9695368038858964,1.6984394294180054,1.588644298397115,-0.03566798155137024,0.7132147838670824,0.325033152061543,0.9937042731906749,1.0527557438419213,0.10973706520954545,-1.155076614789567,0.5640182991454833,0.5929268846784755,0.0011723286830841201,0.15821053159883602,0.34356257531556295,1.2318867894287757,0.2043342505905773,-1.138562866788558,-1.0923825014266635,1.713309139835563,1.7439647883983527,-0.5341306271138736,-0.6454693862748032,0.4405142178831051,-0.5685812825566705,-0.37154025033768723,-0.26700901972225355,0.16824849863632915,1.4361248069868957,-1.1289250607725045,0.8035312049790098,2.4372907286350016,0.9160317047324396,1.242546237209563,-0.9034518810408623,0.8733266480259936,-0.34418654004278654,1.9336381960417597,0.5806584584343534,-0.09067888448164835,0.3550153805491275,0.2827178914452121,-1.1010031095082993,0.6697741991332007,1.461229938685868,-1.856980094196368,-1.0793640821049473,-0.47507675059013305,-0.24456587371420194,-0.8771140626842877,0.9355650793403789,-0.19398800171324795,0.302282739893915,2.112080308008878,0.5302928865183879,1.0767199972232164,1.0191417008330925,-1.3113762193749154,0.32245765665404225,1.2686299095972857,0.21033237429369372,1.278796434897145,0.6427127137535763,0.4876955816751357,-0.32027726106217747,0.5097619336577592,0.34562352405945024,0.18651483626100113,-0.5746468785104175,0.7522545008678642,2.053307551740026,0.04500676864090047,1.6847284641269524,-0.14338128630203584,0.2911461316050294,-0.5563182211466171,-1.49252991155918,0.4414299716639561,0.4199604238697264,0.851309143320623,2.9091473126039658,2.525342717765304,-0.6067073002838586,0.8073526676239519,-2.5448018026756776,-1.1015590370326176,-0.072540287003216,0.06572113601278849,1.66438330425559,1.9807235355292292,1.2474302171008154,1.7046337623699435,0.5365630131574447,-0.3465620768172165,0.7505105132108054,0.6627035568277692,1.6475063386309279,-0.23479573851830046,-0.4681366941721219,0.35148244027089687,-1.8381360306843122,0.4255980456957436,-1.161038371201839,2.9124072716613965,0.8044188740595186,0.8691600447936785,2.0659178540621435,3.569918763666585,0.3145375191124096,0.7789298774493446,-0.37137169587986685,-1.8332774467407797,-2.308684231806399,0.06449578103870908,1.354154295058449,1.7056829170033492,1.870175591075618,0.4870404624701775,-0.3791526779336348,0.43577103571215603,1.3024720852016334,-0.7488733003058762,0.4291466861062655,-0.3146934407286972,0.8337180738329085,0.9940242725860841,-0.3554099811035206,-1.0920375043445973,0.6680739141937341,-0.19411266361864352,0.43694611096825864,1.2421819334251158,0.5475981656770471,1.7742098202656829,0.31943418175083255,0.14387528937185226,-0.2520407960016152,-2.900713641610967,-1.1697470744568221,-1.7520108482277532,-0.9309145592137723,-1.791274127532887,2.204891825427499,1.2210922770655075,1.0672521946274784,0.5782386082302604,0.21582497559446254,1.692941191406255,0.995590077874716,0.8925910997622992,-0.6987899240019019,-0.11444444567781205,0.2451322878438553,-0.08223655953919248,-1.4855939548123944,-0.09588601954118277,0.7689277062751726,0.9473543409755856,-0.23527550958987442,-1.3000628025850307,0.007271032880552798,2.4010532239771187,0.9939791659576712,-0.23073389284669774,-1.533286231530935,-0.11500261200414379,-0.7810080020067911,1.8595170514120976,-1.2220863318027062,-0.19212628849963623,0.2431458390824583,2.0171329689174216,-0.20277018335376545,1.6092823317550182,-0.10557571007728231,0.6538433512910304,1.4781224350843323,0.24743101343111526,0.03551118395703142,0.1395443383738816,0.8177148789941846,-1.3433749271374011,1.6575497400723402,0.32295960410644114,0.7084336716959554,-0.40501715397285765,1.2017184562683463,-2.2691545472446584,0.43349067222918874,0.5946308920913559,-1.223327028561502,0.08529048799827692,-0.8346101542426406,-0.20321737744386537,-1.8901801993925886,0.9511917824384252,1.086479048128022,0.8241863709975017,-0.3704274199751973,-1.2212106281975705,-0.4097729204681043,0.45159563368669037,-1.1364858369952031,0.582288438610989,0.7798983869253243,1.4042661389420052,0.616322022980713,0.6126692905050899,-1.2693543354645862,0.2677422103227687,-1.1563473062504521,1.0089991464087367,-0.0699878364316002,0.43391539310561367,-0.7477924857114385,0.764168157940092,1.090197278979711,1.944766956509139,0.5294965370853414,1.1335139616310845,1.109944743079797,-0.07352356573682212,0.21581198660825385,-0.8584727515175784,1.1718293757295948,-1.4691150465050904,-0.408883857096154,0.8051961859579572,-0.6213541542754585,-1.1865934798909301,-0.6194995140868921,-0.15264311837425887,0.36338419089746427,-0.33682332143898164,0.7783061413502221,2.0780007493638304,-0.03778707341493356,-1.3442546973072487,-0.72856215269045,-1.9305106155880205,-1.7436753820403668,0.02546535544280384,0.5348228827847293,2.1062995999521132,1.2770948557589166,-0.9425444792825678,-0.8449530506090043,1.8786076865658237,-0.09088475359004027,-0.7914112115627749,0.5839447891839715,1.7269703688070526,0.9491001971673831,-1.8442680244035223,0.5146583536058087,0.05501594180735038,0.46038492630420214,-0.9008035264535134,-0.18477868533031747,1.2463805073815406,-0.8135605335204162,-0.9234058887056208,-0.7860099762480706,0.43028358446025344,1.0303022110714946,0.9375490168926116,-1.6894209703721277,-0.08875806822829144,1.3183636498202425,0.6204155600738374,0.33722384723760557,0.11721134632488217,-0.8924335157676369,-1.0012511785375466,0.7772340152169238,0.2979088977654147,1.3783705762041136,2.0627537220678036,1.2922203496947844,0.35595523130688017,0.881967063857937,1.9612914366306438,0.5920655052771885,-0.7021202664073556,-1.5309418675560844,0.6473936601280705,0.09073929853022038,0.9590500996236951,-0.4013246320986225,0.16003679857874564,-0.17338837585916683,0.2696186992984486,0.867986917604275,-0.37218085067063017,0.657663912574204,0.6393875170948007,0.3105397880835404,-0.5769995434721905,0.05287833192346369,0.03500443445460497,-0.3077127331106237,-0.4115120006491573,-0.22210288425393962,0.2375497896483924,-0.06608457703887617,0.47666271884860834,-0.15998228616078963,-0.8978319421906664,0.23854994899827509,2.1861897637056686,0.32053148900009865,-1.8528219272649573,1.67189265007962,1.2017816606910556,-0.5544986005938342,-0.8888984694434812,-0.3609408005512349,0.8299482416001486,0.899936750548176,-0.19551470179315655,-1.0010170498095294,-1.0403812659803828,0.7807262056687436,0.9209671984336631,0.21043007425003898,-0.6272508580604033,0.611237476783709,-0.3076946038635133,1.3650140384503142,1.9321440536100734,1.6169113538901505,0.39787781434110386,-0.10893560177278083,-0.0997985631730354,0.4342743541756179,0.20567917923079385,0.5191915158842767,4.38004825183125,-0.4718277689053156,2.1098452393700415,-1.2143603488894232,0.3528836178851405,0.22834217398737558,-1.4072444796849284,-2.812201232188071,-0.5203875636316593,0.8049220754183073,0.45777243331243317,-1.2896575074566936,1.6616368294324684,0.45581231425868085,-0.880650164766699,-0.180528101751186,1.6704313839265854,-0.8392619271803252,0.49024486854216126,0.2674167140210387,0.14342854252388496,-0.7626801342794822,-1.3610054952430832,0.2506025591104757,1.2377428817166756,-0.035071433777871606,0.07165343779571402,0.14705634211158652,1.871404677583198,1.4359971221731513,1.1006860710280806,0.43185808556346256,1.4476775214549384,0.16495885741222013,-1.3777631852212844,-1.101402551024963,0.9238000367447627,-0.2282438809223849,-3.2993652656650614,0.1050325525410679,0.9670920944320646,0.8422795286866582,1.3583210577596627,0.349071502599242,1.3221104309826543,1.4722055839351427,0.1723928873497304,-1.1497235465306839,0.7185312393166857,1.28973886141952,-0.06329335779159911,0.9981027519164322,-0.45067872155826055,-0.4704763339259973,0.6446166703969272,0.5120877467812264,-0.49057594060403337,-1.6442147537610978,0.6912678881270496,0.7147624705536827,-0.229983109994159,0.006570906221253377,-1.1483464533981622,-0.7055284398993549,0.6900193636531994,-0.992763493180866,-0.37301368257541967,1.660015117790836,0.7382179357175551,-1.178107102699048,1.5226042438870635,1.5267342699935398,-0.8969451616065494,2.0618791406685437,-0.46914899800615983,0.9309697878099992,-0.33966094320447165,1.3132817182214251,0.9672120185028379,0.5961373953690635,-1.3512053590731785,0.5516807125552353,0.9556742836633586,1.3829580425883288,0.13625042201932064,-0.4165697527849754,1.1636199821804953,-0.9336354224177004,0.48534813211246497,0.8386856793440762,1.346121185357446,-1.7877406218812386,1.2886584140895028,-0.6356265705467616,0.5832685852707469,1.459096668845034,0.1290975636378567,1.3120882940854526,0.12347144902431116,1.5504579874357365,0.06718276153678565,0.40476904844460476,0.45362747530398095,0.4833791014554616,-0.7612320370637828,2.4876581224581806,-0.5542837552926194,-0.6274988068151873,-0.12561382846486868,-0.6959382165282902,0.9196627400636821,-0.10359013019066228,-0.16865986848893708,-0.3865838689889908,-1.0569949997530188,-0.4633532658922677,-0.1282640349792187,-0.16278019286272347,-0.7152858682836146,-0.4623636273031799,0.0028029032363160486,0.2238162085038976,-0.05611644905690299,2.597018025270646,-1.1930775811570378,1.3009639815047447,-0.893889465011335,-0.3712884514148936,1.8648419232229234,2.3268588356025304,1.2407643857746364,0.09355052961119137,-0.38035570539591407,-0.7431223756803171,1.7643700478426496,-2.722792220868041,0.5645320463587299,0.3372910281055358,-0.3985383426383849,0.5124086890737177,0.24658819229383735,-0.41145886699458845,1.968840703028305,1.176569772753627,-0.9640291326284804,-0.2989231704109337,-0.6522588436518133,-1.3302060963290734,-0.7150097949633434,-0.3549943262162477,1.9754939766522348,-0.1657983494092867,-0.4595269697640305,-0.9697757171765834,-1.7082479569564248,-0.5466355577094463,-0.6942512211591438,-1.0624402469747123,0.10722863821208825,-0.9824251486548408,-0.40231587450399003,0.9647918168980072,-2.9912141558798466,0.48671641702770824,-0.21926047150171735,-1.1143639051053353,0.4535885598736574,0.44310366533772544,0.037573486191600086,0.09836034899024472,-0.6403322072522436,0.029816007086135073,0.12772567895836326,-0.6024340027773124,-1.6369894217177634,0.8545669598894917,-1.2974824507517786,1.8571698469606746,1.8016738992333474,0.9389002778301303,0.02987081173946392,0.8503591237411919,-0.4463524493636451,-0.30261361572520357,-1.0230427746089001,-0.5030690070923655,1.551126868320923,-0.3651947942841967,0.5185836045694017,-0.9004969392437391,0.1892816618040037,0.7358723248357429,0.8039634326739925,1.409478197588421,-0.22675564268900425,-2.2469782696135985,2.300860008997394,-0.004291572503103059,1.0453071173393604,3.0027373311243784,-0.2807513593880999,-1.2633787178024751,-0.30306064643361885,0.08211252401409043,-0.43610377823908403,2.367183767560717,0.3204663809865215,-0.5746131771650215,0.4613788538604891,0.14723517853435406,-0.8524301545808849,2.91308568697218,0.05565680757591692,0.10548494632822061,-0.26319513711994685,-2.1414977325647104,-0.020878101336293198,1.0295033826300106,0.8001186608447552,-1.0651688219586872,0.9014127799789305,-0.1032333877683191,2.1985060389715656,-0.8162841775431356,2.0861092393955762,-0.42621215942519947,-0.9208795965118748,-0.8274497850311242,-0.2995810845696853,-0.848924076248872,0.9075033481793346,0.010724147872090656,1.2913149148236758,0.6901315984979633,1.768019009940598,0.26672684096849214,-1.4749248974119993,0.42365405242790083,-0.6915300254752877,-0.32273843232135924,-1.1161760305988282,-0.9485938713656953,0.1790577373927438,-0.9460936161635524,-0.47744447873803775,-0.584617515852191,1.2092891769657574,2.547192694747962,2.106057764377622,-0.7130359103566609,0.222558389619012,-0.8177647763646558,-0.33326432758503016,2.162449856521198,-0.32789622015641895,0.029397835794378192,-0.366538394157167,-1.804170121635211,0.7035484454971781,-0.25539598283723475,-0.18249417479674618,0.02830487026441848,0.7747392138918685,-1.21091190375146,-0.9388355765807957,-1.1610686449766692,-0.5494592662257953,-0.5203230024276533,-1.7702124575788878,0.7226850938378139,-0.6408933888337782,0.1321721635064948,0.347899414590585,-1.4867378663216715,-0.03135375113251605,-0.22334700292474557,0.6446003498414056,0.6310465266287599,-1.3713335744260096,1.2099227503054288,-0.6723747932814514,1.0022599792750884,-0.7932095001443864,1.99225444143552,-0.04127648390104415,0.0860772440044132,-0.19884776054907916,-0.3076616816258357,-0.6634177814967486,1.2135667109296626,0.0578516123344523,0.962455832326589,-1.2486833217149138,0.6720315509059264,-0.9437201748072177,-0.13820441358532456,1.813743225558103,-1.231607888265969,1.3224759586196304,1.854170052098907,1.0529508523796904,1.2262047664931768,0.014834536394226425,-0.33296413191636476,0.5022394598158885,-1.0456358080764954,0.7743993354327848,0.6312023985544181,0.36570352980313503,0.6114790924845358,-1.639258610229872,-0.10198907333818967,1.1773872859987817,-0.5352436933365327,-0.034513383586627464,-0.32960242393490286,-0.4721092253792599,0.6229804121408313,-0.2872921458737806,0.5110223304254173,1.2751654685731366,0.32520464436336005,1.5788539132381827,2.258749261588231,-0.6431847177830932,-1.2263280096070464,-0.8846548572467716,-2.4910265352182144,-0.16774547955409705,0.843078256372949,1.2531694510097375,1.6586105330312029,0.010479930422824071,-0.6733816037440716,1.2938505936238867,1.7956618475797084,0.17199556204000654,0.3964645509446111,0.6045095673580588,1.5030754268769717,-1.017494111517886,0.1810405637328385,0.8149726264559838,1.3607868670496777,0.6946945019242068,0.30930178638632055,-0.030791993443076388,0.5156612788954791,0.6370842135128791,1.055140044451555,1.2565258053812591,-1.222329395650719,0.9670294193361691,0.18202290940446628,0.6939222407335777,1.5143408543104042,-0.3729715899251924,-1.8507357234716977,-1.4297389632768347,-0.5399880678416843,-0.6125370296917005,-1.875303105612617,-0.47316974486619884,1.2050914933211183,2.0245441517747227,-0.06111373848639407,1.5156928135593968,0.5463127051793565,-0.8884620391358938,1.0734002376084777,-0.26955120428228907,-1.1270454873760385,-2.0827545031490433,1.339388303114552,-0.12668661255003535,0.9309057743165685,0.3508103580415997,-1.4425632538482152,1.2122204139349102,-1.9818941208071654,0.841306676610313,-0.40092163263398556,0.17445756350624433,-0.9385496602845904,2.804412081704874,0.9409551543416013,0.33385562803090685,-2.1667799632755145,0.2590787029692666,0.2750734465110237,0.39922540494594694,0.007093937499631775,2.024844786861235,0.04911200815477509,0.9869360869525533,0.6730085360208737,-0.2237218568501548,1.3743380638431033,0.13950688700275193,0.6716246312484201,0.5435657184431488,1.3895692493973975,-1.167788694674298,-0.5426306512912152,-0.06137793305036393,0.6696275881624687,0.24445973154705558,-0.38375375836678444,-0.15873634231616893,-0.6144295513978629,-1.3332536969554654,0.08284065661953008,-1.0290126987013022,0.33847458574785505,0.07210840696849372,-0.6820729779187079,-0.9093958041241043,0.25541469232333686,-0.44675558757179246,0.2981111617272822,-0.16349643524284618,0.4128925460398436,1.7760058406958112,-0.1449333855076874,0.027146755176678274,0.8892326412245046,0.952845128181405,0.3816159592766006,1.397536799048229,2.0185763114057163,-0.4730694355820944,-0.14447307135939916,-0.34179344797754835,0.3137913990950633,2.2175527770658765,-0.4655657280172399,-0.195341311034864,-0.10484261595395485,-1.3173386010565913,-1.1623318485216056,2.0873276297249257,1.0829276393526364,0.7151079903587388,-1.730899445565476,-0.9736333735738982,-0.7880527068627741,-1.522243589046498,0.6763499120205027,-1.303520657091646,0.38561761393457933,0.48759405816949497,1.2722926471465092,0.17480224813938722,1.5603843363500627,0.2588686963535887,1.5806624817930564,0.8506037854767503,-0.23368212342626848,-0.6132581511835737,2.002060710914538,-0.9675151415315578,0.5671635694477593,0.4330941141115058,1.7563461192695626,0.1643140747801367,1.1303354233887732,1.6844913270796893,-0.14009954881847678,-0.2605417930965533,-0.728167911545214,1.406943494877182,0.4931966620114621,-1.947120506380195,0.6567178189103918,-0.4891207745107619,-1.5218228209193339,1.442234319949548,1.4140983279326527,1.010599259602751,-0.34627314927231934,-1.6748276004667086,1.1383195442303946,-1.1723622734518628,-0.7184230828142296,2.2116940813847386,2.8783623892161563,0.15201294382721445,1.3929944330118913,-0.12701749592647324,-1.2029510269293804,-0.0630389321264649,-0.41612686804421173,0.5128350613987885,0.22837362068740705,-0.5643777138252856,-0.7509349245920416,0.7847278109766663,-0.8051144923955081,1.0145528298050703,-1.206979702353183,-1.1116525114156952,0.06225719502333481,0.5335455855111708,-0.9026568700468223,0.4666711605773542,1.6075598198692327,0.8248728322803482,2.376247197826957,0.8052689883805567,1.019001178543634,0.6049883167271866,1.0775748908596707,1.02971736843908,2.2139940013661543,1.4350778701775404,0.8827715533366886,0.31642302634915503,-0.03881971036389617,0.34574369515968245,0.9310674600833386,1.7671485311024309,0.7481840144586084,-1.9080284498114946,-1.9048691582389174,0.3224201156957239,1.883288074008548,0.6013831479986681,1.6649573077280797,-1.4683326716476461,0.9890271483263605,0.8709634542745353,-2.518335315487212,-1.8333644506400342,1.0119810424502602,-0.02419296782612367,0.6827894084435114,1.4239808095122144,0.13333164173982381,2.670819012482831,0.7006190132988248,0.269835527407444,2.534684538514149,1.4424653670873426,-1.4713578511476475,-1.0405186550579542,-2.1899853190724268,-0.6815444053614766,1.0839809842262293,1.7559444829827293,0.5472049841341191,-0.07387795396060315,0.20429295951659043,-1.2709098243652384,-0.9691396998684254,-0.8880742443596658,-1.9249509714709605,-0.005559458310001396,-2.492349989905978,-2.6006299154434664,0.010874877992378835,-0.10570217948505592,-0.4141565172646544,-0.8590463502025734,-0.22601732716157927,0.7249098580574355,0.8144884306203104,1.637258207303062,2.215079722902525,-0.5450817370996694,0.9781564367146184,1.4460852155349277,1.4716431751379662,0.9393096614958681,-0.5068209509162355,-0.04057471984464998,1.2724432771996923,1.018688706882706,0.785914603659155,-0.6829963705790797,-0.6986536213365016,0.026244089173530848,-0.6265373126643976,-1.2957269816708872,0.9090053822298477,0.7077191582097714,1.7717041328174388,2.783807444803431,1.224839341055815,0.5484594586919764,1.062374784204723,2.34652611144611,-1.378936001541743,0.06907350229416545,0.31538741855047925,-0.9107380854979626,-0.07677201866536029,1.1381961138289212,1.1179417517864572,0.6308774624161875,-0.3708249277909587,2.408124048375291,-0.24209340764699525,0.9565652406354498,1.1696342158130704,0.6528622536323574,-0.885579615870552,-1.9162516151482945,0.213743940032302,1.056212149676021,1.84046623310031,1.1302338498800313,4.434578187915,4.053388245740151,3.951043970579035,3.8730389520084603,2.373000270465467,2.337147271739697,2.1812665752443423,2.227542168282698,1.2476692012584836,0.4331713369133215,-0.7058838440341068,0.2082533909364558,0.8477945841169423,2.7394028612300083,0.5066565251707568,-1.3885716793361627,0.4443238775567912,0.7943842013922092,-1.208102555521733,-0.09376031299118734,-1.5750293325679459,-1.0057932914036833,1.407854172596241,2.730672226134515,5.71904936068704,5.37775280899161,8.186566828355314,6.446722838596334,6.89135708827053,3.68195746991076,1.8969461397947902,-1.280872243964413,0.15506718207478232,2.4454286488802897,1.3800198557883114,1.9372214960212437,1.1271162672872745,1.041329243793244,1.7624316854035689,0.9658574517461705,-0.2355310830761282,0.7805139170522003,-2.392237873527442,-2.2009595355368003,-2.330753053084541,-1.0081388143259349,-1.0251348104589146,1.8327633645580463,0.17628600391197125,0.2627466046307449,2.2784117907302686,4.240688048092449,6.296807225461239,7.933387283683002,8.169080241412406,3.817119917326154,1.349087469654379,1.7075413192405098,0.5588522244359971,0.7042309261840193,1.8219501202895867,0.046418544549479995,2.7062912982918137,2.897647869278767,0.33957568940651156,0.8729826724997454,0.35648807157949475,1.769400865516522,-0.5310222623915554,-1.8489326893820661,-0.2785049488104384,-2.2527159922594713,-3.1330088180106967,-1.0869661954941503,1.2373389069777982,-1.2771173089554453,-0.2789673969805326,0.6040762593910951,3.653496822136884,4.945981106571221,6.086273728207026,5.178383738942199,0.2542157524383418,-1.7044233916758482,-1.3353769235429727,-2.915818819831749,0.7460487432899374,-1.3384242178942025,-0.577002997378395,0.6140091964767562,-2.0300552284522664,0.035890428094908715,2.2416826674094357,-0.1650818970388874,1.501221823923715,2.4060948398327917,1.3983871606243181,-0.45334074317497314,-0.017587440927890444,-1.3081054998372812,-0.4613096608866707,-0.9654459227411689,-0.03059356080776705,0.6880297118346848,0.28072346983165464,1.1967945389006147,0.8266018229530834,2.12147919534659,-0.12323473938959036,-1.786005671316552,-0.4195760865712415,-0.032912196899764004,-1.3575423541198832,0.716394036126925,0.5052306326705206,-0.5203842868662573,-1.5616508665898883,2.6129206833595147,0.10068708552529514,-1.2587878238853614,0.9416347019396688,-0.6518520677581618,-0.30337551265010143,-1.6071763785956283,-0.463868771614784,-2.25058845278756,-1.5898324107593964,-3.3372817771029717,-1.6256155385693005,-0.3057238141555279,0.23020414845185114,1.159411711099095,-0.936523853582331,-0.5007829162452717,0.19054758252767143,-2.1003871726877703,-0.9546227611941576,-0.5194469746394227,-1.6970638977355945,-0.42409019258317315,-0.07711868951227444,-0.5952176840424753,-1.435874368885222,-0.7654773351372474,-0.9757922444102887,-0.4468125342942445,-0.2518340897374319,2.988031278149038,0.3014247715832435,0.40659566809658815,-0.6116601377706802,-0.659853699095062,2.1768167505029687,-1.4973920969260592,-1.9105559122965636,-2.940102629737783,-0.351123552121421,0.1173574256538471,0.6684541354191634,-0.579294559517894,0.5267185744918178,0.5178999820435594,-0.5374853944988378,-0.2605904120406127,-0.15955558616154397,-2.2045600693367344,-3.219474114004143,1.0669460879553718,-1.15206495154512,-1.292153914142204,-1.9430022959176312,-0.15691214604318507,-1.115251914520269,1.0952331560441522,0.5412600805155533,0.009637924081178,0.7367622936160937,2.065772017306253,0.9047940419752939,-0.39386941435086054,-0.14817611419485463,-0.8113412178324856,-1.7937534715764123,-0.379195766966114,-3.4823076754142654,0.5287061815919818,-0.7850481004771952,0.32278236886925593,0.18089737794507132,-0.3334489243564401,-0.43767538742162915,1.2068011893421176,-0.25577183476229176,-0.3172255977889984,0.9033019733354556,-1.1543816583757165,-1.1261942467959778,-0.04733104729879598,-0.5405165144298696,-2.749299247005811,-0.06651798666813287,-0.81943299733162,0.20291241767784862,-0.5203689617879761,0.17064959701615323,-0.7008818443202234,-1.4573893151103032,-0.8623526832036001,0.9154047486258475,-1.571270572581784,-1.883687888737433,-2.054548735551741,-1.1411432084696917,0.7064062385784577,0.1552976430756546,-0.865668380438566,0.2231189361962233,-0.22036792562197022,-1.1204879191612935,-2.9984075925634235,-2.862448043305084,-1.198239461432535,-3.749491887845143,-0.16242910804876454,0.4726243727740791,-3.701496244246088,-0.28241702921817424,-2.2029730425452954,-1.0453453384223854,-1.0725318731058875,0.2126938687199342,-0.3240989371273534,-0.15352172957425125,-0.3739920328307591,0.6436623010295364,-0.5487839466412381,-0.7624658733362633,-0.7962842093327064,-0.7087320804747698,-0.2774182654682891,-0.40273482827401197,-0.30270827490760865,-2.2856506787166966,-0.22798923906341162,0.8229442236952448,-1.6895963672731706,-0.615314045252127,-0.6456624928619162,-0.03715699608132495,1.5904388617059744,0.8815830279552284,-1.010773784246718,-1.634883498839035,-1.0472923291710374,-0.10443738019255772,1.030200338102686,-2.3645767394661457,-0.3880916669502184,0.1070014318005364,-0.43223880127997066,-1.2537569519239662,0.4372431445359885,2.1631316019970512,-0.3423525201838323,-1.0831898093245784,-2.912390098841565,-0.6219716441774616,-0.3285752443551969,-2.12511071169986,0.7981872396174676,0.5208972066322707,-0.07882688427993394,-1.44480681348662,-1.5307015218203397,-1.3926713170462643,-0.12187885491104686,1.1887061043782279,-0.22840248978333982,-2.9620573405866786,-0.10530070863626043,1.1240961424103073,-0.03848611862904921,-0.19870446727875354,-0.9583320836815736,0.020655561350729143,0.18387588131686425,0.8035879573445284,-1.0068380575719995,-1.6196845441932954,-1.9943052625178317,-1.908838784166981,-0.562560853682717,-0.3169528339824639,0.1637125566430032,-1.6434218710130752,-1.294570703708595,-0.7241078463375598,-0.7605965783507949,0.19864564375041877,-0.3734440429222736,0.07013994129558877,-0.680092064925623,1.3273168071822066,-1.8400895714179382,-2.001490913798756,-0.05772695312736238,0.2704492965256761,-2.378965327762902,1.0511627387233675,-1.388100963498271,-0.7863464460495935,0.12328106851893679,-0.3932086217633728,0.14228970329374166,0.25561603948329814,-0.5022635860394046,-2.0861438634419773,-1.094605792592175,-0.8343627626586714,-1.3403128983915258,-3.3095488757955347,-1.4861579573978034,-0.16185863356869828,-0.6091312304266522,-0.038546519388193284,-0.8987744293149645,-1.2459657842509966,0.5391890951396734,0.12635455367131046,0.0778427063499557,1.1574317561309118,1.3797432848405367,1.1122865992461468,0.8217406950447841,1.984607442988845,1.1004645976933098,1.9347772366817784,1.474864634664594,0.6372436715344625,0.9023349865130855,0.33571265944907847,-0.32793018973183496,2.3019325569695877,-0.4242315563222412,-0.7273258563525871,1.1825431174132632,-1.4151897522269836,-2.108261977151442,-2.1511695505576376,1.5334682176610117,-1.5063340870034496,-0.4128446707594175,0.36709813893129384,1.1879009751515008,0.660838359219545,1.3707365341013538,1.1080801641578564,0.39922974790781174,0.7725347477619908,0.972774764876052,1.2631974438751286,0.9276947568238058,3.33261350226256,4.355399286643613,3.941331819529626,2.824275166820066,3.7299638156288815,2.294326895276585,3.7637646829925506,4.039882752550399,1.2800699055100107,1.262860821271057,3.1792539156622017,3.0957457355123554,0.7554013329929995,1.3455583934856776,2.0980054055951216,-0.7898301572442316,0.7498754281173261,2.731095865970701,0.36896186157504157,0.9077567985939756,-0.6372050050863043,-1.3517723419389105,-0.14130634868053957,0.6303526651271184,-0.9132602983782312,0.2698751654175678,-0.8288841317984479,1.4881820999084274,-0.32108328189914337,0.35288957326692244,-0.23757955479399814,0.6501185458600813,0.5983958207127149,1.1662413926503907,1.6909443357031715,0.5304675089125946,-0.4494421167253885,0.07590201021383244,2.0096268830006125,-2.5851598374881624,1.8653480031386827,0.19918826132949224,-1.1939213450091122,-0.08299653126135971,0.8311760091279001,0.7932639938844089,-1.7626391644577695,0.4941280162593877,-0.3795633774555277,2.56630523529579,1.0218633549366793,1.7368528785325834,1.222512847787273,1.1559180675019667,-0.70264284864201,0.6184307637333561,0.41423747373402786,0.5877718399504492,1.54324595585135,-0.6885165754576038,-1.2768965286835436,-1.1383211962989803,-1.2542044724448256,0.694888507750494,0.5822336185184757,0.13503666022086808,0.7794095464385775,-0.549983700660136,-0.004253820473148068,-0.3844662530688081,-0.37363762268499817,-0.5273714778090667,-0.16337021436659174,-0.035077490488610856,-1.3409072500929364,0.2904803632007662,9.663885031378883E-4,-0.8691720632282862,0.9703155748109163,-0.1525182384911929,1.904595261893864,1.551588029994707,1.3637197021476346,0.36207953617870503,1.2701270196985142,-1.2602467151891927,-1.62943858318859,-0.32000049440953143,0.9451468261258859,-0.5524006389386148,-0.6428623952667393,0.005352839727517753,-0.12094879751943881,0.48845034061637344,0.23569645791482324,-0.36006154308016447,-0.48445582764482975,1.4389618391592771,0.4552428423851948,-1.0952469345278135,0.42722916685194656,1.1393681598738603,-0.010718150040143764,0.7967525892404047,0.38616565339020004,0.9404897411596745,-1.5669243057436308,1.0814770317514213,-1.1028746301339911,-0.3953598640534611,-0.6088440088676846,-1.2378189406694808,-0.9201365464442169,-0.5690878892715016,0.7208524001194138,0.49869904200413284,-0.483605578584187,-0.7464939782631035,0.6482031432267586,-0.8529363760883157,1.602468664888891,0.05884824691411559,1.576946861760527,-1.0331449842052822,-0.00492093494419768,0.6080245408972396,1.2208797187127025,0.9774948400636875,0.9500587499873097,0.3646790384118029,1.7417412434668345,-1.0479560550794884,-0.1677878636392126,0.14520413660513928,1.2332373858384054,-1.5404828512286097,0.645921427734061,0.46730155223324177,-1.0784512895455658,-1.278776728144045,0.45639413943142276,-0.4322909137600625,-1.2189472036841036,-0.23311379763344686,-1.5129889520917208,-1.173181417606158,1.0371975739150836,0.6730278532511452,-1.0347052125641147,-1.74732823305078,0.8645607652268231,-2.251176997144166,-2.2579781514370403,-1.0428207585049443,-0.39013677062456115,0.5988249835219147,0.045599801942750026,-0.11893544739501481,-0.1771756513208483,0.061626430013011005,0.946959377419907,0.49744286225626655,-0.6074426529154014,-0.03759096892894543,1.7156759726561268,-1.3090096199264347,-1.0696161748076267,-0.2463374006011043,-0.2590036234728273,0.8182201830837983,0.3088696765922921,0.7809445788860115,1.7321251220474254,0.8158830916492608,1.9714799229250302,0.2107146398462028,1.9825598411811478,1.1767385315515728,-0.6554395717080823,1.0899650654657371,-1.1258870422949894,-0.5568947394787297,-3.298491472735694,-1.5175413682559662,0.5195144301596732,-0.16562279390993545,-0.2673939397911755,0.44926017703415955,0.43269121680837785,-0.9743415474296854,-0.22711686706605214,2.258184724061722,-0.6486016639169303,0.06660554865881362,0.2921788031038497,0.20169893317142035,1.3249236655196062,0.6897247145578059,1.793579861201537,0.564754362747857,2.34122252056102,1.4687011175010019,1.3865955812610922,2.8871750251105976,1.2591299069259647,0.13122169798974542,1.5356835591290967,0.5973981943093122,-0.3823482957016201,-1.301299170439056,-3.3199375700692584,-3.187173985526238,-1.7043656524310857,-0.16837807748071643,0.7327125742172884,-1.3074566173553357,1.3119061090509991,0.9790071375365219,-0.48617325478088486,0.6589660891980054,0.5874457994598727,-0.06420710804382097,0.33374388475224426,0.0018591151230648289,0.3799157132731894,0.050092341583144025,1.0699603136655529,0.1958001608732939,0.4823564539287078,-0.01799390551915279,-0.0704741583588751,1.6261184103846464,2.323114846039725,-2.4590827310073533,1.1608389333202334,-0.8601764511698614,0.6272152666194344,-2.246798989759369,0.052695880999996975,-1.4967917703435665,0.34468607090028835,0.3991938377119905,-0.6130028307123604,0.17048385648237666,0.43169410640629435,-1.3363863846409514,0.15261739573034044,1.0919350577244002,0.7482009044832546,1.4305530447100139,0.8463518023517086,0.7527122646490265,-0.725386938969204,0.831312154036545,0.8984735454315645,0.8686847386576988,-0.4825006748176465,-1.231607917153659,0.1660360739324585,1.0000962968187803,1.846968891928044,-1.2869439035344667,0.7844241558211611,0.5016289777701882,-1.3575833585992267,0.4228082154012727,-0.11058528545095773,-1.6340185167795631,-1.2748242917129915,0.7779492223717459,-2.1353208998661213,-1.0328071693762484,0.8323768390471616,-0.504117598279453,-0.585745119301822,0.5014524026214734,1.0317115200034461,2.8554082158649545,1.7581059407036261,0.008383302064711114,-0.07189587610781467,1.0685377056816403,-0.9346588187446752,-0.9670487062549613,0.7696282679115373,1.753080953787432,1.3088026387234541,-0.9150216883971821,1.3356617636648453,1.2322881392833402,-0.745006507707931,3.128275404101777,1.0278042633680922,-1.4858550498475607,0.5669027546411327,-2.1248353048898703,-3.651841325051021,-2.0455264508653785,-0.16995658113547354,0.39641469212637703,0.13215539844458216,-0.7423079948946404,-1.042676841566785,1.0432319748615673,3.1162370241132815,1.841221940989068,1.8869855359516894,1.8912204542206836,0.9093434857108258,1.6132644494095576,2.148680441948234,2.7768410959801924,-0.39033927169518023,0.7220510589381198,0.26997868571470557,3.3518052675056684,-0.5793542979610329,2.084040266952004,0.8198560636524982,-0.5261578659212679,0.24893721974234317,-0.14795563267313722,-1.0037198222027435,-2.93717935276461,-4.6311567692392215,-1.6786483108342163,-0.2157945810566928,0.7065856819360627,0.49741951894303404,0.34182147302529736,1.1697808690596185,1.2481458071739002,2.7036835356286684,2.39880711804153,1.1239597085047413,1.0425016035070533,1.054528068543413,1.9609984352163616,2.0477838648338955,0.8002177688218064,-0.9520643569748114,-0.033951567500360026,-0.6759078161551699,2.780780574726509,1.2966535401702577,0.14536207318817762,0.39945841182988323,0.29514818947501215,0.08140387780149086,0.24208255364475703,1.0666330708929739,-1.6731246576051988,-2.3451108229580044,-1.924839899379008,0.14132567674805166,-0.09054499043648175,-0.49741529696992376,1.000961806512254,-0.5191661840922436,-0.21721148333401585,-0.7780160606854315,-0.6010058657562399,-2.358419261102727,2.395152321305405,-0.7608084396646101,-2.470297152797809,-3.357957008910899,-6.653380399505226,-7.474320568704636,-6.353436468888425,-2.5627815754323797,1.4177780425856814,0.5116246286620445,1.4529589534302432,-0.09669127217361631,-0.8510181927315931,-0.030476784276873756,-0.1418035865124975,-1.2175403512967862,-0.6687943939634561,-2.2531552538860984,0.699615944429932,0.16207968959431707,0.21958939437054373,0.6902589839259853,1.1917475489627678,0.9670198452588084,-0.4796589650751733,-3.354587143139701,-4.257340002320797,-4.9809169735755034,-5.368108388727737,-7.838955007247606,-9.403799820214797,-10.397011662144196,-4.308566475899092,-1.9881061859275821,-3.8064688358624226,-1.3692299682296867,2.0264448661495598,1.0479860376690402,0.3702869102868788,0.9256732524989792,2.4400383170663,0.32484200263544943,0.1068504132637269,-1.5433081648135176,-2.375542078579337,0.060550658323575694,-0.9815708197489434,-1.3243678773877956,-0.8089632481905157,-0.4457575056127742,-0.54513635557438,-0.8431333312866182,-1.8137901093296929,-5.5468296354277,-5.8577191512063695,-8.93394782325009,-7.849518045351449,-8.088912900874554,-4.2516498563795,-1.3587091466774277,-2.0405893182847237,0.3682372486232474,-2.4976390357366998,-1.0588954436790525,1.6993123946726354,1.5161692949308267,-0.4386706110544172,-0.05629662122807154,-0.09513545163293838,-0.23402699301368765,-2.5839535796465274,-2.2300866150696317,1.371437722183469,-0.1221768790622742,1.321347994172367,-0.3760440209595521,0.39532602739320744,0.044067973306365776,-0.4491355759646815,-0.39738622566883247,-1.4109415529149678,-3.683188111376975,-5.5127186080523485,-4.854603959279775,-3.692346580655482,-0.6858397072791376,0.726643573112218,-0.34076361436360525,0.5427108566737636,0.5655590657394276,0.6100410120943458,-0.282902013064036,-1.6201657652239088,-0.048420341556157306,-2.5116684824938336,-0.3853243459566558,0.2484944239247307,-0.8284008022596036,0.9039937920047063,-2.27074115689459,-0.014149746859986953,0.5532518907916567,1.1722277687765743,1.1112930958207075,1.3987096377438264,-0.47611733736949347,0.34156080629305924,-0.9866724293727981,-1.2292651523681015,-1.5139516869960068,-1.5636465653512086,-0.6194670355142563,-0.23825756062040077,0.27026006862694857,0.16229643606226718,0.6540256541972399,0.9165980466469402,1.7831687707827346,-0.6052719693885077,2.2650309249659717,-0.17429101608966763,1.1858548446526467,0.3548967235617983,2.05582199002215,-0.3005847973227732,0.22177032422757906,1.783254337479908,-2.2587942200043774,-1.0041340843370772,1.6201613956719376,2.1651913686902087,3.0675726793344227,-0.7108354094524205,0.4551456969405484,0.33964036345947574,-0.2922955338788549,0.7671069634844657,-0.030130411632352645,1.9314106220784226,3.3093437735714657,2.1590241368591316,1.9239630373265169,0.28152840850321087,-0.960454155698873,0.9053485424203853,-0.3125481243583231,0.1362212111948441,0.06294377807227869,0.3334023464342897,1.2788783127370786,-1.0561901779533738,-0.5068890101593522,-0.29217129400756947,0.1026674010772844,-0.1456857700890032,0.39130099546343977,-0.8429744871711683,1.2146786860099161,1.1439105122827633,-1.0254218668587756,0.4540286406385854,-0.7283376718864246,-0.14196243706586723,1.4355507780945536,1.0187692068137568,0.582143374483541,1.2613874291568348,1.1067527566143127,0.362774261268369,-1.4130044133377753,0.7447125631732109,-0.8148336364812601,0.23151417034439237,0.9915242511859373,0.9885282670143221,1.2296051160998354,0.012018234860955886,-1.568657813012744,1.1669425483032279,0.10419430527624285,0.9000982866623328,0.3024155280456197,0.6283174836372285,-0.0965929618809296,0.06931156925338011,1.4046517210562288,2.760643812804333,2.0961028029043045,-1.1760156313996624,1.0443079278698908,-1.2891782974174417,0.8752533904504579,1.2871066161231672,0.9573567220912151,-0.3607176984356612,0.40284535796445703,-0.7035226698430664,-1.3344187989719944,-0.3121685301528038,-1.5912440090019713,-0.13293801004263758,0.045734685980260724,1.633305092148661,0.06718863573818863,2.358442026442985,-0.035559623700000396,0.6888773574126301,-0.384729192232881,-1.732745854008199,-0.4547771805922499,1.2998186280531197,0.0721384554404075,0.490207015722936,1.3228313087463026,1.5010041479760583,0.9180372715081244,0.6003728012560732,1.3777725970001509,1.2412184052174742,-0.4557560760582536,2.6427182170577033,0.5561582662912802,1.707214235060554,-1.2381139743794256,0.9373012549067509,-2.212688227820683,-0.5770308837607645,-0.6811368049723444,-0.2373779860745274,-0.6074528782495262,0.7672093710892067,-0.22600388290270235,0.07749923447613241,0.05660560663114002,1.2765546334681446,0.43785979216269716,1.6311546259110283,-0.12485945200617592,1.9199789835580188,1.2509281854848258,-0.14301028535315327,2.7953197167503014,0.17857898766452676,-0.3124748551851249,1.179344703652626,2.8510500451728213,0.36622761751658606,-0.5615678510175008,-0.018885364491554712,0.3380845921420663,-1.4471274477471325,0.27122182531132033,0.8096903792768139,-1.542798935850271,-0.29465634629130094,-1.0158080728350216,-0.9526625301825867,-0.595912350623937,0.700621804352968,-0.9683682792172832,-0.4428156791975854,1.2043340942079075,1.4089601466216004,1.2987124297365806,-0.43124142818194977,0.7201709230152957,2.30965955733991,-0.2888560707907908,2.5739131440923333,0.9156159712941004,0.683753228568311,1.8343406621274836,-0.32915903982412636,-0.37946037556671647,-1.722956616629793,0.7639808420557043,2.352169380627879,1.3476570378805703,-0.10576296553273158,2.1943497360720574,0.10543053009260384,2.130059251682281,0.17594806783835112,-0.8220632038781265,0.0781820345196089,-0.15792322059900699,-0.21401300182372093,-0.7287197093765976,-0.43420885832676615,-0.2954789701183201,0.17979126445459462,0.8723308032211976,0.5166243352759446,-0.01585240957298938,-1.427533284052984,0.8781397968803836,0.09905163725362906,-0.6450454092010867,1.216301273611992,0.007431304519904105,0.7309325910124996,-0.24459320443459615,-1.7665559250158105,1.0431552310916623,0.6598764738735547,1.3102871685265387,1.4673461724375638,-0.7880891556375571,1.5801654383569208,0.29669587233808387,-0.7288271593841679,0.005263776894631607,-1.3253972459742622,0.5848615560939152,-0.5014631379610487,-0.6148829453832377,-0.9270427984747748,-1.5829245767303117,-1.0517067625587908,-0.7150125323402694,2.1700243681569757,0.43280099926704735,2.034513614933699,-1.3929362489316348,0.2747113198270664,0.06060902538582579,-0.10380346777201982,0.2768410536709754,-0.8528191886435041,1.0128524218290944,0.4061433932652314,1.1403199550610514,0.1462416257331933,2.1633216180488963,2.440058194205294,2.114826248174644,2.49099269094693,1.1728732318385682,0.21753453699835457,0.8634082041146912,-0.6442183290073689,-2.3860178338178,-1.0710629380080627,-1.1350601737208386,-0.5526318501806042,-1.4979469185096261,0.48059274529153406,-2.354100301903785,0.13236703013394685,-0.11192560520354321,1.9315573355678464,-0.9185939280383921,2.172404814798276,0.887746407555195,-0.4774360555517357,0.24445662868004955,-0.5299500151090131,-0.5407741993602025,-0.7005552157621742,0.5111875572544651,0.9209287202449489,0.5571590274608178,1.2375194338290734,1.6624071109314622,1.0792528735554177,-2.9916894318831524,-0.05796938905903467,-0.5050669011879203,0.24456937424969857,1.6830664081188063,0.8918224837991677,0.5477924855673865,-0.744383439530089,0.647441953741713,-1.2341547971855689,0.6352228785152555,-0.7006905126115931,-1.6027902866145531,-1.8358281963317,1.167309066606055,0.05463316930145947,-0.1755606445473622,1.1985115223875922,-0.1109164160896625,-0.24527927073654135,-0.2523051426020585,2.3133911092332866,-0.8535453694501849,0.04727131441977231,1.87777251991966,0.555349770308545,-0.878346203483607,-0.8429139115293329,2.926225163102177,-0.44086892934805605,-0.9222373636379397,-0.5437217563893856,-1.1596745355176152,-0.2936309211349807,-0.15024150952252321,-1.6424509495421709,0.9225954930665499,-1.8110754443703805,-1.9829212284771591,-1.0800648729648104,-3.4913757059198347,-1.9591411235712917,-0.32497879136152563,-0.16795961639991264,2.5710409674099757,-0.4463982212037735,1.2012979739485135,-0.2877859876610405,-0.5282710715141425,0.3553086749648477,0.5252703492612812,-1.5079706753868731,0.8579957415079021,1.0353155374923653,-1.8473043520838066,1.2570226905405988,-0.5688550708237551,2.7567395026884536,1.832542123512745,-0.6385440158610146,-0.8861804195492408,-0.7988132730544686,1.3277876326757023,-1.5302630679616085,-1.6711000065535664,-2.7183408741717097,-3.1310788935374747,-2.6658293534689883,-0.8737575547354316,-4.568092792206349,-1.105729054929926,-1.0331317043801764,-0.32733738915825145,-1.2469156630615141,0.1640729723861707,1.1187069860100274,0.3833436595926044,-1.2822894381770715,-1.5093794027674374,-1.2228804965777662,1.265209936859926,0.3752879347894802,-0.8367436622860653,-0.008385519048548876,-0.23841064621045424,2.985607733029994,1.6466161433561646,-1.209159034133152,-0.5364925641964111,-0.7458875470697638,-0.9700910761710466,-1.6649483427078138,-0.1471091324169488,0.5720671257802052,-1.1036819059516352,0.15651346688984175,0.3513549397537114,-0.40825501882291215,0.4288885964221182,0.591560077692264,0.44634425673159167,-0.43169778999723574,0.2479909142564728,-0.8607073914904904,-1.4368628486907078,-1.723166582640636,0.1306158483197292,-1.4420074250484833,0.08962714194475307,-0.005537053479092104,1.039903123859768,-0.0847276702698611,-0.31118143353755484,0.6908311197605074,-1.2984072501222854,-0.7755738407864035,0.4689492213887947,1.9317806724149034,-0.6606372378540348,-0.9908902788294204,-0.015895630757485527,-0.6335875506211996,-0.3102218991502931,2.3681205839430937,1.4652828627054308,0.35273419933608874,-0.8957826851001223,1.020395398225979,-0.4634917906218369,-1.1387800043648002,-0.6528479333747812,-1.3422673467462367,0.4849961459767417,0.0774541144916043,-0.8806962432808336,-1.0273694151264656,0.03832858646110931,0.4640836560315096,1.0456341128332316,-0.4820506229040774,0.2905722230176362,0.08792933828870192,-0.39184814192356743,0.5844226569821342,-0.504636739391212,1.1559735737489447,0.4481476572820169,0.07388832720595633,0.048134344468715236,0.09106812841148457,-1.5202744363148095,-1.9358813575393619,-1.8927507756252606,-0.7893548875050804,-1.288025412651922,1.3025761569461674,1.339837665318767,-0.6691737592777425,0.9169964369028303,-0.9346676918055986,-1.6135466514495698,-2.840205679145333,0.0997526543112385,-1.571515865635544,-0.08256219737075754,1.4266327739638878,-0.20842021846974032,-1.351159468049178,0.9993693181949544,-0.7819310982474577,-0.8057373007005547,-1.032605084855015,-0.664113676518776,0.38511853150105313,-2.065890054150554,-1.0620106217742158,0.40578523063822863,-0.2994705215931151,-1.391677135097942,-0.12319968189132133,-0.14621387315467727,0.8653368613440792,0.7508858590451518,-1.3124077841469666,1.4796389863969581,1.634423348823021,-0.8797906124084395,0.5510675478698028,-0.16122334846021158,0.9841262938717881,-3.1358179634563195,2.163938167062839,1.7719595456443544,1.3438200528786757,0.2061011917633501,0.1859737149025451,0.8354702975088458,-1.0913068308086453,-0.5150250122774293,-0.7220634745967398,-0.6847817342883569,-0.6525746694650468,-1.819145226140111,-1.5982511655848244,-1.6247543948965677,0.45637425108143237,0.05027358821753465,-1.0547903419085616,0.2859416087300082,-0.903115227690121,-0.3161850922835997,1.006988507616398,-0.08794411897056045,0.20171119221939235,-0.9508452492656875,0.25955608975118044,-0.831341578241528,-0.7406802426393282,1.0520399162985703,-0.023514264664880255,1.6779903051252922,0.0335424880125211,-2.603367216274546,0.1980355473102328,1.32580897393656,-0.0017775081395529386,-0.02385813389619062,0.016130303594323967,-2.7681971842890873,1.403600192574336,-3.133850893286074,-2.2232204192327085,-1.9111396201223065,-2.4616501196529885,1.0056002072325532,-1.3848967203366112,-2.140774559734782,-1.2190058514897293,-1.4663442055916018,-1.677914392961582,-2.8038389951902123,-0.29756886475790123,-0.4917404577199679,-0.24259992947280234,0.8329145194709243,1.0659536110811794,0.5279744135121422,0.2861988266712622,-0.7090069603618918,-2.085376644721648,-0.6773904263567877,-1.1381498856590657,0.09412000958762186,0.7526493706668003,0.30298606732122446,1.682023921969708,1.007730095071063,-2.5811570159214705,1.5606610541585857,-0.8571563520335251,0.344061677589793,0.4897153790365193,0.3429795023226545,-0.6494633265718645,-1.0439346715707924,-0.969836052873901,-1.914304225416482,-0.78181067006203,0.3751132865750309,-0.27751695504850954,1.4911570563213217,-1.416068727522102,-0.2790022432683544,1.3563826749846901,0.34290449453927013,0.09122767919963319,-2.0335117686339,1.1814583769939664,-2.9442068485250834,-2.057715765490663,0.5377585039545775,-2.8229576377578205,-2.3146048898236726,2.3406479275995027,-0.5438788870802318,-0.4348962482309325,-0.8369649331770073,-0.24018710271482657,0.6072616166167258,1.0319332919689261,0.9188851676391115,0.1226629118576691,3.1027515821554235,1.5387743501653248,0.249552062935554,-1.7765549406193741,-0.4295304688505135,-0.28867728983867597,1.1193032985544582,0.4514947779988189,-0.08765878834689665,0.8667359880335276,-0.8155075909131492,0.30699944824735875,-2.1387251922249777,0.9613153485223715,-0.3562912620525833,-0.23932336664401316,0.04289366454170166,-1.1409806260657795,-0.12732423354609856,2.1119277070762985,0.5151175597113153,0.8114696978268384,-0.1685188465535305,-0.1520719677997308,-0.9592576868470433,0.3332229336217767,0.4498414889473158,1.8189353698236737,5.126019481145708,3.6441703940412027,0.44733324661176316,-2.4811106411261616,-0.16322513919229434,-0.058863385397504485,0.10711754363492602,0.050004119075466764,-0.012006286745994308,-1.2228803711404932,0.5751170104170726,0.1044556408157449,0.3039444935376109,-0.9983743671361087,-0.5600831648321593,3.097624560946003,4.380000728583514,-0.07804211007339923,-0.9390492058952667,0.7358303097513018,0.8235568679804606,1.5571637500571738,0.34752961340776845,0.28623694403780375,0.37219026473972144,-0.7370316382830564,-1.457490038947229,2.9911024681708924,4.367718947144547,4.102338658832736,3.4988624693119093,-0.8243251832085127,0.28460703147916033,2.540584781070392,-0.8836649258892212,-0.7501525495870288,-0.528173240357648,1.1466345920674532,0.7117934390167584,-0.1885426013645715,-1.1279596138684471,-2.2227763328376544,-0.5599918193519705,2.187744241155809,3.2768080778944024,1.830715209890014,3.229766169269577,1.6141915835505056,3.6870981581208677,-0.321184060331587,0.655881582954439,0.13748137188864862,2.16545890904837,0.5540923613898969,1.0324854830767678,6.97468222561774,4.243550533057678,1.7457090634594665,-0.03798309514740565,1.2645811440094121,0.44364685416282346,0.47233757563462303,2.7755725709941736,0.4799814509281274,-0.9646750845450369,0.202507883562817,-0.28842709744471945,-0.8064638497748359,-2.438818915937108,-2.1036103278757277,1.929309927909704,0.21125289726125704,1.1589553789016036,4.368818025409083,3.1581377741867325,1.6018693300888227,-0.40778601578818363,1.1822414122499514,-1.7783603394035847,-2.029395929098819,1.6899585795936785,2.0686437795481365,4.574020669312793,5.590318424415824,4.0308574401276305,1.4343451870358532,2.6481676675827375,1.9501058706126666,1.5762698627518938,2.093707124053051,0.0837455995489775,0.09906375856222867,0.46585767989977706,0.8391304352190454,0.021969503747561802,-0.2511891966427679,0.5800428742262038,-1.1787493355002434,-0.9002164149933397,-1.1821257530271863,1.1242301742877254,1.3217093848690626,2.7999080821676716,0.8160210297429523,0.710373092752577,-0.5626745920913462,-0.38685858762967673,-2.152349705173356,0.8665752193493135,0.19748371096214964,3.376439992951768,4.477033654351414,0.6592683966773027,-0.29974481966874056,0.23965261469214919,1.7906168448002187,2.381669732075312,1.5522171931597175,3.2486783609076557,0.3657619531429883,-0.1931443997872582,-0.7922004229461442,2.4909090901124666,-0.16463883302290727,0.24259077648334398,-0.15666083621648397,1.1639607242854184,0.5255566113951843,0.01319734499298093,-0.1576100984785126,-1.5523761522005946,0.2531562282292782,-0.9677226295460752,-1.5063226936924674,-0.3530217698999378,-1.659291381841705,1.0979223994630856,3.765368145362275,1.0091735153669896,2.3310706139968214,-0.9240478842263892,-2.064231798786236,1.2129752019360367,0.27932247328957915,3.1856570120140026,2.554110745993343,2.6671742033843557,-0.2362836156804176,2.2968412630528294,-0.8898939447658026,-0.4432214869348896,-0.8353348796316152,0.20859709768094983,1.5150793568761065,0.6166083863467579,-0.0030261529675408784,-0.40151734425689684,-1.2675777694013355,0.4645760665787885,-1.1167606999853164,-1.5632930563642136,-2.274142249584466,0.009444972430342818,-0.9992272103993576,-0.8066454009809757,0.7868419808352656,-0.9965829998581659,1.4505425270840133,-0.6527631773492962,-0.9798442772110086,-1.6199778979122732,-0.5178169272820726,-1.797778873914411,-0.5353932637078058,-0.8858305415185538,0.6740596683353208,0.9706801113121937,0.060467446699558544,0.45532477982070757,1.5727394315452439,-2.157231636738038,-1.1366035506787748,-2.2374349116847116,0.5419394318872439,-0.02757675369743842,-1.493933030115803,-0.8228901101427333,0.10429483050526427,-0.3701491101549432,-0.3053791048280329,0.03862625979582526,-0.07055335828491632,-0.9456550062351161,1.1547315236344131,-1.9846862700031898,-0.40472837475347634,-1.704809719657924,-0.9833513135128763,0.13145805958878037,-1.3564582857440914,-2.951264479549271,0.6932972788254457,1.232042889785386,3.5259458995021267,3.138801692976144,-0.543738603814105,0.7272835875903344,0.25895812996571793,0.3382400747439662,-0.05330427500935741,-3.2740871054003127,-0.41102459488545434,-1.5462758874094227,-1.0915680181975702,0.4682041424070305,0.06417733893872157,-0.10230702763681045,2.5342950303569842,-0.142578976821738,-2.811994825615469,-0.9865715937276556,-0.7751138435571046,-0.9701099523917945,