{"layers":[{"type":"network.DenseLayer","inputSize":784,"outputSize":30,"weights":{"rows":30,"columns":784,"elements":[-0.5051746528317229,-0.23754831391492368,0.07911751432012773,-1.6613599969863588,-0.15005238175237656,-0.5967203208243136,-1.613450456166404,-0.6175021984469321,0.8042420296112018,-0.6636873937706315,1.170552258647517,0.7324903289326967,1.1308999363088046,-0.3264116000636257,0.12041008845187696,-2.4923039623197414,0.328316289625147,0.4284415815698133,1.212310145709655,-0.17109867148643998,-1.581744964942666,-1.314635889663005,1.8573862296819603,2.1432257999202062,0.2579235357189743,1.2565106208007661,-0.5136150980704131,-0.13265121412798664,0.9865295219405553,0.5567814564757424,-0.538995166675662,-0.07566428280079887,1.8889049630393977,0.5835243701348403,-1.4694861502021483,-0.9214440775782194,-0.1203567951412329,1.167120834408744,-0.48400979688839796,-1.2461300243357574,-1.5309011048051564,-0.2725436055880821,0.2834039415618944,-2.00844589214762,-0.12256114295913817,-0.8446934755132823,-0.15830663405443313,0.7378457479786195,0.9855888787512649,-0.05300171848626928,-0.6890097442057949,-1.0625082217009225,0.062124241370922074,0.8187853157382149,-0.23404620762093828,0.5097110315426225,-0.8301825778673797,0.17335484640582208,1.8231769298650649,0.17014927773918914,1.2681514010835417,0.8446344373934205,-2.1110910103780203,1.1649880207464172,0.14081015517052084,-0.9902809414923724,0.4442760646623053,-1.6333390644562247,-0.03012270115187126,1.0626836882918098,-0.6080802916412223,-0.5116949012080774,-1.7091677661532716,0.22073145202426467,0.10696649801545881,1.2340238296031087,0.8017988510695244,0.42716211204083104,0.29312399996367217,0.450842006268743,0.1737203112233068,-0.6527272554862356,0.14473602377626255,-0.7476882182680669,-0.720510841757556,1.787390975606945,0.10481123197580924,1.1184003890728702,0.381961256935477,0.6945065042045672,0.09955838207881663,-1.322683868498752,-1.3764549918828555,1.8553056080424442,-0.9264858170572842,1.1570507205356624,1.4418922605790336,-0.32467823999342377,-0.12946472395077238,-0.9946585516951967,0.5967959016361625,-0.46977372572117904,0.2881725150607407,0.4594706298080489,-0.5854041993514982,-0.9009470585588711,-0.3108632905203473,0.30374971549216917,-2.333220334022171,1.1475468198259582,-0.2401134312812981,0.540627168226367,1.399577272231394,0.1808049657517395,0.27118981595840586,-1.8470668115236861,0.13314588025041013,-0.49731053037384537,0.6150250599914547,-1.8584572646925597,-1.8046076881361879,-0.3295122096897384,0.2735436272759248,0.29872263598888726,-0.4310218375254427,-0.9649477577886507,-1.0296907654902328,-3.1859067398768444,-0.7861446248091891,0.31530618261370413,0.5631866235026178,0.7862573791271986,1.477173416128203,-0.26054548267000527,-2.0455475538637677,2.103621781991982,0.23076395582831497,-0.30333623586421776,0.42434016204274877,-0.8078978902572562,0.3632871515504655,-0.7581225688745455,0.7038919454584533,-0.599394819122469,0.2420313294360098,-0.633707652658204,-0.7199897778858311,-0.11855290207754698,-0.019445130340153785,-0.9168199710626345,0.3608437595141005,0.9155948678191089,0.1151623640078234,2.7283967005971252,-1.314607589287937,1.0528394282094593,1.494184273996977,-0.914018492636741,-0.8357645672508758,-1.0572527897985287,0.18284236824331423,-2.348098305309729,-1.1016617089447216,-0.6034779385467824,1.1492468903581616,1.2170165399806014,0.30964541866498557,-0.06278670682734419,-0.36120152420314194,-0.5730394418099477,-0.7193509415066531,1.4356668603193516,-0.6436147777971019,0.06138225091968783,0.8297515525774614,0.9415157812662535,0.09605557621335024,-3.5205120478290874,-0.741347591118514,0.6718575993591819,-0.8829548213177211,1.0669830990330422,1.4693282911756658,-0.10554758493469349,-1.4840563454913356,0.22119496419798476,0.08973998823356964,-0.5879139353697748,0.19748400813227962,-0.33754708341522466,0.45556844193213425,0.7713790532961405,-0.9903860589060269,-0.4648609156951325,-0.7982875870749269,-1.1157178362486566,1.2822850158129908,-0.597880492050997,-0.678411898178875,-0.32509937321007776,0.051631279508878386,-0.8953695057007057,-0.9645285356144035,1.3390442595417231,0.812701415722895,-0.1742638729206173,1.1675437701746467,0.6464684313354554,0.5322594009751281,-0.9634404806253198,-0.40334798702165525,0.4015504353930892,0.4865840010410491,0.26919430849417936,0.9318365126247243,-0.04843722161315772,-1.1630761732924424,-1.6778564301945822,-1.7581530495316111,-0.6035892571227744,-0.6021708537205165,-0.08433911375132483,0.32610989789227074,-0.8718800893629293,0.6704862811734349,0.29569034061133914,0.6612778523905674,-1.6965021415316348,0.14879247483563227,0.21829168898622517,-1.4796332173581648,-0.2876326166228866,-1.2774337282035426,-0.19131714033129502,-1.876458462378599,-0.9063916074113683,1.2410892733796797,-0.4947430089901248,-1.9386598379554403,0.3161563840787347,-1.3368986730698444,0.3663370649706622,-0.1003532200599223,-2.642335521685036,0.04456085860004775,1.4696953599947504,0.5209551113191154,0.5341189253465587,-2.0422022425479502,1.1923022910225176,-0.651398439639464,-0.23801819562410845,-1.7501230253310882,-0.1576306684601614,0.09103703055924722,-1.4558580645343482,-0.7868476034404029,0.19192627844210378,0.1504130385866924,0.8378335459910484,0.2300070883607634,-0.9204919128827713,-1.6668627752884657,-0.8474888930505875,-0.29133993693520255,-1.9700142996309085,0.47578390957764216,-0.23885682263892974,0.48171415315691263,-0.725117081308724,0.5248336174959551,-0.7805908459003431,-0.7615503626142189,-0.6119663510234966,-1.29419708520916,-1.3704983992166218,0.5899487291997696,0.26014122745053003,0.8246999085834924,-0.2598410405707141,-1.9409474055631493,-0.2507313518943182,-0.026329799208395326,0.2159107953940839,0.19028605868398374,1.1790261471645214,-0.6338071565242905,0.5790516393351638,-0.7087307255865856,-0.7521832774508954,0.07997599470078005,-0.13232736082437238,-0.3689135302208532,-0.75963493104665,0.9744195459408354,0.21264349344898864,-0.9776349997624967,-0.10867982121751128,-0.39482038298088273,1.1263121249594612,-1.147334953141709,-1.728216769654198,0.20769939853223454,0.6873596131533016,-0.39665325895139336,0.960540931116782,1.5215015227798978,-0.9367360744479805,-2.4701871773645996,-0.37020484341690185,0.09364176109603174,1.2914152763258147,-0.6290584435178838,-0.7211064006313891,-0.19237670936509074,-0.5707973041023527,-1.2099924630542622,-1.0779023258349005,0.5825699261035427,-0.04578207766285309,0.8719809771395503,0.688690955782498,1.0259844143392147,0.47611900489312214,-0.5897339902687478,-1.4957097206643406,-0.5103471154740667,1.8021395626919319,0.9904042141609917,-2.398021362661377,1.2691471559381957,0.882961393061008,0.36378481336087304,1.2251017813969742,0.15377943735593783,-0.07586474929356825,1.514734034685902,0.2858872762955863,-0.23468489340273255,-0.8070174198662244,-0.43895829516262597,-0.8639678309414236,-1.0391683086893218,0.7298250810247561,1.3514769269865787,0.8367826470932579,-0.20407443231674918,0.813260754386036,1.1548338319604066,1.5177861985229189,-0.20374481677651124,-2.2497422451041853,-0.5155068128755677,0.260225489622675,0.4559617248359754,-0.43715835515741275,0.15341899323611605,1.3463346458689898,-0.3068499763997118,-2.0340579658849083,1.1241874742455098,-0.4454968928135802,1.0205777760286194,0.6723862313936242,2.3136968140750453,-0.43155237022301157,-0.07697581266286305,-0.509182233444106,0.5967674234109732,-1.603229478275953,1.1123778017430084,-1.016903664423054,0.3863384232551449,-1.656029468385407,-1.1855896621282924,1.4708032190353788,1.3404976241091935,0.747997616205747,0.7368995633496273,1.4561557305388082,0.19029915398676403,-0.2610642184085436,1.3907248622652373,-1.2085726559130205,-0.4834595540987883,1.3205848321794529,0.5071608195370853,1.0556733783443282,0.5418034010990407,0.6788412721576621,-0.2785933720687319,-0.6433044546998246,0.6764118018686194,0.6341731611015767,0.5360214724625426,-0.15674914013977317,-1.0115723345819079,-0.3750533481643127,-1.0945511556265346,-0.16965279951455822,-0.735552004130821,-1.6265673600698396,0.7470783874779167,0.7710995651669896,-1.6128372644266529,1.4373545034845552,-0.6281103417505538,0.44951649539771743,0.06347508036290689,-0.2372880367049435,0.6157529891845421,-0.8203918929285631,0.1283531844638936,-0.5528080898839155,-1.618241045340214,-1.1987091995767765,0.5786482462356277,-0.7083774497837338,0.5215947826099997,-1.3414099304413183,-0.6844219470449177,0.5736149421967774,-0.5776634596725276,0.2301287682363929,1.2935188064367498,0.819111816340127,-0.4991501812178128,-0.23284841881659482,-1.670088130138573,-0.010634583873459731,-1.3750900432289386,1.0159596420348094,-1.1148024791759816,-1.2751667984489898,1.1380928334751792,0.7782248776295916,0.5743456735987541,1.2785210742215374,0.585991031949401,-0.47649802555379195,-2.2608691524574307,0.6278797309371038,0.22578894091362728,0.7546357803410008,-0.5076985681537236,0.0429666711158674,2.902236147305865,-0.39985066094563854,0.9346240136237114,-0.9641624831495993,-0.9057057788242953,-0.9032124384433858,-0.4348921129358535,0.06943221926666597,-0.38363509749982316,1.7122623377696387,-0.20627342534256937,-0.2499246767022336,1.1263334491222043,0.24296675665395762,0.5504765133375339,0.029050604362706022,-0.8473398719505322,-0.076634957679968,1.3584934587045028,0.118172737427047,2.5000496162980315,-0.6654063251040626,-0.5632385211204528,0.06477856582000843,-1.3755583399150897,-0.3747413611885875,1.2104411915449638,-2.3033540042208602,0.4840992850514249,0.6021186559899502,-0.02271820621397161,0.5653054149840713,0.3832326389478593,-0.49792017871786987,2.7756387936357263,1.3469750521851103,-0.7733596561012624,0.06248171358337835,0.8443443401845256,-0.35525251533756813,-1.131137998795272,-1.562535768459555,-3.269017496629547,-0.9378914348919677,-0.8609336149881149,-1.0260463319423305,0.2786617882775021,0.8999006388713466,-0.8288551983027651,0.42334696196929705,0.11074357665234473,-0.7833157179013791,-1.0164886348581736,-0.19418215001062822,-0.636599985095019,0.5152029111127888,-0.2989228003683152,0.27546458268496826,-1.3983426922400843,0.045556117808008875,-1.2819875261643,0.3493410362354123,1.5387292442379563,-0.3822171700855807,-0.5620393840344083,0.4976244023396465,0.4069124983820771,-0.22696416959864635,1.036413283134413,0.36650591744905636,1.2995211922813856,-1.1465829246010442,1.5752423730955984,-0.7430733126876655,-0.6381552012785241,1.630802733651827,-0.1259856664976656,-0.9674755145673334,0.8470484405765166,1.1353731437774937,-0.34283439967902557,1.561423065923122,-0.8637269688761041,-1.0679651003845494,-0.9251893368511217,2.9547826098551386,-0.8898022433729744,1.7627982350845817,-0.528636824238404,0.5900361055850255,-1.1993247813360988,0.7764538288112461,-1.3987402247942844,0.3186287215370796,-2.274595288661962,1.1542292880939928,-0.3899381321301506,0.8419913839429399,-1.2813903862781566,-0.8112651084078198,-0.0068344882620850035,0.541880316077653,-1.3509601008013643,0.7044505702364465,-0.12631091693996352,0.5427828984817379,0.6751319896846404,0.9018747975239962,-0.22615958609591777,0.86890212958172,1.776644213088985,0.8217025505428718,0.2876654963938616,-0.5725263740621795,1.5322929530492557,-1.6035480918029725,-0.5209274234713299,-0.5312532465793768,-0.15699592666300774,-0.25246819896320083,-2.14357331501931,0.4223717007407984,0.13045911935354443,0.8386701788574804,1.4245643326352413,-1.052480147586583,-0.010874412253874902,-0.39255639017783167,-1.9459322509613974,0.4338874079933852,-0.17023538882955064,-0.3476213867587846,0.6201442649651999,0.07548247282877524,0.5216566480088347,-0.8071299376559214,1.3679547045324445,-0.1468504892415649,-1.6060732373612394,-0.7668826460939486,-0.7908098532377934,0.8658596399185976,-0.5770900770277376,2.628384941824474,0.25582757069160933,0.0018107531627537601,-0.16651821061711436,1.0503907991848072,1.6025893074629067,0.18885534982447733,1.829699969382173,-1.0702910894204356,-0.25333021237468495,-1.8979473898368973,0.7361704831709267,0.5808091433376147,-1.2871908754839305,-0.02723669951277967,-0.6860691910668887,-1.0273345704872883,0.28206257047048144,0.7708130985278631,-0.6865849118926625,1.1556350047215476,-1.1834032965895347,1.4052367425971266,-0.3089371696043749,1.3397363554358643,-2.041826841984674,0.7112539100051231,0.38260411199063715,0.6595260235025625,1.1699856494911085,-1.0848201177432806,0.5292242353643145,0.4666644575729948,1.7956673827283078,1.5848117250776446,0.811165663728152,-2.018405439262262,0.13755925260043475,0.5703976613394922,0.19287954096704346,0.8655245487820697,-2.4495563864766536,-0.6783355175633872,-0.9232796467722503,-1.5257028119014748,-0.5661805381884636,-0.48394550066651315,-0.3318216333511321,-0.6791169927370649,0.7108375711190261,-0.7090936597625696,-0.758459634887403,0.31969102867257304,-1.534475351371441,0.06621583825858143,0.645650416698472,-0.669856606296511,1.218517664567219,0.1335437408073511,-0.25890493616698873,-1.8053043715117398,1.2357250636026607,-0.9100848462983274,0.07280867377522683,0.11855252761921216,0.4924452058681395,-1.4662959818534156,0.35694418432246655,1.0530877916331278,1.2458189384593505,2.1445147307112578,1.113017475255652,-0.22400666377605613,-0.5716743783228441,-0.04939342414063666,1.6406375619647051,0.040584590212455494,1.207799740941414,0.3521728025699931,1.160317521893016,-0.019739833148233858,0.08775654982457697,0.10986596547405347,1.9243660677144638,-1.8490613540504037,-1.0356494590604228,-0.5754611907740256,1.0813808700770409,-0.4355057210235007,1.1786599136035532,-0.31348140086811277,-0.9787936702085699,0.015046834210324612,-0.9762774808818206,0.03494401517529993,0.13667604617157408,0.5164307401485294,1.221685803934052,-0.10157022848393675,-0.530152610804613,0.12878420275260063,-1.5263632316903788,-0.16369576675014555,0.5887119593098344,0.6622026460869449,-2.0430771935981613,-0.3812620289655856,-0.2609339551140088,-1.9463385033541536,1.4320719552022227,-1.1333136841631746,0.0052008439773300955,1.4656304167521534,-1.5330669037591347,0.8699418756760532,0.27358529582959873,0.6748058883173778,-0.41462107731971637,-0.9833317987779951,-0.0795859350911461,0.7499306437470876,0.6098817905920307,0.15233916672574163,0.09067047608375325,-0.4541585223388311,1.568559317296768,-0.940481157443496,-0.2719850866512107,-1.084255471992676,0.006655056448059771,-2.59555306278474,-0.746014182645045,-0.30421490728499834,-0.6991939524499092,1.701811915727336,1.319822328107225,2.8871968165552864,-0.5313895982775413,2.3207066125277094,0.610054463207527,-0.508567025528214,1.2681981113586105,0.07720435815268695,-1.1566321019572483,0.17874687323495964,-0.7331590985308688,0.05820714210586694,-0.12424029265994041,-0.4672306101266899,-0.09406148235909957,-0.373492911383083,0.8319786706093607,1.595670258122889,0.016516500730152865,-0.7039667572043576,-0.9018532376009053,0.6274298654627618,0.08305602261164467,0.5396301667378264,0.8252531288943605,-0.8069882390171853,-0.33626058367780326,-0.674468627941312,-0.30017543191790635,0.7568586052916102,1.3949256898164473,0.7432664859985602,-0.17261097301643127,-1.4913152166795212,-0.23041677325038362,-1.3518281554279101,0.3087003080058172,-0.47010036433651364,-0.6916831872035086,1.663029296097328,0.12928372308286756,-0.25958096251371804,0.3317880998277828,1.378489731137641,3.1169100817541664,0.3299161706406353,0.65112641449871,-0.4039259692619819,0.24476036586878339,0.9548862068916814,-1.2359454558173104,-0.28442970650552635,0.8167446630896249,0.32372696010711544,-0.825341638351893,-0.0026893234961443404,-0.0981616130106086,-0.6004808086332242,0.07387760009566123,0.8913489740928098,-1.0464855116502108,0.5778490830818458,0.3012001009428054,-1.030653230652234,0.7230444373102574,0.32605171704862457,-0.7384762684671724,-0.833407994632322,-1.278122148781889,-1.21979070601605,1.1430825276151422,1.4703271927897923,1.1340350746862595,-0.4671202026568346,0.028327411726160153,0.643255099212641,-1.0737439003377136,0.440163430249421,-0.6142985613547894,-1.1755130248252645,-0.40282886863651296,0.6355149435542025,-0.35236322829440875,1.383822391328441,-1.3031066373868156,2.2573245072377235,1.779965568367635,0.20556743488127857,-1.0912554996945507,0.2925253627660391,-0.3938260649282662,1.7991239910218346,-1.0087141373922521,0.9425771793951504,0.19696415415652824,-1.2004629692123887,-0.4483769598593324,-0.9058761593880157,-0.8845303504052404,0.6248797566227187,1.369979562299641,-0.3148625621267901,1.2839575804538663,-1.7338507815927204,0.679688663311397,1.862387608675054,-0.19520920194193933,0.40093829442069967,1.129695442956866,-0.17465675127504873,0.35674310624777233,0.7447660093704348,1.433882611209956,0.2858297379366692,1.765521977059099,-1.1939921680811265,0.7911343387745683,0.00835201626442106,-0.3814632048692816,2.0232960095982917,0.46938910893178615,-0.6392066160035997,-0.6350297167971104,0.06377982151538254,-0.21529139558136948,1.2692433176199476,1.6018107970229962,-0.8457234290759738,0.282897399729525,1.0501753218785348,0.5016267036002536,0.8535516464423112,0.5910837749094514,0.3362747496898226,-0.01479588650085559,-0.061775701016806774,0.040723376378903386,0.1675207921626154,0.27455955457787795,0.8797292852195953,1.4935052528780823,1.772893043882189,-0.5210485052572461,0.15886156153206987,0.4384515507704455,0.6670138282226574,0.5550392288849174,0.9383794438977929,-0.06675471842348465,0.10099283763835726,-0.8087300631393689,-1.0120911901145127,-0.17580920642194273,0.6743832045044242,1.2787640773243292,0.1299857925992808,-0.555171700684683,1.0116627635960824,0.6274892697549889,-0.5751419107935976,1.7105189198073592,0.07871793170848022,-1.2452198097602873,0.3864831711556666,-0.8706955733462607,0.6447838662335245,0.33617107841454497,0.5475121360042475,-0.3993013685348782,-0.054043936955444676,1.8487042900511474,0.07076464369301627,0.2885440419859311,0.7155082832384947,-0.7218217764797747,-0.27257234740168873,-1.1063641632869474,0.39251338199907865,-2.1777400693978266,0.1786277208575082,-0.7808096378889255,-0.5848091440765465,-0.22268036178823047,-0.3548768088420861,0.9405625974768523,0.48189000933193255,0.562123306845255,-1.6621040036105312,-0.48514030292287585,-0.29354519542136476,-0.7283227276508438,-0.012244815910762544,0.43576759744002835,-0.7929496772582213,-2.546442464404703,0.7992979224072906,0.958846316981761,-0.3007959483446213,2.6466033469268897,-1.4364517835637043,0.8687367850485241,1.119416508713627,0.14098388586505445,-0.688837520271114,1.006548848574906,0.8239892542462169,-0.5941253879067492,1.0907524716206594,0.009984763979076751,0.35309792913721927,-0.7825174318208615,-1.512758646969802,0.1202278092165561,-0.48691587901879146,1.2583833092238506,-0.48022993117726237,-1.9282162401789538,0.010863517467905814,0.2744420975167979,-0.9578983411269529,-0.8594573314902125,1.5832939008926155,-1.2830414707287165,0.7732431092027315,-1.4498472023692,-0.5161740907337752,1.5058078141203248,1.1144769064027866,-0.41038124368435625,-1.0968505138461546,-0.4087242374986438,-0.23685103301023408,-0.8516486317122554,1.2598096886097259,1.1759129546706935,-0.7307963537806851,0.888245600676372,2.058716358570069,0.581664133841025,-0.8859129659490695,-0.5397837411668558,0.16295270704275233,0.5053129783568473,0.4338334770061428,0.5292070146611333,0.4137797452895774,0.3201816573808311,0.13770983183512653,0.05714741903388685,0.19722333425100272,0.660902198377331,1.3085571091167498,0.6182914948460506,1.2971597474802554,1.5986869172575067,-0.6911387965104885,-1.3760649613668268,0.3917942681419768,0.7394935721419819,-0.7198639451346732,-1.264249865005163,0.45219896206033555,-1.2148146344210877,-0.6970545409112888,1.1641969019319403,-1.5886480153423919,-0.7515210521605808,-0.5399588021848037,-0.08262248427984986,-0.8852592574176222,0.10757906384202325,1.5669140410777176,-0.19520119045444503,1.4294075140252493,0.8271453488738927,-0.05083149709957928,0.4780365241423372,-0.712669074275625,-0.9320909660665379,0.6668046611186049,-1.1020797607131434,0.31439284285105634,-0.4000328102171733,-0.12075306352005628,-1.4688248313428987,-1.0058662796373377,-0.007945109288997568,0.04671744340605669,1.2646995892719655,2.0432587186927376,0.8060567424366192,-1.750961949965096,-0.842321612758122,1.5844828792610333,-2.014940757427096,-0.7017916122487562,-0.6058905928274482,-0.638484378639529,-0.2839003089186578,0.6948396650883382,0.6518803589599185,-0.7530821691121219,0.7379893309063245,-0.05945915683877865,0.12277670264782836,0.9230297704903889,1.1971200457241673,-0.842148167282098,-1.526151451830373,0.9499609712237631,1.277503738251892,-0.08294734403850934,0.7961303046029026,0.38396237685367196,-0.05173373963034363,1.4640391258073586,0.38499893718702843,-0.39177549682799395,0.009739645721173373,0.2816609299593,-0.5872388046532675,0.9017478631766414,-1.6519040807293026,0.48059198294398864,1.645752545125567,0.08703443188317574,-0.8842572758820453,-1.1294028563044922,0.024027640909185986,-1.190489820849967,-0.7226794663086148,-0.4388499352400648,-1.6989298043300938,-0.5520920287572734,-0.8840761476482294,1.3130327451490467,0.6762585540814661,-1.1939797891075483,-1.8304476449833262,1.516305484922317,-0.15944805226509093,0.32376234119334724,-0.3548209182973397,0.9539396926208286,-1.73501938882843,0.21303370047858836,-0.16047796853354085,-0.31105991110176034,0.261151490367096,1.2928751998505223,-0.9425943291460797,-1.0749482112832607,-0.5007425431512981,0.5259584482727345,1.3134000002619177,2.3451409090153144,-0.13296880403743488,-1.789990991068081,0.9825184950380742,-0.5527412200224929,-1.7152718465646544,-2.0972211110518484,-0.929043581633111,-0.1460352786652133,1.490921581675041,-1.7013468401316139,-0.36450922329489205,0.0708402154873475,-0.059572884723007806,-0.04140500234728193,0.2501712360361371,-0.13067400877211718,0.8503898511115989,0.9080654914219544,0.18565616849409208,0.6448590536039005,0.07329514793290808,0.05618584858047146,2.0492849597297935,0.17008105697648807,0.7671867964513208,-0.8810014910663548,1.8272227490982873,-0.825560151765738,0.6185312519501249,-0.3654230339722141,-0.4527320474537316,0.054032944788830146,-1.0131208445740525,-1.5164755261954137,1.565455273566404,1.4918119797034313,1.7740425590039952,-0.3359795472284936,1.4696136258129693,-1.0003881428962418,-0.9160025714642539,-0.5937989422824117,1.231165222836036,-0.20521846376416825,-0.25525813662782243,0.8872581013141237,1.1849116443672758,-1.25517454991765,1.4641688975061862,0.5976703386940254,-0.8447670707312628,-1.1613516479730355,-2.1903978272558255,0.038650600459321664,2.4544717198094257,0.6613392016547425,0.8556040636187316,-2.112248347923961,0.6422869068592085,-1.5977805796368818,-1.6926313800038946,-0.5920382386078523,-0.21341516037400238,-1.5914932923101668,-0.9771555779314409,-1.3387849451054974,0.5429478477741524,-0.7225537512275556,1.8147765081563276,-0.6677433504503506,0.02186818762106026,-0.3690669534796454,0.34624438992311574,-0.05081949468942775,1.6928648170365517,0.23965040715672037,-1.2702102814170104,-1.0373318184385176,-0.28833495323295366,0.0361768515669694,-0.3166173115925102,1.4436630122566698,0.8897650832265983,0.21589692437587463,0.3447739155688757,-0.015155399553830785,-1.252578992835138,-0.6136389804795124,0.9342567673541138,0.6314415393517533,-0.3135119103591771,-0.016656551980776514,0.26993138831828606,0.475036952635089,-1.1998675508629402,-1.4528321391372434,-1.580880773875513,0.03084465652940125,-2.6158769723158715,0.32405835409553085,0.6698555101955039,-1.7876727376545376,1.4164096584538257,1.664603850683843,0.6894592775823266,-0.1827311366828171,-1.4638467182997346,-0.829759159541804,-2.047472168401395,-0.6814080381872588,0.7400149853280532,1.2426475463486548,-0.6450547993361586,-0.8102763075848205,-1.1422937981247465,-0.7769437032794011,0.4127831945015819,-1.0223369637342543,1.2923245621885575,0.6956527116163129,0.9574124185375342,0.49926572145521914,-0.3465881475599249,1.1140095078323582,-0.9576494863998847,0.7124498004549791,-1.0188116919452421,0.2827076030351577,-1.0587391783119582,0.5800690094060654,0.10530720675128985,1.2762342392604067,-0.3824954533042428,-0.8412564426164365,0.11884509331676109,0.10116226102022727,1.646043097972219,0.7590172382818354,1.4328131236080384,-2.1951117685140042,0.3867643991956204,-1.825250105540048,-0.14254933726483177,-0.34660938813291864,0.06183837238113448,-0.2817973212513762,0.3763644161111404,-1.1549168689078289,1.5794779695778332,-0.371164388298789,0.8589126790683972,-0.08882161140560031,-0.04677506527376859,-0.5753058382591065,0.5420462218210859,-0.8742126752542188,0.5860821981086717,0.5047321066651569,0.010746849153892488,-0.31536421871644765,1.5344679955788276,0.16749613015966053,-0.11931807142062742,0.631840057762426,0.6077441111251025,-0.9818466534471412,-0.8724460251019945,-0.9834748035943846,0.6970197940014267,1.5506248432588587,-1.1675020430795446,-0.49154124844531816,0.20877192193267832,-2.8404671887065147,0.08616506591486396,1.0624745037236438,0.30809472703047336,-0.4215234955596433,-0.4765577452523893,-0.7624875567503272,-0.5938633919068667,-0.25926568924199866,0.9049597497765918,-1.4104289212478496,-0.4636319033331479,0.17888781548050606,0.09876439486073237,-2.0666458254312436,1.35975344989995,1.4191002268514001,1.2056271295879846,0.09259489027246791,0.9215640488220207,-0.5753072172927667,1.0578801226545456,-0.379769419077999,1.8863258532249088,-0.9660250752263129,1.2052603356003326,-0.028533048003094554,-0.8991740512843076,-0.4549898585555862,0.24479561728209437,0.9756799425383763,-1.1897655282168451,1.1749117740780795,-1.5588628335699766,1.4271648403143482,0.015677414433089155,0.2875928527414733,0.9699420278809587,1.372052779714755,-1.2718988912018743,-1.0949290693277287,0.13331294184980158,0.18219704910658874,0.3483350387168945,-0.0507777395475777,0.09249100418386084,-0.9998226986383532,-0.44508532468785816,-1.111756242467352,-0.6204946562114457,0.18837615709900432,1.8451735713029271,0.36177328800656855,-0.24563809589347696,-0.5528698110198139,1.416916134942135,-0.7536289048783147,0.2859813526598403,0.5367945797228458,0.3900614540289348,-1.7605352731012913,-1.6121775487782652,-0.701906387826626,-0.3683436220623115,0.6257533148196126,-0.5663108574282854,-0.3409690306632056,1.066256981337732,0.38415285983018316,-0.28135809635698544,0.6131097136066387,-0.7875882997287599,-0.5754175604493447,-0.8989859257374377,0.08434385938320454,0.3893138782970855,1.085147562994966,0.551617037834369,-1.3616955646579143,1.4478309597467398,-0.38469721656754674,0.95465446608041,0.5922507260625112,-1.3068444434293254,0.5434317007984913,-0.48700727704823926,-0.6999216720501422,-0.9829642055819449,0.8399270021381502,0.36362527465587885,1.6062874492075383,-0.9399243562571415,-0.11407686089652384,-1.235452927548501,-0.025227657495857744,-0.3866479667713092,1.57222468180812,-0.6250675686301318,-0.7200203395725154,1.4328841928325273,0.01571303948004943,0.05817923540845878,0.3700278836592749,0.24180920038744283,-0.6297549590739718,0.9603053754839566,-0.2607607129473863,-0.37655955561389043,-0.04226770442816349,-1.2408437080140942,-0.5593037919850451,-0.44461800741870766,-0.7144053946458405,-1.4205765963897083,-0.7140763914598249,0.20716903097381886,0.27670258548089466,1.0511270482534942,0.6557012011645357,-1.9354383509903914,1.8359853207984345,0.2709727411592361,0.730231617380738,0.24619549413368508,-0.04188698241017737,-1.8760162399189646,-0.22048861790349808,-0.8337897998987409,-0.6021784341475264,1.1751559854556335,-2.699556404741509,0.12287907526985632,1.0998734244257102,0.8381123413211733,-1.3126362366724418,1.0903917182819505,-0.03426778715099123,-0.21108634439874893,1.1709041516731487,-0.8342869894112925,0.8045556031833705,-0.3359059375741148,-0.6840336426081828,-0.3931832638029675,0.7421956466780355,-0.7124413091117613,-0.700346885409091,-0.055841011516936385,0.16191708716451172,2.0170339413163765,-1.984966142050315,-0.5677922867903025,-0.03897416607931117,0.12186914562411233,1.839961482042081,-1.8827062665370873,0.6572515173318161,1.1799915969650854,0.3744598666606637,0.7248161885767821,-0.4660574231730443,-0.7236956202404592,0.4075783740335948,-0.7154264830283249,-0.6131813952067806,0.9279039158198686,1.144008025065161,-0.48443375683634715,0.7564145141486149,0.3337107004459953,0.6164787773460141,0.503363994328035,1.6337219207458358,0.3024529417826724,0.640983238008695,-1.1068024014701716,0.5298377503202424,-0.3227285735720585,-0.8097750943077737,1.5747750702598644,1.2792812251937737,-0.16943460582764497,0.2832912327327321,0.1962003873948385,0.003359031339117004,0.2033267869678732,0.8555459273590295,0.7814443866044175,-0.32762727767186317,-0.9421543653105966,-0.1611498098325448,0.7134193964814529,-1.9362709938675073,0.7517695298743304,0.2991498296335702,-0.9503674216635017,-0.12752846653543698,-0.1757701882230046,-1.2032804150071352,-2.200732063508015,0.39194121237928026,0.5557455379717517,0.3147296628276349,1.7152427316608134,0.4235737444114053,0.16625400770180832,-0.968559382171277,-0.1937457034749708,-0.15454434159653077,1.3003829637665882,-0.12956313595164773,0.621322895109743,1.2921356601482208,0.5843089347195518,0.9245621230817537,-0.9440422462263747,0.8099335097894359,-0.2189367632272079,-0.9683880818862186,-0.40765257905965074,0.9212900781541647,0.35584845994033426,1.3104050695953657,-0.5938511712886956,1.0644983382787434,1.5602352568685498,0.6685531489150542,-0.1522238430052964,-1.379201304656634,-0.26102108267266866,0.009747104605394437,1.736372155295062,-0.9501447979127688,0.6693517199688539,-0.3168733779941585,0.8372957943562556,-0.10587363941709861,-0.3802557648412137,-1.6429928383786412,-0.6800840479167074,0.37290781221364117,-0.28538958920076096,-0.424829757433562,-0.9125125649942227,0.8416637624087097,-0.4640882054356347,-1.2343739041616246,0.857116717847781,0.5792832168641792,0.408800103834533,0.1398560137187834,0.6325431373954736,0.20442071437018758,0.33427394055881965,-1.015259123019471,0.18601701787686334,1.6928349411668577,-0.821772805516178,0.44037000384496594,0.5051011959087536,1.2756977885560707,-0.8696298258029932,0.1929094221495085,-0.3284257718246289,-0.6648924895533705,1.2502258824918608,0.8195499868532542,-0.2209344038264628,-0.9317371377399241,1.1323541313486403,0.9090289337194497,-1.3979337292122214,0.3436319061268175,-1.2940744857448196,0.661941062793041,-0.7469445142578323,0.5634625114919706,-2.655472726783225,0.06867773252749172,-0.30602248775291246,-0.6887090832707595,-1.3257899252372463,0.5925563358486242,0.18886561957382123,0.2728343056138263,1.016332264377059,1.487305659680074,1.1938715151140273,-1.1334039423112168,-0.3530937601212501,1.4092195129031764,-0.6401451920732436,0.11112117298812037,0.010004495669331663,0.14077953170380791,0.4239607400370613,-2.0548157730032366,1.1288569138335134,-0.4870240995430045,-0.009308970318983778,0.12803836229019008,-0.8713222491907093,0.7494755335261957,-0.26820562876180754,0.5426105631850021,0.3494372539198551,0.12607773901380492,-1.4579913589353564,-0.9438739037346336,0.5621878389144556,-0.05262827709919743,1.2786986600657304,-0.010345816401906276,0.8619771741708624,0.45271667418304784,-0.8609847113145245,-0.16719319032412983,0.5963990067970422,0.12829715879520748,0.22493418828468564,0.7462401745338372,-0.5800073282066421,-1.7048441052970695,0.9861065190430798,0.3322454244795937,-0.4855443323106633,1.3285567463367376,0.8387044517282289,-0.5961625161344732,1.0689846296086312,0.9262195373873838,1.3621196259143387,-0.32099840849488,0.6382489015814706,-1.1361158966912692,1.4889819888825078,-1.0729630114205129,1.7540982381397334,-1.1014048445579767,1.2510378779895293,-0.6667770374909757,0.14827737860396611,0.15360729475553808,0.14795519872016089,1.0153057157091725,0.6766937402462393,0.11984469001964596,-1.7579772556729552,-0.8003530793723324,-0.4273644106954721,0.14916706692131085,-0.5338288578318031,-0.9092863798037235,0.44775668592428947,-0.29525089792344955,0.6931402536450679,0.08726123492382944,-0.7595935311972194,0.36048864639874056,-1.0627903636447953,-0.721942585974083,-3.0560098530434567,2.5866020269073364,0.2960176518310336,0.5296875942717848,-1.0629391150184737,0.7898103146191617,0.7025757388271087,-0.2709503348367654,0.1340199278658592,0.2894971252646163,-0.5820194703187068,-2.0004811826032047,0.49146045062690835,-2.7232452768360598,1.1747580337902241,0.4766472119187012,-2.0984378730478723,-0.14488558834328377,-1.4951083285413729,-3.6121870097301367,1.0550821544742495,-0.03796766684073884,0.3377374489077671,-1.96105926326102,-0.18494931902946435,-0.5266936369352736,-1.3991581365810704,-0.5175124322509748,-0.19926073953145051,-0.46002461951883256,-0.16749629467826072,-0.47866588592608433,0.33521228912322915,-2.1943554481591856,1.0322340697577337,-0.18458621616133108,-0.0559221735365273,0.6117310515363793,-1.190511357599623,2.363673782063399,-2.299228898769199,-0.028260781319602375,1.0408684782323643,1.9397292664459087,2.2461253874647733,1.3766445343319622,-1.917755688106438,-0.06655721942666976,-9.681964296308394E-4,-1.5417597525119713,0.7934296251921253,-0.690224248420778,0.8469235584707742,-0.07242400447174396,-1.8338077725966275,0.0364263326471827,-0.6630126287063168,-0.692384962685536,-0.9584283201579332,0.29152687729544646,1.0358631754535381,0.5925677751843906,0.04028444156243216,-0.7597439173231986,-1.7623569574086906,0.4052361985512844,-0.5913874883678657,-0.6630090158360216,1.1348439362680445,-0.8242830889742838,-0.6969723598841202,0.5304761381808337,-1.4111766705524387,-0.8618315328554244,1.1089721065942584,0.48270723025631385,2.0583127681100284,-0.5193728037263068,-0.6928655708394954,-1.2318662776008587,-1.1143941281979697,-0.28493890990684984,-0.22638615270592877,-2.140113254337169,0.3261385205257857,1.1350572749153554,0.0978116416140255,-0.7910238381667584,-0.09738402609818639,1.586034025612726,-0.5852960958584017,0.11127956426948155,0.24549527583976938,-0.6238813768202383,1.1611507932797192,-0.447978296084401,0.12275542629773714,0.8371979603032096,-0.7109929264727285,0.2873148767013027,0.3865438282965344,1.9192371083279283,-0.43209738017580007,0.25373348533014306,1.5956077121854597,-1.1254120853768648,0.11998997486799394,0.9163528422647267,-1.396795105566314,0.5561221970588398,0.5074354393614614,2.3461365173060504,-0.49360741689237436,0.15111156173836784,0.9715591888313838,0.5775700663330732,0.5269177461593304,-1.0296559056911547,1.4511271392024125,0.7046288073048124,-1.7995916479588492,-0.13861522548757005,1.0394647928085783,1.641466579817039,0.030745055058603084,-1.1747404782673498,0.4234910014829852,1.2744263421702542,0.4394531857548729,-0.9250349676361034,0.2388590841384825,0.9853162709401807,0.3101071630599742,-1.111816021156485,1.6601353191646173,1.0358649492206105,0.9263599340623062,-0.7632521196963942,0.9614959450378265,0.11004794565044264,1.1869992311322182,-1.516292340029573,0.47994219535653393,-0.401905896014893,0.5643653532286185,0.9035763520810367,-0.04143466983125706,-1.0274765309927536,-0.3388639487133516,-0.47230285787309084,1.9080959537650184,0.4266247954762138,-1.7098427511281822,-0.5149639792707896,0.41949025171924953,0.7147745795118265,0.5129215251093501,-1.058407284672408,-0.6350382761294104,1.6255596204594431,-0.146016247925043,-0.5391532706573373,-0.9496628094730668,-0.6183360392396618,0.4442148352161727,0.6629138150784091,0.010472691053659274,-0.5985349235501464,-0.3125739038765963,-0.6120644116513327,-0.6747164424392152,-0.5807806170608171,-0.5576918188502495,1.3618775918926391,0.11703127019245124,0.2859140350780043,-0.46557743147287906,-0.2549306595790923,-0.40415499062208665,-2.3654755039848308,-0.07375184677672392,0.8531891420637302,1.536741775201065,-0.09682841569297132,0.05765581246700065,1.2321224207275472,1.4310023217479446,-2.1057217761754186,1.2480653839388898,0.8913247822871602,0.7648387589678944,-0.1946762118746774,0.3149519153294586,-0.7548461431591076,-1.9120345395677558,-0.20879504710872757,1.4352389939533592,-0.7835826383150031,0.06301872964984791,0.8747334158804796,-1.4931558730020458,0.41320422128562617,1.4998012574885993,-0.04619092797337538,-0.036854751956484896,-0.4765290829522697,0.763809246091206,-1.415122697347936,0.11202045949524198,0.6888867801917141,-0.361851250274807,-0.9361788091827424,0.07758430321118397,-0.024004274791748242,0.19104004806045485,-1.023508457148742,-0.8366107555690221,-1.2446095592346313,0.6958575280539799,0.0111761050453192,-0.2241364718187868,0.43777723701212773,1.4471921843008773,2.491428426159194,-0.6664888122090511,-0.5546870107135661,-0.37037414936913005,0.18096296653999766,0.44620290426231657,1.5252121484264565,0.4259910713628023,0.11474117480882635,-0.66366684080371,-0.21521603406286421,-1.0297050060199193,-0.3464008869576744,0.22724011412648554,-0.13335744987725692,2.1836524503816293,0.49499104774453,-0.9199519309431681,-2.258539339342567,0.9182653840005178,-2.5506294266532734,0.041357449109957346,0.4378220492387613,-0.12029949708017754,-0.3147994018668129,-0.928951261808442,0.032611795418903584,0.9221557600464569,1.34208104332356,0.51940376752195,0.33181890603747405,0.20847875772934643,-0.2502398621806148,0.6155766093048531,3.3914193283478182,0.3585928231177309,-2.017848320490497,1.4366052978330048,-0.15896681111514466,-0.9304777687655421,-1.7778176794668328,-1.5822678613698007,2.0318792205713474,-0.13210591100413918,0.003582229708423168,-0.009679646841486846,-0.8781590075014784,-0.6774632739128386,-0.7535487127842729,-0.8797342137100738,0.9438047243356832,1.3057497501808246,-0.08148238140542272,0.7510414332728966,2.0041535121980165,1.2194399778253295,0.6828743065951811,1.6958056901118204,-0.6563373262895498,-0.9898450180097192,0.8087634719335424,-0.2635819517734074,-0.48486643435705407,-0.27903929628707025,-0.22517942509797226,1.2850795597167557,0.5559500579124103,0.14611922060971066,1.0319193957045056,1.1388473611074095,0.18930110717913456,0.6782609651739568,-0.42306172917946894,0.7207988377139923,-1.3498464320138206,0.6782906695653983,-0.24065630944840377,0.7176934906610976,0.7267864303399999,0.6004941114389074,0.03972645644501621,-0.6675204487068827,0.7271687692872603,0.053029215774608396,-1.1149497908632233,0.911297177604111,-0.22412570738407825,-0.9169513804117729,-0.5033736073094203,-1.3269388550453258,-0.8865967830958403,-1.7764773916594736,-0.5633287778031411,-0.3844560767679239,0.5162273342991686,2.45494807399564,-1.8716818234521608,0.2674190457943869,1.3544376832399203,2.6987057959341154,0.05879402031123441,1.2749804984416133,0.2952754826868686,0.8281073308379487,1.0236001489883673,-0.21017377719328778,0.5035625882624195,1.0774985457612078,0.7822953287841046,0.19066628087057147,-0.654899800055642,0.48759221390526347,1.1610514025561207,-0.7474793699437017,0.38644041444608596,0.7159074494136084,-0.03313977365526379,-0.16218288254351146,-1.0209988549572384,-1.8815889583423389,-0.09605526892677242,0.3205954559209917,0.9241600682985728,-0.532715695203909,-0.25113961207205215,-1.1015347647683515,0.0633830366957907,-1.2335350812554784,-0.8091859556890312,0.118569048994299,-0.19706329255757685,-0.7678377573196444,1.6416592142667483,-0.1994293318105529,-0.16025490001084947,-0.06963342737843431,-1.241942493352679,1.4294819783774468,-0.7193337589010702,-0.44706816202582367,-0.3126015379592356,0.22441690955902077,-0.6332015725394782,1.065525549678749,0.9888148139475983,0.18068918399133327,0.040935394066918644,0.30224131039597163,-0.43418550650817933,0.20888318387499774,-0.7402897447496883,-0.9246838108559741,-0.8340261220910422,0.6634118758755384,-1.1579803330424814,-0.1251876530543972,1.4213777568971604,-1.1838053849866468,-0.1274466321178667,-2.0031789151457366,-0.20735257514308872,0.9696734345167686,-0.07146187051977683,6.435512142978581E-5,-0.6828359182545243,0.4724158697098786,-0.18311941337614154,-1.8680514012838725,0.24470308016842826,0.006866135469505971,0.9361854320744585,1.2294071891065348,0.5747537798654262,0.3068495287394562,-0.3443054073942583,0.6812068539313239,0.6075093931043745,0.40150425627828445,0.030139950696033098,0.6204071959111143,-1.5184127033338572,-0.3031820830980695,-0.18318136590010808,1.1169050728015046,-0.6249680861719678,-1.1574520552665561,0.5901067346267348,1.1306455715412438,1.5502737598723064,-1.1858589410060554,1.3942491773509453,-0.17285073100251702,1.030891816042429,-1.3522236622335397,-0.1072704510996018,0.7188727959535856,0.4442818309829672,0.07891081662041748,1.614538463101138,-1.1684720836760398,-1.4164491340749406,-0.7434561445435983,0.47964864810957814,0.41121564446783554,0.06033924141780799,1.890266791040873,1.0484675246194555,-0.06760435165403558,-1.7493952197124494,-0.5307645132468032,-1.2067136685945692,-0.590086984544132,-1.030714686023706,0.8184724967565737,-0.8582085151006399,-2.414542253418046,-1.155647268926186,1.0136983732904852,-0.26092343227146175,0.9264858152575833,-0.26201132208705225,0.4778549603625136,0.575854675818113,-0.20678774734899077,-0.4001355423166097,1.2738594215271961,0.902684389457136,0.2902767404572118,1.2176477981702407,1.1281869182350923,-0.5665800518178258,-0.7820107449534671,0.277226122595094,-0.9981296490763099,0.8263139615641006,-0.2521870597266427,-2.017655058002547,0.12010490684460487,0.8941055241108774,-0.9862201561359135,-1.1234000539091047,1.9193164170694288,-0.43672116469057104,-0.44426859303580335,0.7188794889497502,0.2822436719042475,-0.3991679609970795,-0.538119589439788,1.8962615642626048,0.327551899896551,0.31461766584300543,1.1347832184162765,0.414073793149317,0.5593268177711589,1.1664093249506167,-0.6348174501525189,-0.2891281286315911,1.119005631857114,-0.022506263585336406,-1.1106832467210515,0.2943237030466673,-1.5604240114005936,0.1880994822861608,-1.0868604300308722,-0.3450149914614214,1.1297842608316633,-1.1564079971998498,1.1806727396433723,-1.6252063590011347,0.3493997480489538,-0.25733760414485696,2.6471384254250774,1.2189855109275032,1.4138926945363723,-0.5514819398278737,0.3219240107253078,-0.26213911950884355,-1.2592079376527494,-0.8517799270861425,0.48813559432785353,-0.13359243944698995,0.17315550365755866,-0.28862112394302253,1.2522198125351498,-0.36061957946117923,-1.8861795836828477,-0.5364971350339163,1.3871609975105577,-0.06816427248161784,-0.5846039318413615,1.14290497121964,1.3152623619767567,0.42346016739704107,-0.9589438397280586,-0.8665211027644819,0.6716479992484738,-0.006061695387836336,-0.4605128661935464,-0.13787186252919,-0.1860935837468304,-1.0653285001073474,1.0923947802832807,0.49602136910469435,0.5119360159483345,-2.34606676666069,0.22205571324914153,0.5771084359735179,-2.393458524401008,-1.0371386714381394,0.680078667367827,2.4586993800856924,0.3932180747089003,-0.3116537940776187,1.0509786623606772,-0.49257045648134795,0.262934040333223,0.22578654033503778,-1.4220153436133254,1.2324746536279256,-1.106817354635226,1.8113231487298855,0.04327680042157663,0.8657325020633434,0.49271285549062466,-0.12801252546727462,-1.4402796542155853,-1.9197125702659648,-1.0512453040528584,1.5523185366401915,0.2926140526287762,-0.009531353126463332,-1.2195270336478536,1.2178891209737526,0.24410944034952797,0.6296197086077021,-1.1815196049395218,1.4858059457690553,-0.3275595842598633,1.049366653380047,0.17229850609008004,1.558183527829394,0.1634519318233086,-1.0026504376139995,-1.2444058269872729,0.15732831940919803,-0.15480565214668252,-0.8798566540611471,1.5828481539698533,2.198609252494807,1.002642340760133,-0.17825013367912226,0.3640370704110078,-0.007961471123544133,1.30408501423149,0.3470201900282015,0.507709463035957,3.350421042579464,0.4617097743041718,0.13046094003487088,-0.06036959654375491,-0.5112827268548351,-0.42395294033413655,0.4610953470590537,0.7179413060349391,0.5979877532982866,-0.32374041198306774,1.2188876976582907,-0.9948197800610321,0.04324565780895868,-0.08028752375849668,0.7564639641287239,0.11073535126899542,1.810594765019123,0.3167515007142338,1.6103610613669859,1.5282673367122508,0.3545204807142472,0.9741692011316657,-0.19645355820452684,1.375642289954196,-1.70481808506545,-0.19156896954722966,-1.2605791783429243,0.03769043434154157,1.4208325341267087,0.39627718014981306,1.5087974476889803,-0.33392238466072943,0.30105614124683105,0.23967652647070253,-1.1471581961502713,-1.5486750907378037,-0.9574137272364116,-0.9174549543884247,1.1619721288001899,-1.9935840511043215,0.04708568177190395,-1.196007788007534,0.6239492632922712,-0.8020280278142478,1.056625766727329,0.4739846776878777,1.0216650372247462,0.015808354548847995,-0.00929939679199792,-0.034917020276092364,-1.211857764532725,1.1611639969093255,-0.5773210460836,0.4870578412831185,-0.7038420676735458,0.28228138260611524,1.7296147868278613,2.983568417158955,-0.30165764899599135,1.4175333401447543,-0.01846505664765181,-0.3331217025659696,0.3126192104424099,-0.4310274045273047,-1.798875507445066,-0.4532981825987314,0.9813655703078173,-1.5480770087054525,0.5873105970582493,0.8599232937214798,-0.26190616343764017,-0.39206491065019117,-1.4930841389965055,-1.2647460560041708,0.9548354984667461,0.7814444262486753,-0.9801432278723488,3.0877967929276133,-2.005423568925426,0.8485300601693624,0.4393352704380382,0.735910929924927,-1.4433046939948264,0.12813504081281338,-1.814386922227792,-0.8455993150278238,-0.46272958798091696,0.6449699517324753,-0.011799711020066684,-0.1674818710626547,-1.1933374345493633,-1.5760512651509677,-0.33033385316008096,0.33158232306617463,-0.4890669162206593,-0.04012537063666923,-0.3934781409144122,-1.8646180502720462,1.3177129276328314,-1.3276606127591768,1.417959279582527,1.4233386758354296,1.303824261625001,-0.27437494625818115,0.3639958852263194,0.9270734647790889,-0.9389400701778366,-0.15103005933795682,1.6241351574363578,0.8919884837552216,0.09057202594417167,1.2528005281096453,0.11128898169792746,-1.6604303352413003,-0.6411923853316877,0.4249079783757515,-0.4650847592433053,-1.2971474722681768,0.03546133936431544,-1.3553084889954121,1.001463912848415,0.0314179809074618,0.49654764930512296,-0.20291177321617251,0.46816582171342835,-0.5839194473294843,-1.1477221060463814,0.4114956451155107,0.7591736614620999,1.7357213190422855,-0.9546474630633736,-0.7041588699589346,1.3089309435684524,0.575886142794421,1.071342731487336,0.5017357623846175,-0.38804919968167373,-0.39225843055663007,-0.8790058566094409,0.6030706949674928,0.7785374978201565,-1.0889617257698967,-1.3084814314039637,-0.9697274590290028,-0.6590271213098201,-1.2650763102455178,0.8178602801666274,-0.3603598067209766,0.3304995622608927,1.3981941697662474,-0.027935577003411743,-0.09753029306127625,-0.0493753217196192,0.0630339769113809,1.11336732747276,-1.090030111643925,-0.7170309522169961,0.5015362476671955,0.450213972012028,0.13070958542526265,0.20457663140695154,1.2454560604559348,-0.2487381455647583,-0.5434485725032991,-1.05257235071497,-0.4464308025365399,0.4900630974818396,1.7393367444179986,-0.5007407537864009,-1.7409892290794025,1.3160963700412263,0.19057372328048924,0.301939390494806,0.053981069540252495,-0.7380475498842,0.6113615615035196,-1.4154665534467954,-1.0904101840141653,2.0207463402252728,1.0108771236573633,0.04196867859119642,-0.2721222482318182,-2.034111407416794,-0.4577366901567419,-0.525475038716572,1.6438963103456938,1.5196441185000833,-1.2685525421356731,1.2852235550507982,-0.5852235411753097,1.1886466775728484,-0.4042381342054862,0.46189282936572174,-0.6966589094570621,-0.4493413286774266,1.0256573279431684,0.9252060700965501,-0.9101634893892819,-0.4078661982001671,1.3391967504937283,-0.45530741573142985,2.29880905461929,-0.782835853024856,-0.21334288234399526,1.4418710403198964,-1.195924147807712,0.06559321680669504,-2.0348402920637527,-0.35933184818799885,1.0470929451635076,0.10295675668517647,0.05348845018806856,2.927454096699106,2.4606682294271427,0.5357647990791505,0.8755662144558003,-0.8545566455479658,-0.5434384112021421,-0.11146497124524128,-2.0217484843133344,-0.8399760610346451,-1.0080270519209293,-0.05914306665529816,-1.8314327435374786,-0.49523169140838125,0.14711653666178862,-1.8847832678878371,-0.18986347781587434,1.3611991491439386,0.7230651871819106,-0.6336244480304738,0.5791598929619332,0.04316138809862551,-3.1339824679449754E-4,-0.4123852223544067,-0.45873438669513994,0.8473888587379261,-0.33194994348538276,-1.394421028899275,0.4470638811724592,0.5205122389361956,0.43894789989111876,-0.5557488350144837,-1.486451681000575,0.5885048960037509,-0.32244660532913455,-0.4747501721194451,1.182008866619802,0.47635725303236043,0.05546930576963576,-0.728732827953675,-0.0839442941204508,-0.3438220939336935,-0.6209104052696254,0.5222207884323887,0.29372253841205465,0.11070501569032007,0.2597915670577056,1.039818200916794,0.4727459441044564,1.0439334593264555,0.968757948914095,-0.08876766390625435,-1.0223614218835686,-0.5220737034602964,0.12678699253088457,-0.21433308930126904,0.4830875094934087,1.2518244474770812,-0.5975182013748981,0.20303445151636096,1.105985921763008,-0.21713187321518396,0.7198825068086809,0.1200001456729106,-0.06853422550852464,0.017251509897319182,0.880460541494306,-0.5933973052943422,2.550668523739108,-0.44578875946145813,0.48301375646151007,0.2716282878662023,0.25107281581838886,0.6728418293056545,0.05145711046407607,0.8576942370346164,0.5386695486254214,1.1015990031072318,-0.1716757080729046,-0.41234288423746707,-0.8108039021114515,1.2591105073679256,0.5294446799566193,-0.5808795210895582,-0.5486441939527583,-0.13992242823802595,-0.603857412677201,1.274246437532855,-1.1669642384111194,2.7009518150400362,1.7997293045395106,-0.380745438946452,-0.4315581809846865,-0.22789162600473442,-0.736714980815411,-0.21061208201096943,-0.4771091907294743,-1.8635531974922832,-1.357880842533658,0.9876854860981447,0.33156061043384977,-0.22619892696954083,0.9009976565536566,-0.045058688292739305,-0.23443989651478886,-0.594679022433756,-0.1502401671388924,-0.7967558582955803,-0.9759207632790601,0.5774108522341103,1.2213284445929136,-0.9014803431430879,-0.02945697545750421,-0.48324527012923146,-0.5453184187398014,-0.28977924573107605,-1.37592330711442,-0.7386470029054425,-0.3297944786575105,-0.7902173556855154,-0.4131921892270258,0.04293053873071749,-1.9390649921811585,0.5256447659911894,1.352195434008635,3.292916844236772,1.3095378391714938,2.107826447808823,-1.74187820376988,-0.7252695685682123,0.42643485584032786,1.6776852398490332,-1.262486898827793,1.289226151371191,-1.41812828198424,-1.2782053164634133,-0.09518901344971128,0.530355695889668,-0.9717849117815865,-1.0637067130788718,0.6079926744890436,0.5089783904346608,1.3980435083047273,0.3475249835416411,0.780276757429962,-0.9653370867899347,0.7869293903573972,0.9528532808672594,-1.5517972053643423,1.685464835190193,-0.40511664184401025,0.9245904034367198,-1.6156599238447937,-0.4154160614806116,1.0470312874057834,-0.6237634154319314,-0.4533666968893746,-2.110219107002324,0.5023825396338132,0.813025389396407,-1.5564317040723847,-0.20093754748026826,-1.149199055290123,-0.26341819103486935,0.3724976471643297,0.3529281519354406,0.9856463729674595,-2.241170096693491,0.14437550573466182,-1.6789153877089111,-0.21764535211316294,0.8972990876167711,-1.0868370864450567,1.3174533143062326,-0.8435253357114466,0.9059798669587578,-0.5454305014883706,1.8358263515872904,-1.2151665337910849,-1.4438332773201927,-0.29998363886246215,1.778795021570044,-0.05594223748784498,-0.23647235907013103,1.7921922590318855,1.5896968734291297,-0.11952666268873309,0.6159210232110678,2.4713124470693626,0.10599364448318839,0.05106007897405904,0.0027231637797269477,-0.12509120521748193,-2.0628822602918366,-1.9397524580822931,1.384561209846704,-0.9877541169380385,-1.5757737744090234,0.3888668393243914,0.5863165621553502,0.37682768280305623,0.0349614220279564,-0.09235005446684069,1.1476919186776913,0.5543401037881229,0.5695944612530907,0.7466023207788661,0.15406742049399277,-0.12281676531449053,0.20918794563221457,0.09538726569336127,0.3562960835611018,-0.7198669593945832,0.720818441052437,-0.507861137501344,-0.42675656022183417,0.6161524273834725,-0.2867725762923026,0.5415932561910731,0.4086863940751955,2.0515805964214553,-0.9359790506492672,-0.703092445768925,-2.3238890881540333,0.5249678459703487,-0.14944542994159213,2.079628351445732,-0.5752286056153089,0.5161599578596597,-0.9539650011386014,0.6839838181270966,0.32050824518169013,-0.7625133584599181,0.359233656398717,0.9902643521675517,-1.523039652084527,2.487846860697977,0.08575457219680145,0.06738574733278481,0.6167332888196406,0.3703936393809936,0.5931469982649731,0.4598123326687751,0.18156805799030906,1.912399731160643,0.8880560131016477,0.17276792915774783,-0.31047494207472087,0.8971302675084775,-0.885412416762714,-2.9509259849573732,0.6765115338972706,-1.3262311343633102,1.0857131074103763,1.0701066483241177,1.6326366486529609,0.1030410202675067,-1.0190438173749738,-0.47665936771783424,-0.8273146268256831,-2.0117752373604088,-0.3745351300803842,0.6600400211963614,-1.5493445861591364,-1.4944782868147546,-0.3666775311972894,1.3227843413492568,-0.7382698198951476,-1.658666119634224,-1.601956159970001,-1.2763642455714856,0.3675712616967467,0.5446086632945897,-0.6368189596728334,0.1374670748272085,0.22745609664346722,-1.238645179828695,-0.8901933035635373,0.025031993560469624,0.39061276423757,-0.6625300498566863,-1.0081804745063465,0.9957836557696755,0.8262173281955512,-0.6372094105765201,2.079617214560347,0.11600685445906721,0.04830153475684954,0.34166597688670747,2.1425675051278055,0.5602892750544934,0.4218592445642229,0.3090933129363496,-0.7478300387079141,0.25385660690595135,-0.6415078336202054,-0.4235028076413144,0.7092504549374941,1.0981739648167619,1.0004882741739112,0.9259302913844661,1.2949697767169288,-0.988661628068688,0.2483919872360394,-0.6119349274919301,-0.6426697161182267,1.1618267421063961,0.9791887969670958,-0.156016803501698,-1.2206692007736177,-0.6214082766537379,-0.11456601818358447,0.7668360549367703,1.4582370374800881,-0.6842462951357868,-0.22647727553492403,-0.2474376689120212,-0.5667177401222296,0.12391788984400284,-0.10416540739413187,0.8195277590962452,-1.017467702850119,1.6290764768223531,-0.18302523819708352,0.9603273376049326,1.3189422367039711,-0.33713849826653564,2.4559167026025635,0.4885707381741162,-0.5868012088676652,2.6243276303324734,0.38497192463454283,1.8898386045585374,0.8924224721635042,-0.25781392716161217,-0.6331981975816029,1.1643197528839704,-0.4043530070045432,0.3033055920980607,-0.3939003033486286,0.4162143158079469,0.7467694939753144,-0.2327349631464103,-0.5675944037548252,1.1295633920913193,-1.4791184969981854,0.07890361140866653,-3.4446813931972335,-0.7581802425200957,0.1884325472598725,1.3020520465489052,-0.597871186467104,-3.15242654789555,1.2508997406543785,-0.281631408207191,-0.3391938861035807,1.2047468306783562,0.2711109014989091,-0.7569907495911382,-1.3971646017810706,-0.8756137121673391,0.7396521682821685,-0.12849815066441275,-0.9880078000257209,-0.027746003727504197,0.5004197032788918,0.5285512194832827,1.3165446805062793,1.6402476501936025,-0.0922735036822286,-0.1168082934293241,0.8820281207289792,-0.6128802053187616,0.7307318596834335,-0.5447802024490084,-1.872625625970956,0.6846362743383351,1.1997478745891628,1.1862862517439785,0.544987087324648,-1.0294050793134586,0.06760557688530708,1.3319551773421616,-0.22060652171232556,0.16489571105313455,0.30876300694176234,0.1188473311678521,0.831774101667821,-0.9036217339645541,-0.8662686155806977,1.3344845887477674,-2.35056607776856,1.3611779115991718,-1.0434005614512385,-0.9148305913385383,-0.7861497400591066,-0.8230778711637541,1.7243689878731796,1.0718899059896032,-0.552166015406754,-0.5784905525136675,-0.08992621679348699,-1.2469371336008341,-1.2497810631983475,-1.0248892210353011,-0.5937354407642199,0.02913069908537305,-0.15706956627757213,0.7592611056535886,-1.8071347579362613,0.9134073529497068,1.8659993286096321,-1.1995800356705266,0.8388416873384137,-1.9134570187852187,1.273589331341162,2.3002711431037994,-0.7539818888013429,-1.418769579253737,0.32557127330886027,0.2198932336307204,0.9559232361888933,-1.0601943963395792,1.6955063196014666,0.4688162849621861,1.4394900991080735,0.13893590093363806,0.20820963439061652,0.5147629449555698,0.7850302805079654,0.6732801553998712,0.46926910143391837,-1.9952288381536631,-1.5554562917961505,0.6638163598356178,0.25464836311487243,1.2446731555399777,0.40100518456924855,2.0011923878406224,-0.6553823717225712,0.16718529156340708,-1.3319914626727214,0.5852679067855558,-0.5512821517049203,-0.8589996029979673,-0.3728143373089875,-0.6145592141381211,-1.0526072753238997,1.4206523310666992,-0.9220371779782692,0.5698866369081301,-0.17178661569915543,-0.3991882372811654,1.9163927730569266,0.6557954565107361,-1.0878925130975825,-0.9718422918634184,-2.2226671673228076,0.7601871889779748,-0.27555642369690475,-2.095636253562306,-0.7555017751445069,0.04440824563446563,2.1867513477503193,-0.43686790714536355,-1.0244696555952713,1.376484196728786,0.47767954705845406,-0.19636496147165966,0.8169303442845716,-0.3278930377921859,0.4291745100739638,-0.21087432502378034,-0.7425092534785368,0.36837262113889585,1.2885512863663608,-0.46526017162027394,-1.7884237826783136,-0.6455075743347758,0.09340082438552312,1.1399428424564282,0.20041197361311364,-1.2158637302083821,0.6346894610677662,-0.293594599961224,1.0063045347939328,0.19104649707256324,0.7113973558944098,-0.744493013798051,-0.5746247285546878,-0.029658943335911278,0.7510798259300903,-0.06684701940328786,-0.1785340786266716,-1.7052207646715336,0.38144877359953533,0.20001882083061,-0.6254869081952842,0.02866006690071228,0.636912949687923,1.5927108053240013,-0.5414545459886184,-0.24105782887983498,-0.5214000186225239,-1.5002005017052045,-0.3238158145780245,-1.2069200425957989,-0.8954423925412252,0.23114078495492824,-0.7125985563717022,2.080938695426586,-0.24920771012101237,1.2016144952336174,0.47314976912855256,0.9593399505441292,0.5160710774619649,0.4416534054023062,-0.8472273598715521,1.1301290282508765,0.7225183294890857,-1.080721699898729,0.0375673080036861,-0.39980872733922623,0.5150404414880403,-2.6619972536854815,0.6485013587367119,-0.4266940599867244,0.2071030903176456,1.3398927792914315,-0.7246432396530786,-0.8210346256662521,-0.2983969408079446,1.6450483456735698,1.182549252450759,-0.9217175219909014,-2.8683367733057947,-0.5099938317893294,0.718568739062021,1.5021811659932467,0.7747002981621046,1.9011358159961929,0.04444314232858572,-0.8394025338776202,0.21658241226276514,-1.7289174158618983,1.7126539572240729,-0.09848768301275453,0.8618061807783518,-0.8071908237752824,-0.9991335302461405,0.3670173956491868,-0.13640961446013192,-1.3169149619635456,0.4387563314620888,1.2577290697412131,0.44458666810281433,-0.6427871101238599,-0.3718715296354474,0.7433694390302091,-1.26001653167547,-0.35709162664595206,1.0655732940559122,0.30361567625101044,0.39515049064069785,0.9158244559669749,1.035526229075122,-0.6072205059372635,-0.9029136350177107,0.5976175755967714,-0.7572411240460092,-0.5583422384487985,-0.6354633608188492,0.30448503745664685,-0.9970551803553146,-1.5371939246748367,-1.0743428954235694,-1.0446041961274757,0.5411949879864781,1.0880245268769269,-1.5232008260215602,0.42100274654937636,-1.2729535715868696,0.4224100684598091,-1.909230987392375,-2.59539600017763,-0.44110188508263076,-0.23952494843525823,1.5055321724438022,-0.6262523233013182,-1.28547829627476,-0.6513078933560844,-0.5808554594350721,-0.2611449235659963,-0.9768483143342068,-0.5622520326603142,1.2970995812310933,0.1873637354961999,0.6276815298614146,1.665677873275615,0.3024717906571395,-1.430364793718815,-1.252403646165777,0.9173617557456775,0.009546492650904405,0.053595865626568116,-1.3787660242885273,1.511847053191612,0.14804638050954752,1.1313070376772958,0.7524882458496168,-1.5187604109095334,-0.7547441135151519,-0.30456189947429846,-1.4517916193305531,0.6951593537831146,1.3597125071195773,-1.155674364177228,0.43160601828539247,0.9520644873329602,1.4065961251216266,-1.2779213876014341,-0.5735138229754327,1.723627457324894,-0.8325387595001965,0.08219751661202708,-1.5007533145306582,0.7087235673959273,0.07850743106639203,0.7977550972413012,1.0382201219281308,0.5806516516411135,-0.31322911864893876,0.4315979228502299,0.27210117121762034,1.3375681248386648,-0.6111716302442824,0.7451990109640845,-2.916364249801497,-0.4623539210712115,-0.09014834191841851,1.5628564632624318,1.297658619476306,0.4864930065970191,0.007366234190870398,1.1092371365673224,0.19095446503680213,-0.8181656719092476,0.20473303409286694,-0.7730393997452957,2.050554487184275,0.7943380473615502,1.1571556971138444,0.19163802745974254,-0.10566365094557521,-0.004377121780098806,0.16485125687127195,0.1288222362503563,0.9329862789100339,-1.6151701374422425,-1.2362250529679413,0.6524384013297254,-0.8100271779706523,-0.28931077300426367,0.21465692452587828,-0.36308812946167013,-1.4847654041389162,0.7645807524608983,-0.64655842664443,0.5626230593477176,-0.07077355745416337,0.19724527863236016,-0.47250700280726604,0.5547092048358102,1.8856742498864714,0.6468766909162605,0.8620203900822163,-0.7249320641610436,1.3148032916404504,-1.050812708898238,1.5494026434754218,0.5479135621329311,-0.6462173268827249,1.1360494804155339,-0.925642161412856,-0.8752444509628156,1.117710427382972,-1.0230521727591373,2.2974617995706756,-1.0943991462472866,-0.9987842570419956,-0.25250197954300524,-0.03261650962856899,0.34334664096537487,0.4746807422699418,-1.76766310280822,-0.06485269278172053,-0.8465489855908757,0.9504276886413341,0.340838400580752,0.20327549542544796,0.6481623152866395,1.002435267532008,0.0943702185653783,-0.8700866944845159,0.4756588434105338,0.20976727613966425,-1.3061259440948783,0.9323450010110736,-2.4032214765256072,0.42067909828922984,1.1826785731014469,-1.684550249867305,0.07784951533602727,0.608377098218133,0.49621623597122305,0.9589799970354163,-0.31706105099593657,1.1602245949274204,0.07799214251826107,0.7003562250535863,0.3745821641114446,1.5169554850682672,1.147341037046262,-0.6227024531026435,-0.4286148010358432,-1.0995856634303347,-0.8033350902247075,2.9565640726371254,-0.8603385198943381,-0.5160911350768215,-0.14063552013833397,-0.3201847652895699,0.6655964070421637,0.16341029036210217,0.36820945864581595,1.463973488761015,0.3004199214486292,-1.5689168675167844,-1.1853253416165432,1.561345661664395,-1.227031988858667,-0.9620562965851789,1.8074475656185076,-0.12554403516332446,2.3210556540503555,-0.8058763429209042,-0.43161153841952626,-0.045565883969437976,0.29883042978067215,0.9616830344059307,0.8588895209562443,1.0924227089077463,-0.06748859239762378,-0.9077791585733993,-0.6927968674352406,-0.7286611852215049,1.392902919663986,-0.6036117875486378,0.3347780778842117,1.449256011682357,1.1141196066396328,0.8386558607478034,-0.4658576528151334,-0.26045862664957214,-0.7430658184640407,-1.1260249659352515,0.7456130666829148,0.2626516728299878,1.5951338129113712,-0.8508855528782594,1.2703001215502865,-0.7055647362890619,0.5777564570855777,-0.581578682723216,-0.9758435572157097,-0.8514192311338097,-0.8351533665067029,-0.4789723533993779,-0.8171848306927536,-0.5776060252527546,-0.925598222811342,0.7164837205027177,0.42661356021715197,0.4335808076014287,-0.877416004739501,1.6994360010210487,0.7769784802853421,-0.23560862488948833,0.10417348100653236,1.1982702676753656,0.51867113110422,-0.1593913931823938,0.9370793006996454,-1.6866489100334074,-0.31324040689889937,0.11007057164482235,-0.15815839102212237,-1.9328068552449658,-0.4623073647060302,-0.26876815545944055,0.6279026693962222,-0.5766155439201279,-2.034673168860811,-0.004374248881960303,-0.672938489202214,-1.9025601315139535,-0.19322804979758096,-1.0438071689136605,0.9600473265346414,-0.5650843955024012,1.1892170220071776,-1.9299480140648835,-0.9588686812197743,-0.324810740466185,-0.6802886265963276,0.2695057368084286,0.7496509164630071,1.3717275881088673,0.0912319410124009,0.5654370710674967,0.12323391203071082,-0.49163607225377487,0.31530294327477915,1.463669808032939,1.5533881320005838,-0.12261551139656271,0.003134973443689118,0.0887625050749948,0.2488010116282628,-1.7931550582198932,-1.3002976131866548,1.548119299859734,0.09077434706608577,0.5974123988512107,0.31410973063469755,-0.35836404063530963,0.22770132540524732,-0.46676711152111844,0.38930761844448775,0.10942231510722142,1.3885205307781188,-0.6581731957028596,-0.28985661947120706,1.232141091898701,-0.5175640226129342,0.4964122023796654,-0.0653564729447428,0.8510221520653125,0.12629839609788937,-0.7939995841499392,0.9891766964497031,0.4266590473125139,0.24372818058933404,-2.9127149524558367,-0.2410649382438876,-0.34124425492079963,0.2228961688800789,0.41997350247475557,1.542884687075748,0.964436584682748,0.28090172815087927,-2.5813783857919685,-0.5488253919077649,0.08297809193980961,0.9445614695570212,2.169647510079561,-0.22269996104445855,1.8203612589243272,0.6801581259294921,0.6014831723323416,0.9817126299515423,0.21375228917353808,-1.4479063042880425,0.4524809498540117,1.0365330102314458,0.052161089648969754,-0.8212120999795556,0.5887340880817754,0.9508186858323855,0.7448921656802305,0.7621624480086405,0.698516320676738,0.4930015059912108,1.1162635038648903,-0.9301170807628114,1.5853270999072926,-1.0832740773188212,-2.4531506084645387,0.8493867347912094,1.0791533799295858,0.5259047728955712,0.11435530396067853,0.08747220747289809,-1.7395748113780172,1.613790314563308,0.34426315757537534,-0.04431861256620721,2.011048124440194,0.4010828621698172,1.4440362116682526,1.4882884499990117,-1.9643220959967194,-1.1528455967243356,-0.3293785142768953,0.5650481361062445,-0.6281554855053789,0.6344844551720128,-0.11926929721794549,-1.2083542198608557,0.2939151269859715,-0.15679803555321642,0.11276631504340753,1.02940930197533,-0.6100072350544508,0.7161824416442873,0.18097714152163835,-0.34121552919035714,-1.597496404561509,0.8497611070356021,-0.006992100603815542,0.6769631544660568,-1.8321462650628104,0.10047113106995234,0.9320353754941727,1.7954881442473354,0.3121214279018398,-0.04581666144218581,1.8544992407733256,-0.1383769081966661,-0.046235526761549725,1.2785976840630657,-0.293763010724823,-0.682828706255108,2.019974616063234,0.7428325080947111,0.03897063584857916,0.2259552057257454,-0.4964958780715294,1.7180285127277537,-0.258090729062472,-1.4751760235565967,0.7999376483672475,-0.27861623756688775,0.7370741480326674,2.253762531803376,1.0783889856339006,0.33727598271047377,-0.5523375417811915,1.9094090244225468,-1.3434789324510916,-1.159112786658816,-0.04146454923532183,-1.34713356428817,0.4522173397338862,-1.7314881069691088,-0.5181966800128404,0.020421234435808937,2.692500887383605,-0.6682672211180023,-0.8073128589904048,0.7879715066203734,1.347001538887698,-0.22043709308662102,0.46414965816634773,1.110873994617783,-1.8860162185977454,-0.08209100423862416,-1.1083070095588623,-0.136678781590855,-1.1101577914785001,-0.8499872963974668,-0.7360010465840718,0.9918166967860177,-1.1520641841833763,-0.04771318500276024,0.1222415614715881,-0.3279142439283126,-0.5274068647523865,1.3717657455018566,1.3096136132036285,0.17705940176410967,-0.46633496868740126,-0.5008406593452204,0.6996666612887773,-1.4467646388092652,-0.4495621664922691,-0.6160617238323257,-0.33221517372267234,-2.591695912025183,1.4217792367866602,-0.3855585579694308,1.736607364029386,0.8050266246328186,0.6473057948515889,0.09218529822170957,-0.944059931760588,1.0691711407067737,0.7401643500806341,-1.4805857370454512,0.6126173629317627,0.3190204580592908,-0.258001776562516,0.4587639471720252,-0.8179433584603483,1.7969965010160716,-2.011406906788872,-1.184081620091096,0.08505822601591201,0.6700795475369772,0.17853744761835053,-1.1522997236038113,0.999170565741512,0.8282466370795132,0.7708475411870617,-0.49160451384029313,0.36778060107240806,-0.24936184731012925,1.067119289933111,-6.15813799772606E-4,0.7835133149113997,1.7511727357698361,1.42732874765688,1.676342175708798,0.5746253411921356,0.7719766855245088,0.11444984757867094,1.245069491841728,-0.3358622568195469,-0.18781447166225138,0.38760193138928206,-0.40718276701498984,-0.24013473501060567,0.9681292580639455,-0.4853361365197272,0.2979571121665828,-0.08759199149131632,-0.7933179443335788,-1.3818135534077627,-0.9139795338272447,0.11019931579360426,0.2204877657612317,-0.9419123118065521,-0.8169610908551866,0.018209996508299537,1.8882420850577433,0.6831625611674318,-0.8988022801228049,0.7072675285971921,-0.9983865128036047,1.0173357784914694,-0.6912039283630171,0.7296464991305052,1.1101982097875858,0.19294525274838026,0.42949633617081967,0.03149501631640219,-2.5761650190001215,-0.9934329781675606,-0.41030753770295947,-2.1605663711361616,-1.6510612305545527,0.2799483194506527,0.1901225718411892,0.06888386982333405,0.4372110058143772,1.1161007617699605,-1.496409579707647,-0.4324779126667319,-0.24024411382161703,1.7623262845269967,1.1855685319026257,-0.6470668553363232,1.1761919217312085,0.742058896612191,0.29391231942744717,1.4259281297559772,1.0419769121466793,-0.19422872614916162,-0.9979537150661857,-2.6840865057009147,-0.671882542598534,0.2765935609417495,-1.275267959232715,1.6515024532296878,-1.7688598331846166,1.1368878186699676,-0.030806033168211785,0.24295053358876517,0.1481287476135472,-1.0254983364517378,1.7026988693220717,0.3212499499861957,-1.1816790484640074,0.5147072285598466,-0.2889381573025932,1.8899352286805238,-2.11919752172275,-0.38275634216743215,0.29155710046658284,1.0432155525537667,-0.44632423578882513,0.7942255643922864,-1.7751834295814701,-0.4921955383481248,0.27642999265055945,-1.161640450263787,-1.4304360074290539,2.0976979642954467,-1.4092094127255765,0.47701140010800896,-0.004139702732649407,-0.5154798590996387,-0.03296607752375201,0.4311647328331203,-0.6535421052689756,0.07837479458127199,-0.15051456338918545,-1.3407344565282053,0.4422965242873,-0.21895697483906043,-1.2296424298445416,-1.7864849094927566,3.0605839566300705,0.9355484989829034,-0.05004259237402558,-0.1693795256496832,-1.2596030074971813,0.78137562967675,0.1921545359545604,-0.019056564509977378,0.988415804935358,-0.20498896895079713,0.7446282037203933,-0.9695025128606313,-1.3037594916837676,-0.704336773634532,-0.6789109765975057,-1.2247175998730417,-1.2503353734251617,-0.5346601571054593,-0.3592544065798629,0.7956382280172051,-0.15364370935179913,-0.24552729150953287,0.50530600091803,1.968128298349703,-0.21509623034098868,1.258082303475008,1.0606945561733148,-1.0035879239476109,-1.328628668521051,-1.2501571359830148,0.5252777459444125,2.4883119565816068,-0.5493422653294754,-1.438763062121913,-1.2296363231511023,0.6661205157245681,1.011311591112468,-0.8280165071997633,-1.588324378404101,1.0890260335810473,-1.95406783326361,0.432837236215275,-1.083142781031871,-0.6415339749344525,-1.7311562826590199,-0.723070779798328,-1.263472056881993,-0.2651667840806613,-2.057218694717842,1.180154544382628,0.43864404631577164,-0.0033124010477642513,0.09453421830701522,0.3840980956382725,0.35946673171467963,-0.00561261471657381,1.2193451333344103,-0.536574149464036,-0.07880903218263666,0.4639062060650043,-0.4342379687391619,2.3026145373902365,-1.344030459362959,-1.0371865106472462,0.05196661299609607,-0.9808671816091259,2.021135243922604,-0.628441764047576,0.480494008343831,0.5751445929194855,-1.2487996701629085,0.4800256009281695,0.7205618679894955,-1.131277205785019,-0.21141166765076566,0.8639653703628135,-0.07214533315907123,0.8950175128401137,-0.6413282377259076,0.3795322423659596,0.8227986991188947,0.3735216485757237,0.9569672773660177,-1.2793566672738939,-1.0925810915011887,-0.37403968034979884,0.08409745091502642,-1.1277370442855474,1.0598765300903914,-0.10535660488091526,-0.4803084326473271,0.7582035733130575,0.6894642455826797,-1.9680836673030226,0.9120760741884103,-1.6829279980014011,-0.8087919123738185,-1.7156222767376093,-0.4169733571218381,-0.5025191344331534,0.6075094048033298,-1.3060298618207604,-0.012972973421534244,-0.4031417613480581,-1.021608950737643,0.36751741782068853,-0.6167992041756309,0.7161587324589234,-0.9380156465281216,0.9943538477296913,-0.5162196409221843,0.6585806722162167,-1.7851914759186096,-1.1391596778230355,1.8301953641031006,-1.0418862990796598,-0.5102808769302379,1.0779945655433847,1.0135542870639584,-0.3274988479618873,-2.5417045578153252,-0.5334758055274129,0.3860487169144498,0.20599718484457843,-0.18599124241747664,0.7173292094288505,2.365312525887506,0.13492139705110323,-0.6714951219855184,0.05031880652140721,1.4806578796943513,-0.0894844367518508,-1.2195707611244497,-0.11189586591531338,0.7327824241607385,-0.27261986490809736,2.0937808993115508,1.5532501722256702,-0.8546633185843265,1.1757986988760556,-0.42907077769580326,0.8767876093302606,-0.3760943668962991,1.5413886452535475,1.0474338567727055,0.4035301051502385,-2.283581972672573,-1.5653972909780676,-0.46825481360880394,-0.27042522467491037,0.16471630981121654,-0.7451849197307088,2.1696084467963144,-1.3079281170652612,-0.29825494781443984,-0.1798123890025916,-1.5750205883523158,-0.908794516105268,-0.5595763230703704,0.7085927098949971,-1.1038334635442202,-0.527990822586778,0.5745436923499025,-1.1369327855184759,-0.6983355457642367,-0.47329275116602704,0.29885096403618727,-1.0842037170666075,-0.417311552549427,1.7970372583049488,0.41024113591584505,1.566042751935114,-1.0024604979478549,-0.548662374205055,-1.4017183084404825,0.5281247054637865,-2.007370321224318,1.8534808878620317,-1.6548244213960002,-0.5664299932596936,0.017683300006918985,0.9233464698471996,-0.16123547758708814,-0.3100388728995343,-1.6683359311408097,1.004263088965372,-1.9019312487885167,-0.9175780240402263,0.3946310466969407,-0.14529718513596163,-0.08271420336973102,-1.0363736259149137,-0.7720628222213898,0.7980006989630459,0.6679840260301193,0.24579973477861086,-0.45644644814842233,1.8562134493070706,-1.1171656545693114,1.3479733272680525,-0.015343237165842587,0.12990783141717716,-1.1450009311757199,0.7294489073602616,-1.223441172972902,1.8627991601100395,-0.7083626019811493,0.5249406247912796,-1.0296996869851243,1.7351177500689503,0.30088072830682255,-0.49401814063310917,1.310934229206362,-2.0131374460634506,-1.7680595263358883,-1.2961023285057554,-0.2604111345396054,-1.362693436728364,-0.3857898395179083,-0.4793616566901899,-0.27692768381322785,0.03072866858824949,-0.9915506842324484,-0.32437982778989155,-0.5436358336842463,0.9745323476329998,0.9175114248359909,-0.8706145550567931,-1.62023037071115,-0.7322179970683625,0.045042983296788686,0.9714175316555196,2.4710849609962384,0.9842792714567075,-1.963898953950582,-1.7901904763648233,-0.5441660258405557,0.331310215893254,-0.03939352432496708,0.31175082441785884,-0.23374322149978757,1.0215511116771812,0.160521545523269,-0.9398680187067061,-1.1174510915183786,0.8274890809112315,1.3525723527454394,0.5247600716138902,-0.10310450275911125,0.2733802163616004,1.269833564898216,0.3880625671054931,-1.6096881043569196,1.2450895233549233,-1.59194383553951,0.15228159387296183,-0.9059824072768607,1.1538724749099132,2.127553941914062,-0.17022480972375312,-0.9485398113428115,-0.6870927079250183,-0.2492840245112985,1.9209332569791344,0.14841323756998617,0.09627800076906169,-0.10814232800921088,1.0820961753127691,1.042973230687974,-0.39982521123100406,0.9169132172364599,-1.430615452548311,0.7999731597349186,-2.1507655178661746,-1.0879459354390433,-0.1542967379822826,0.2612026689131609,0.09148458950070307,0.5433023850152329,-0.7196096114912703,0.986635743610225,1.2326937690470108,-0.10884524951334293,-0.055088422699012284,1.7323491510802171,-0.9848147482690855,-0.5366219270839931,0.02543800476304304,1.055953103724351,-1.4786081295689677,-1.2713561366669939,-1.649870628255234,-0.3288183851125645,-1.5616700988747354,0.01671118285724077,-0.14423161685729546,-0.4941264469368424,-1.1716254903338679,0.9116404421037952,-0.8420264104398371,-0.17249025591023986,-1.6419710941327006,1.0217277282945987,-0.8064137206220052,-0.28547053845215264,0.2298020315942586,0.13803018942958142,1.818387704215772,0.0548166153711554,-0.12810562475177525,-1.974934473598495,-1.8544154628519525,-0.15295880986845586,-1.8996352324695314,-0.35233888095617916,-1.8511034784627878,0.4305516064903921,-0.4873179582668165,0.3394918139118916,2.122492083660625,-1.39202591066916,0.7739883519628606,-0.5426106927791502,-1.9743673159837113E-4,0.9501052469921061,-0.6210426915417628,0.5389060596129989,-0.07740606407950941,0.4954638813503248,1.190576179526875,-0.3997440584443347,0.6870193800470368,1.058972944580041,0.10625413448469878,0.012001341498540022,0.0779732483357012,-1.6042340181640224,0.9810024236955864,0.5057095266247279,0.8600698991896542,0.5807190965458721,0.5000161061841937,1.1081806792668023,0.6956867495606992,-1.7785063240658014,0.19763208683312408,0.24632969088780277,-0.4132369571224249,0.44769393008707614,-1.193842642690417,-1.1788679062751897,0.8976745174716994,-0.9248974997257087,-0.9317503658520232,1.2286321592258842,0.2992938316525476,0.9277994242844351,-1.266020384548301,-0.2988236013552839,0.5402504788043778,-0.024719564512665795,-0.6381667835823647,2.86570902354005,-0.05001038149104118,1.927676793767624,-0.3174678535694667,-1.4633395009381205,-0.3639479450469686,0.4982664062927541,0.3698362061907286,0.4195330879191333,-0.150942705377448,-0.9645402698286251,2.1261028339818315,0.9595689193454309,0.627728584100891,-0.8935654564413709,0.37805205135040754,0.7229815847046327,1.0712943923621632,-0.11645108596836969,-1.3769247237863038,1.190093708163885,-0.6542567423039385,0.14302330255721538,-0.07609599761504611,-0.7457622529784859,0.7356133468423659,0.931620900656594,-0.6112737073772496,0.7913395704163485,0.33232890284630306,-0.6432884798098083,0.27813934567560455,0.26189832671637653,-1.6549707806063862,0.1337815618266012,3.0187482165927593,0.3923060459750331,0.9087325554235998,1.4943423746990383,-0.7987391514699852,-0.9750800833000006,-0.44310057491413396,-1.0219521922166936,-1.196070910524833,1.4713470054123905,0.316801142457603,0.6452685625631763,-0.16999789909703414,0.39787732122193303,0.616417292373211,-2.0335218170977485,-1.3304958453488092,-0.11175984311532887,0.9051186876741063,-0.6214686751442561,1.257103405882114,-0.5773612093136355,-1.4803103200715668,-1.039983108892382,-1.2379451618460635,1.4707047169344476,-0.17278196439023794,-1.350218139306391,-0.7614296966700204,-0.7032983077339997,-0.49761852802024803,-0.31152190899947874,0.07377298781990178,0.6137408774635602,-0.7927069586216965,-0.2935995139505819,-0.4668622042611739,1.4278057209612935,0.9242327468775802,1.0779097315779935,0.43018753830027473,-1.769516999729291,-0.2056347471702447,0.9776669631040312,0.9887713213289872,1.4266607076960554,0.35794212605237474,2.603159605400743,0.15726432549657748,-0.5795170949126499,0.6589686806107147,0.2478452334191859,-0.5827291757244333,-0.6296423799744859,-0.6961159802628072,0.6495117196742483,0.343694371350607,-1.2497630957184576,0.5162801818058798,-1.9628245794976342,-0.6388962597080795,1.0543259751319034,-2.778391089111931,1.2059697943072782,0.10640074347700713,1.522845089912411,1.2915325667216033,0.27804146282379877,0.008137140004750661,0.23710210809817006,1.4864648386588175,1.939486880197017,1.2102665625940154,-1.250417829863637,-1.4725367755131185,0.3524846489393892,2.1238070070935944,0.0732872446786074,-1.3783833710485467,-2.824254825417491,0.7290297836715139,-1.7094211597670221,0.09909932754701652,0.4522259298999081,1.0567670281347443,-0.38440728257477585,0.4784061865742504,0.5435549959648573,-2.9552564011576745,-1.4925592645382464,0.35416235101612115,0.5076180250039563,-0.7736347333702562,-1.648477895714638,-0.0415224021556042,-0.512051592107046,-0.6450397682133665,0.5965360749373372,-0.715190326025352,1.5352958862915074,0.4038746882749741,1.1276838557985558,-2.0220466365414347,-0.030829976497367205,0.41802535787917056,-0.4912330030785895,0.09808296665472697,-0.794924511679638,-0.5632343174959229,1.119699156209832,1.1766049205595985,-1.626588171041552,1.2981247691277409,-1.2250166195106735,-0.48347580731537754,1.2342466004703712,1.3743552290291314,-0.5282853142083767,-1.415908037828897,1.9571707296684593,1.429678490190657,0.43317845017383716,0.10395844683259825,1.9916381765615534,0.00850553629628667,-0.10623420203612376,-0.8134704086790464,0.04722244013100058,-0.2501634166033507,0.03215751414518014,0.022166894948528464,-0.20035266608130495,0.6082488972208672,0.23644289467207727,-1.3609513616797355,-0.01329998889281802,0.5995706017778757,-0.7816389176748546,-0.3792459379538453,0.5264196814672504,-0.19365317685073266,-1.0709387114441318,1.0227767677346957,-0.11475506583588528,0.5122610705409307,1.0559968936209039,1.138975844683784,-0.12885269509538708,-0.9874159639045886,1.19387043917999,0.2703369880599731,0.1716140144879747,-0.17266948370117488,-0.5730103181847115,-1.5779410262117768,-0.7232105388957342,0.6507538426028286,1.9947946545788149,-1.2134354141553991,-1.2693024628070282,1.2814588013225119,-0.7175923225855142,1.050585030889948,-0.32362712242438285,-1.4611551749592835,-1.4617985969580467,0.3207690237823879,-1.3319621667742638,2.5514444702468246,-0.4643060494744909,-0.8388919612748076,-0.22280812633360064,1.1024968395083812,0.11004985765034055,0.7028977099134927,-0.8405188937174358,1.0680826733843083,0.12914657357648637,0.43565395425582515,1.3972078111606148,-0.5587436830371446,1.4455817449602142,1.6239746930659147,0.07694153543615091,0.3437614542704477,0.3122365085018589,-1.2303573954999647,-1.0347627753856832,1.251918234029152,1.8285923890844935,1.2827274117142597,-0.1561129442447336,-1.0961895832027286,0.31091543521596604,0.06946471079465104,0.7344498591495672,1.3318072365367846,0.7277583598361563,-2.232114706787273,-2.4939300593944753,0.011891178205206441,-0.16901587988449215,0.9816186718294744,1.701293784284417,1.762250990808886,1.5561373467787358,0.6164135776767601,0.15580444182776362,-0.049303028238815286,0.23529781413754525,-0.17451213587165287,-0.17293331786231336,2.312913214599469,-0.07399307330844775,-0.46089972581849287,-0.5620281489793444,0.5796386369198036,2.0752229315003548,1.3611072482983,0.9099851482887644,0.4933606092498137,-0.3233693417429504,0.8897154829877338,0.33548753251692065,0.5903309104470078,-2.156257545836683,-0.8524548381277622,-1.6003596867154006,-0.7189867123075557,-1.3152545449798976,-0.6135782628029436,0.8287362594164993,-0.759774522290896,0.19216659745367354,1.0684622963126018,1.604786367995597,-1.0776087067642353,0.03547507827248105,-0.5573171710072528,1.0402575708470903,1.0936323879496281,-0.8901381457973111,0.2095280044785945,-1.6188696164700924,0.4976870217019479,-0.4523824376321703,-0.4730114816493526,2.6326936239578926,0.27946880352997083,-0.17458951253899302,0.36405289216304054,-0.3242202638054754,-0.8621872218782988,-0.21135711569473675,1.7285588437853348,-1.5853212201153422,-0.28303337632988784,0.3328378252074247,1.1716306030887864,-0.7091827174282039,0.19745515214933557,2.255974263601726,-0.774654427136154,0.7888209070984522,0.5615722057008832,1.1477633064182424,-0.6672173634826655,2.021017948698839,1.864121962466618,-1.413937204691123,1.021089592976438,-1.15499070697246,-0.5150450988747687,1.332323634164701,-0.6270257638483245,-1.0587093415545459,1.4197141090486785,-0.11700354517400088,1.7442051397277816,1.0603931523796666,0.4981658827472076,1.2280506127624122,-0.650358185144716,0.5676931575651667,1.2466470252536241,-1.5292120479481688,0.4118724995644147,0.12346876514284484,-0.0441443858387052,-0.2302512748108194,-1.029143776939888,-0.5110246431322569,-0.21998560800028996,0.24632497992297359,-0.17252713030292519,1.4576051364769667,1.5423836555480201,1.0210820428954757,0.9614907818487759,1.6951978184200365,0.5993685593622718,-0.4653106761072375,-0.3161186919945538,-2.4664805011837263,-0.5315236567990285,0.7682573719859728,-0.6232729435263152,-1.0362732267766168,-1.76954774077796,1.0582851393786799,-0.36972989992676797,-1.3225312970927825,-0.7352851361128933,-0.8430401315927376,0.36586001962372366,0.21520331206391338,1.1598954110182125,-1.785879141437174,-0.5956908679282297,0.6150131430731921,0.29528674842774827,-0.13834545843891827,0.5036052636672222,-0.5280104950022974,-0.2029514148104829,1.001715247828014,-0.18578891037306786,0.22748539741718882,-0.6296967906671536,-0.06672088812434902,-0.8961077276558447,0.7242413107831527,-2.4952473074232957,-1.1810235565209557,-0.5618355570297935,-1.1499018627795192,-0.26082661223623743,-1.0444329206706828,-0.3377610132614112,0.6703407775002181,1.1691342132467157,-0.65693619338161,-2.3856062380650638,0.457844922018788,-1.6368614152169867,0.8736524978048784,-1.029697850491806,0.34789413462943425,0.5045669195900104,-1.2625628135492404,-1.3584812498123457,-0.5572762421557229,1.452825254217451,-0.4485888408605539,-0.575876075663816,0.459828616583572,-0.29290876454887343,-0.05216563409558742,1.4229577031867564,-0.18316089422140588,0.563764111470763,0.8797657959118536,1.140248356960907,-0.30837543213506063,0.169215953647454,-1.2565094179180125,-1.7664474717157956,0.3724452049550224,-1.244983324345442,-0.229143334834022,-1.6275297195773137,-0.42832390867072534,1.2067181551801123,1.1364723416335594,-0.842927151862971,0.8858263623386484,1.2923471114185525,0.7133537408041131,-0.6928598140651478,-1.4418634765326857,-1.4094673154786788,-0.06741842178519103,-0.2587237130176371,-1.5343422314308162,1.386805118664124,0.12559367788873202,0.7310170980135029,-0.5971326456112739,0.01354195103474951,1.4135788754146765,-1.943278115417506,0.28041829439053784,-0.6490058462696522,0.18634493166113536,-0.5669331830539267,-0.7103705587714877,0.7166679930492379,0.5062692418834693,0.10139916575445918,0.4998483910349252,1.4957753501885855,-0.7530793541623362,-0.4461863261678497,0.6013834734620663,-1.2294770746554313,-0.023281799324370404,1.0959936174663998,-0.8485752823053883,-0.5446583251810126,-0.893573331795568,1.3601920461056414,1.338882137383524,0.052466895462230136,-3.297075693047924,2.766771054704396,-0.05801945678970935,-0.41027021094134664,-0.7458132954109198,0.34067668085685304,-1.5455263961802839,-0.25155677010173616,0.5541190827922149,0.4770930573895753,-0.10448818270279772,-1.179702883201829,-1.0800118493870787,-0.9157958401800236,0.06596438941042211,0.825180593769039,1.0525916763808072,-0.17946273336119598,-0.4869200279752234,-3.81260083319861,0.07511087398878837,-1.7558841937324003,-2.414940667425371,-1.008229388176282,1.3665039513979633,0.5100490161214954,1.0736902552997243,-2.5992783571228864,1.437275020303829,1.0363984529761283,0.5000951495242923,1.3853969987114112,-2.1572212287786208,0.08865437025004862,1.2392708831415291,-0.009163270742610807,-1.2065230743958413,-0.59880519033676,-1.09945008751705,0.17177195121135658,0.22178250177376874,0.4318241640225844,-0.8668692319263493,1.3238197388180095,0.9847321053122643,-0.6574057099720447,-0.11416305008527539,-1.0709942788544233,-1.6446237555796057,0.3064856338716262,0.2854946520070324,-1.5366296668725392,-1.177010740850986,-0.6033320947612736,-0.40991899334143345,1.883670445694344,0.21839549699852925,0.37786605712481214,-0.09925207762960787,1.8912726656754213,0.19765409007890639,-0.6252199245322007,-0.8941552170229692,0.11619915732235306,-0.49064651269829274,-0.07951940704864412,0.3918098832919928,0.83891223908516,0.4910246813543546,-0.8895128231334705,0.20961239073975577,0.693962461522449,-0.9426862532057094,0.41666282941117705,0.5080056992197016,0.16804326772871203,0.8039778044575658,-0.12744777678726363,0.011535878322270978,-1.5315365998645967,1.1421450765290166,-0.08189437045394218,-1.2434606895768154,-1.3017808137182805,0.3407513853260485,3.178427355839817,-0.34651981299970946,1.011896361155783,-1.3371828795972476,-0.11314565575759808,0.4159285034836732,-0.6037550438733225,1.6282427515066935,0.18874508401332032,-1.3738718641908205,2.134088841536407,0.08727938024894205,-0.00576180907809636,-0.354646272600244,1.889117547300939,-2.2872157057428693,-0.9965995755748673,1.1329618641747174,-0.7171562439144892,0.09490188509505477,2.5390954963904937,1.0994631240180297,-0.862622798164183,0.05107934927167298,-0.31875346576258495,0.8409780219183871,-1.2573840512959233,0.4694460475306458,-0.46567479781054844,0.6762406351566391,1.0257098361549772,-2.2082611682376214,0.33523738403813946,0.4815493868598964,0.3857257557075905,0.9897098334064712,0.6626099870334365,-0.2859583372796685,0.09105383990809719,0.15523215988580383,0.1208344305712083,0.060310988950616255,0.810326658439843,-0.4037931801287813,0.9705401223939961,-0.04892851698458693,0.8170055849218087,0.3355555526464401,-0.05227784573768189,1.5698994755315385,0.2873881620179982,2.3195621317604003,-0.5973617760934845,-1.0453873296709901,1.8721713340738364,0.16981593716157345,1.683568099624545,0.22112102711863382,0.8322904616186164,0.10268266385121506,-1.0776731829199189,1.7097912355075802,0.8395679147814812,-1.4729447045555861,0.009023010482679472,0.1542201287692215,-0.9829843608561329,0.37769061889521516,0.06426724161915966,-0.10672452739094809,0.16908796449399158,-0.4377798627016374,0.2686831307158244,0.3187738429049319,2.048483426827134,-0.5086944004277285,-0.4358508793530972,-1.589918800197735,0.8288007708808778,-2.74933542371002,0.11190069668978062,0.03450228811132717,-0.25619310316494437,4.393301610188216,-0.6978160431164515,0.6490812078551839,0.19888696143236034,-0.9978021368439045,-0.28729135553975876,-0.9310272194262137,-0.07424087979045572,0.23563167045860428,0.06855273378980092,-0.4653278882668537,-1.8561900519262766,-0.6864531539806592,-0.9092437704342314,0.2468781790989625,0.20356546404123999,-0.018925413126454495,-0.38047445752330106,-0.1802273523546311,-0.48277704787181847,-0.9681324626787372,0.2717579107532847,-0.04072114239637874,-0.8750296470697968,-0.26360602751586526,0.40279785940516255,2.4367688769402815,-1.3873487408810554,-0.909065969107172,-0.48333043388396685,-0.2637739326838343,0.01105493168449318,1.1695096702869872,0.0499345101864046,-0.08983555290148687,-0.5512859667350515,-0.878651494147342,0.2573436716795694,0.032513559251700845,-0.7337597904386539,0.5479084780068575,0.341117991592301,0.6072176223744402,1.113862324873342,1.3531132063833535,-1.358727231611398,0.1913012127987688,0.22893196539683044,0.5879452419934587,-1.7139701033022925,0.8947763202389551,-0.5294736147987938,1.3971734708593082,-0.6863841356880546,0.3083504387819676,-0.5008987629520083,0.23956220104279158,0.09892744415549166,-1.8653524336494267,-0.6966650579753126,-1.3171916191342894,-0.06496061282433174,-2.1078589796454272,1.1802143483528844,1.5070628991330837,0.3908931720961185,-0.06602849211226365,0.5473040856866018,0.04281298976293561,0.0570961249344641,-1.218048800926021,-0.7976338929110993,2.5023458850573417,0.8911688573469273,-1.3466304462441092,-0.25731485081622224,-1.285942095313737,-1.545098122211887,0.2430511822282472,0.41918853679246454,0.963909451971812,-1.2141629972918704,0.011066072844689126,0.04200279141418661,0.01619513518011821,1.3868307407272695,0.8708775720767425,0.8113061987921953,-1.0906405876809748,-0.16545113532518743,-0.5962891504118839,-0.04590370288051261,1.6894834228211495,-1.3262769098751481,-0.1209393340252546,0.8032825763690916,-0.592815919332682,0.5167931992916197,-1.4345787375578325,0.8665051141860651,2.0734534228316956,-0.3722847584628833,-1.7342813090437827,-0.06009543879069646,-0.5301281671566326,-1.4464980151362494,0.13022025874339904,-0.36825516303976297,-1.1255336349217198,-0.33587588134366864,-1.712085182262999,-1.3060225556271996,0.35027811492122085,-0.20892651918308605,0.2995704275225693,1.0941728007798448,0.013296258385856168,-0.07624204781109781,0.8219624374403347,-0.42385628604102304,-0.6325451453783498,0.3531600896915156,-1.963237055206513,-0.6959347807632958,-0.6070035479103411,1.1895096312544098,-0.8676141613045153,-1.0384694559573708,0.2660858887611575,-0.041172103451867184,-0.04901420662531848,0.533939609957546,0.5989545088975485,1.359560961912412,0.0997080103050591,0.04394274069730922,0.23783595637306668,0.49128534494782466,0.6469114137534151,1.4601802321663078,0.08624255439225574,0.02039180620605428,-1.4930777296388498,-1.0820979029724478,-0.33252589501376945,-0.8925554753739988,-0.12400795657575056,0.44986784924254103,0.7056858885422288,1.4934660648798146,0.12251546326956293,0.32844340334324146,-0.756888555354671,-1.9862090645004684,-0.19901659060799373,0.4232517464195978,-0.6706580004541849,-0.8134913781343189,1.3157788366731076,0.3454071204430766,0.4873245778473342,0.8919471522176243,0.3761658944078766,-1.971173651787979,0.7575661546667761,-1.0124956951542947,-0.045581949267746454,-1.456054605034782,0.16204133813367624,-0.01694245078036716,1.4114041829121915,-2.330258872214417,1.1513578666454967,0.5091243767815608,-0.050669320973578943,-0.8835147770332697,0.8537358874091793,-1.723893963522772,-0.8498145429624587,0.5272790662202779,0.5192172772081606,-1.119002848243015,-0.07770202751959494,-0.41660496419997517,0.3250792554881491,-1.229748513549675,0.5657272632821873,-2.8134018038245854,0.17263478064617388,-0.9540911175834167,-1.9975830775599641,-0.599310108667861,-0.036934366511728614,0.01289776056610206,-0.5413800763035538,1.0458642849236048,-0.27221253842369897,0.859784197756974,2.0087593795102556,0.8167443034115025,0.5408665116584447,-0.3679367161291157,1.09835083407527,-0.10548301143680854,1.165860420503429,1.3527512729257114,-1.4527631571136312,0.23720619735019594,-1.7954436256765078,0.5791219518264595,-1.1374732889417427,0.5858648363565212,-1.0507697846655664,-1.408287561139411,-1.1627719222869732,-1.0881673199178519,-0.1053662079901748,1.352662830264742,0.3307704341375187,-0.3555272603187337,-0.4954114892385032,0.9544109476113075,-0.16103959956597516,-0.2063688322993686,-0.8362089077943414,-1.7365441639580517,1.1405980836726772,0.9909337891733783,0.5609740635339366,-0.02912720758721917,-0.26296140813913715,-0.9927742635026588,1.802980568283488,1.493164972498575,1.6177743893748973,-1.0490485780845207,-1.0159160750064455,-0.44536147834765083,-1.5444186976124432,-0.13059199975488442,-1.083756230511421,1.883759181430108,-0.5239878084867851,-1.0274637437068166,-0.1783850116206,-0.0639162212748336,1.0474318402647027,2.2006443907412994,0.1427092442072855,-0.6625945048612765,1.7367592480104546,-0.33404569288784824,1.0480671873519942,0.2690634968757806,-1.1560528379481456,0.7097011681023953,-0.2384870389604959,-0.9127450150019201,-1.1206453217269257,1.1208058632971039,1.9705348507358322,-0.42677983038496564,0.08275732973969546,0.7474368109276416,-0.5124344809104654,-0.7639416998842106,-0.839705344961473,-2.46383689046544,0.08880580319362524,-0.036527524166503914,0.6989714799342325,-0.7667900120044586,0.39734700396479494,0.3067428631942884,1.384190692917043,-0.25331117930112607,-0.6476082827462081,1.1746613288039358,0.3779660253105879,-1.0733420724212366,-1.271625637500898,1.038633137362203,1.2775429189870438,1.439510721327629,1.4755295810299807,-0.4108987144392654,-0.928969521811038,0.5870660385752633,-2.4885984837726403,-0.8230693597014072,0.15263040116013732,-0.06530822102963503,0.12505890395346023,1.0701268320352022,-0.5932901882124553,-0.5172053531196856,-2.2160428543825113,0.00498560835782796,0.5688249410311981,-0.8004954824973787,-1.6680498364709107,-0.03833393820919787,-0.7453401608547868,0.6282670691908753,-0.9186943412541945,1.9983754306111543,-0.5270287321306778,1.6262853792766245,2.033705397628566,0.1431803790355564,1.052373193672772,-0.10510180772209318,-0.10835030292866832,-0.9579230521839484,-0.22098170270777848,-0.6072428120813617,-0.7677220207972749,-0.9476080577909807,0.09226765937680567,-0.5554107453300838,0.9119380003036803,-0.5022092651711952,-0.9607610406846925,-0.3574330478749676,1.094167293174369,-0.21613402153180641,-0.07277298980875005,1.652278155587572,0.8526311282662637,-0.40901978884511453,-1.4647073018938017,2.397539692674789,-0.7010638584472907,2.3617023839481703,-0.14139238825935854,0.033831277358417726,-1.3006717306000142,-1.0741567040249231,-0.5299689846867828,0.2599927664869905,1.2552158649044691,2.641604847202011,-0.8900766256352373,0.5303188908841979,0.8659630543761977,0.3806202465806057,-0.9550775320070405,0.12890135666162575,0.050624101306255054,-0.23171528111843573,-0.5688953588505735,-0.3441317655747944,-0.057756502062253884,1.1737071036452589,-0.8165891088567901,0.5948454634288992,-1.0346860652475973,-1.273208369812889,-0.7509213609805264,-0.2294208078782056,-0.575339102889598,1.106739466870805,0.5046413577642452,-1.010376978721824,-0.06704938009293605,0.8509607546403505,2.236024016537427,0.40980132220480076,-0.04856701158043067,0.18471689351180884,-2.020493432460699,-0.5537520372121816,-0.9196343718321262,-2.334823718336054,0.8349422820522976,0.5535560895783384,-0.7834275216468062,-2.1607201314098385,-0.41006935668920036,-0.3851122920375359,0.8191362075731459,0.5900109005350286,-0.6174901696915279,-0.801348607416396,-0.3112945902706909,1.044467986242701,0.4338734297366427,-0.9379667296124097,-0.8947315044743888,0.012014232139549814,0.7094882404397617,-0.36918660724820895,-0.322001269735565,-0.5604546047476785,-0.8245438021026764,0.31140875740360874,-0.500202185711954,-2.068088424251369,-1.7680163905770547,-0.2507788807857794,1.3358049775903464,0.07734118646947982,0.8359335806649527,0.3786092915978213,0.07426736666115744,-0.354173016071383,-0.6510592916888517,2.037912473842252,-2.6883357873837572,1.688607270715809,-0.2136173411526408,-1.6629954329751093,0.5786172852374534,-1.7199867452238324,1.5328232769537962,0.36086337889140924,-1.2304850159739877,-0.15941994243832366,-0.8882636727935482,-1.32764297986134,-1.5204432909713586,-0.14244449631114098,-0.3242355916776101,0.0354165678328398,0.0750205964357833,0.775510399517305,-0.5871969554006188,-2.2823849140750783,1.5589301837598026,0.38118140630850933,0.9479871860619498,0.34655116443661915,-0.5740553989079132,0.060100384237841926,-0.8970013540855974,-0.8329741552339692,-1.7270841928191922,0.43494922541042796,-0.5085167255435409,0.9732913427291765,1.9353753326879952,1.0974496132852045,-0.7672676694587175,1.7875615361924257,-1.689298871755377,0.26585714155964973,-1.6524637179245019,0.231995311519442,0.10091471563747972,-0.7968103409368068,0.33209885983900894,0.22291812296232005,0.6635734530722244,0.05684367216733421,-0.011082433529958937,0.9165932582648766,1.1280760879974583,-0.37013146895010346,-1.1386221769404363,-0.42995454821155543,-1.192560079808674,-0.1977454249424396,0.5627955333922491,0.4567137681063453,1.6317350152578225,0.8961218425012871,-1.3520057025512833,0.7933394594956648,-0.7930963611834883,-0.7220606005566449,-1.8917274819637677,-1.6096193880004095,0.5894420199323245,-0.833947431741734,-0.3136270136818725,-0.0020765951719028328,-1.1012954298816289,-0.8196342407040451,0.3419883139660169,0.06843869241998939,-2.183158523238894,0.016082052465778682,-0.8452489656781872,0.5188529271084943,-0.4759986754124538,-1.0059330222138292,0.6689647845753899,0.47971109749003943,-0.7677638138273614,0.36417221351321954,-0.43050868313396734,0.3559546618760858,0.7008731322018673,1.7343028370903595,-2.4981612363861863,0.09280589390404799,0.2834812411289035,-0.3326141663333107,-0.8946413693814608,-0.047928203472404764,0.7284379462120312,0.21634743007445192,0.04531463045878411,-0.8735264412415572,0.8411921383564466,0.28167844496115124,1.1581968022260798,-0.40236539428292645,-0.8378047063414286,0.5498960023150116,0.3837085232450019,-0.5668487832445248,-1.5271972544921655,1.4602929050463846,1.000905817822968,-0.14987328703335331,0.732235210849026,-1.3444181647054687,-0.7331383911702511,-1.4716831836164188,1.1795291697263268,1.0340026738333339,-0.4281278644758532,-0.35463291693844007,-1.5470931582608158,1.8533647044052806,-0.9266489952577117,-0.7857431867225521,-0.012050979876011305,-0.5374856928987799,-0.9567156287800178,1.156036954511769,-0.998744544481859,-0.42622827617484543,-1.4515844746632776,0.9445314372853618,1.5013558758386014,-0.9282363312328725,-0.9035338107856548,0.5033325250439676,1.6711680918874838,0.39685543027849557,0.07371976930684972,0.05762102764115324,-0.8018395429945477,0.6136839977912967,-0.6510545717463506,-0.25469982891313825,0.29741997879915194,0.23054787124023013,-1.2767018386454376,-0.15076641336988605,0.9699390219515792,-1.502198894960741,-0.3697342648477967,-2.451379737750665,1.076031324401791,-0.21546125840704194,-0.4622417584276661,0.8700663789741105,0.5290756896422607,0.9030696775022261,-0.37538633604638516,-0.28573700951334796,0.9853325598263687,-0.18490525658518067,-0.4216706761916541,-0.9295568260326844,-0.32661721418404427,0.3509199862265043,-1.3940846425039937,-0.26416241925239825,0.8148867226952223,2.0491850328874848,0.9128611086571694,1.1070585582845793,-0.34321456932920025,-0.36119503622199667,1.6933761547536228,0.7115530506876526,-0.604554948802903,-0.47308360144505557,0.5105560146187608,-1.4441355431731893,-2.026708079967861,-1.1415043755660885,0.19956844887786715,-1.8162042652414285,